{"conv1.weight": [[[0.4785950779914856, -0.28726300597190857]], [[-0.6162299513816833, -0.07295264303684235]], [[0.6212976574897766, -0.4534073770046234]], [[0.10842681676149368, -0.1190122440457344]], [[-0.5595881938934326, 0.5435827970504761]], [[0.4650462567806244, 0.4931125044822693]], [[-0.27160435914993286, 0.15317493677139282]], [[-0.4902859032154083, 0.4220781624317169]], [[0.2652003765106201, -0.2786964476108551]], [[-0.14378494024276733, 0.10729679465293884]], [[0.3922041654586792, 0.25682902336120605]], [[-0.06930089741945267, 0.5039034485816956]], [[0.5498934388160706, 0.11216185241937637]], [[0.14575979113578796, -0.18372221291065216]], [[-0.25761473178863525, -0.6517932415008545]], [[0.4881605803966522, -0.46975624561309814]], [[-0.258009135723114, 0.1620328426361084]], [[-0.153309628367424, 0.6199183464050293]], [[0.2618701159954071, -0.7038657069206238]], [[0.7220082879066467, -0.38373973965644836]], [[0.7314867377281189, 0.03342919051647186]], [[-0.10420627146959305, 0.5945959091186523]], [[0.598789393901825, 0.5319250226020813]], [[0.38719141483306885, 0.2801715135574341]], [[-0.3647083342075348, 0.3142037093639374]], [[0.5508350729942322, 0.6560971140861511]], [[-0.08389977365732193, -0.5053998827934265]], [[0.33696943521499634, 0.22998042404651642]], [[-0.16075897216796875, 0.3946855962276459]], [[-0.3596268892288208, -0.5957251787185669]], [[-0.6493726968765259, -0.3105907440185547]], [[0.6946808695793152, -0.4971727132797241]]], "conv1.bias": [-0.6499402523040771, -0.29294490814208984, 0.46151742339134216, -0.6668612957000732, -0.11740563064813614, 0.5829569697380066, -0.508211612701416, 0.643942654132843, 0.5822281241416931, 0.33433806896209717, -0.06637486070394516, -0.44613200426101685, 0.6557719111442566, 0.29997771978378296, 0.5163649320602417, 0.33753499388694763, 0.6131572127342224, 0.14442864060401917, -0.4066995084285736, 0.322452187538147, -0.07009483128786087, -0.09355521947145462, 0.6400139927864075, -0.5153353214263916, 0.2322547435760498, -0.6572256684303284, -0.5516470670700073, 0.41851967573165894, -0.5500683784484863, 0.17319317162036896, 0.21130333840847015, 0.48680540919303894], "conv2.weight": [[[-0.09592136740684509, -0.1251133680343628], [-0.11406299471855164, -0.1747589409351349], [0.04308247193694115, -0.1071154922246933], [0.002187995472922921, -0.055215250700712204], [0.0140329385176301, 0.020566489547491074], [0.030023183673620224, 0.009623007848858833], [-0.048977769911289215, -0.028525862842798233], [0.09071795642375946, 0.021875957027077675], [-0.0836062803864479, 0.04258985444903374], [-0.04009116068482399, -0.10001068562269211], [-0.09105721116065979, -0.05119454860687256], [0.08316082507371902, 0.039232514798641205], [0.049772709608078, 0.06380381435155869], [0.0014342681970447302, 0.07405457645654678], [0.014327649027109146, -0.052131425589323044], [-0.018615933135151863, 0.039109598845243454], [0.04840225353837013, -0.12152232229709625], [0.1324208825826645, -0.12399011850357056], [-0.10513835400342941, -0.019129149615764618], [-0.05318351089954376, -0.040140002965927124], [-0.009487374685704708, 0.1267041563987732], [0.028782427310943604, 0.04891807213425636], [0.026051988825201988, -0.06481244415044785], [0.058660030364990234, -0.06950879096984863], [0.10954620689153671, -0.13516709208488464], [0.029326025396585464, 0.022275589406490326], [-0.07713528722524643, -0.06476959586143494], [0.08297961950302124, 0.13005930185317993], [-0.0317595899105072, -0.1113508939743042], [-0.15353046357631683, 0.04088783264160156], [0.09058760851621628, -0.042602479457855225], [-0.0908803641796112, -0.07486763596534729]], [[-0.01616269163787365, 0.03676782175898552], [0.04123367741703987, -0.056417275220155716], [-0.006562350317835808, -0.08949685096740723], [-0.08089938759803772, -0.02582365833222866], [0.001559126772917807, -0.10468412935733795], [0.13846665620803833, 0.05852473899722099], [0.031196700409054756, -0.07930327951908112], [0.08662593364715576, 0.017935920506715775], [-0.09079819172620773, 0.11043906956911087], [0.10751204192638397, -0.09253581613302231], [0.12482847273349762, 0.041195835918188095], [0.1399206519126892, -0.13909238576889038], [-0.025264445692300797, 0.022525571286678314], [-0.14088086783885956, 0.0770765095949173], [0.025672221556305885, 0.10220375657081604], [-0.06510632485151291, -0.01192481629550457], [-0.0023022093810141087, 0.07373569160699844], [0.016787812113761902, 0.07748483866453171], [-0.14860135316848755, 0.07520702481269836], [-0.09055494517087936, 0.053463056683540344], [-0.0648515373468399, 0.1363925188779831], [0.1329859048128128, 0.09878753870725632], [0.06692112982273102, 0.112883560359478], [-0.041723791509866714, -0.007727591786533594], [-0.09097623825073242, -0.0852435976266861], [-0.06677217781543732, -0.08157894015312195], [-0.1419340819120407, 0.11326083540916443], [0.0006465334445238113, -0.07570039480924606], [0.08688626438379288, 0.08271881192922592], [0.06629306823015213, -0.11745155602693558], [0.052488405257463455, -0.06913851946592331], [0.05653423070907593, 0.12135757505893707]], [[-0.04948510229587555, 0.07335028052330017], [-0.04521556943655014, -0.11571601778268814], [-0.1045839861035347, 0.14275889098644257], [-0.04765995591878891, 0.11462822556495667], [-0.021923907101154327, -0.037617459893226624], [-0.04579349234700203, 0.07233905047178268], [0.04788660258054733, 0.019006304442882538], [0.04066157341003418, -0.008263814263045788], [-0.08114844560623169, 0.09609013795852661], [-0.03525737673044205, 0.024853650480508804], [-0.05781286582350731, 0.08633649349212646], [0.04870682954788208, -0.09139297902584076], [-0.10234186798334122, 0.007911008782684803], [-0.022461330518126488, -0.01789615862071514], [-0.0676722601056099, -0.09475637227296829], [-0.16037240624427795, -0.024399984627962112], [0.13772691786289215, 0.04669460654258728], [-0.02697991393506527, -0.06937161087989807], [0.07430630177259445, 0.09980721026659012], [-0.003520124824717641, 0.0786561593413353], [0.07157223671674728, 0.10185990482568741], [0.13299213349819183, 0.032004643231630325], [-0.02329977974295616, 0.08366276323795319], [0.05676326900720596, 0.1632685363292694], [0.03297312557697296, -0.1563340276479721], [-0.005104741547256708, -0.1101202592253685], [0.0864645391702652, 0.013047225773334503], [0.07734302431344986, -0.005269369576126337], [0.15308161079883575, 0.04767700657248497], [-0.14999718964099884, -0.0619201622903347], [-0.09211106598377228, -0.023727677762508392], [-0.14431609213352203, -0.013218105770647526]], [[-0.04551733285188675, 0.036871977150440216], [-0.11777312308549881, -0.07886864989995956], [0.05738367885351181, -0.018833598122000694], [-0.055064111948013306, -0.05688418075442314], [0.10722194612026215, -0.02942422404885292], [0.14642760157585144, 0.11582421511411667], [0.09100008755922318, -0.08975151181221008], [-0.06490936875343323, -0.05056815966963768], [0.07310181856155396, -0.015341898426413536], [0.11114015430212021, 0.10598307102918625], [-0.023054182529449463, -0.04088614881038666], [-0.05869074538350105, 0.041829872876405716], [0.009575385600328445, 0.08953751623630524], [-0.02940160222351551, 0.08680050075054169], [-0.1551031768321991, -0.13675552606582642], [0.014852294698357582, 0.12293215841054916], [0.04880789667367935, 0.03052438236773014], [-0.013289926573634148, 0.011706524528563023], [-0.05295596644282341, 0.049160491675138474], [-0.0018526552012190223, -0.028527257964015007], [-0.05848391726613045, 0.11574636399745941], [0.11442222446203232, 0.016105379909276962], [-0.05348154529929161, -0.034533292055130005], [0.03908207640051842, -0.005465108901262283], [-0.05721786618232727, -0.05264696106314659], [0.12001635879278183, -0.02476392313838005], [-0.09967508167028427, -0.11149725317955017], [-0.07838574796915054, 0.1415342390537262], [-0.04943379759788513, -0.09267622977495193], [-0.12539947032928467, -0.03685469925403595], [-0.12821093201637268, -0.1522652804851532], [-0.058781180530786514, -0.060383349657058716]], [[-0.10564649105072021, 0.024643389508128166], [-0.09725496917963028, -0.06790879368782043], [-0.028057776391506195, -0.08909589797258377], [0.023710373789072037, 0.029005900025367737], [-0.09378330409526825, 0.03306417539715767], [0.12210864573717117, 0.092157281935215], [-0.05373638868331909, -0.03653132542967796], [-0.08295421302318573, 0.05607974901795387], [-0.014274347573518753, -0.09685064107179642], [-0.020499413833022118, -0.059253573417663574], [0.07012882083654404, 0.0838114395737648], [-0.14620590209960938, 0.1608595848083496], [-0.07875724136829376, 0.10126959532499313], [0.06582801789045334, -0.15351927280426025], [0.04734617471694946, -0.13197028636932373], [-0.07447094470262527, -0.11285895854234695], [-0.10873204469680786, -0.05378873273730278], [0.07979100942611694, 0.07291807234287262], [0.07080450654029846, -0.05314015597105026], [0.10165943950414658, -0.0976681187748909], [0.1278103142976761, 0.05543697625398636], [0.05119426175951958, 0.10950073599815369], [0.043981991708278656, -0.039111264050006866], [-0.05491969734430313, 0.05628152936697006], [-0.016933908686041832, 0.16429509222507477], [-0.022141020745038986, 0.12758977711200714], [0.015904387459158897, -0.02692473493516445], [-0.013119795359671116, -0.05149450898170471], [-0.11658458411693573, -0.046411704272031784], [0.11374734342098236, -0.07928883284330368], [0.0725221112370491, -0.09421056509017944], [0.0815044417977333, 0.020343001931905746]], [[-0.07703064382076263, -0.024966133758425713], [-0.14009131491184235, 0.07512310892343521], [-0.07917880266904831, 0.11808434128761292], [-0.117086261510849, 0.10730056464672089], [-0.05138551816344261, -0.0027553050313144922], [-0.008603991009294987, 0.0999743863940239], [-0.07298801839351654, -0.10436835139989853], [-0.0038741743192076683, 0.09115155041217804], [0.0894106775522232, -0.02677963860332966], [0.019222721457481384, -0.05609364062547684], [-0.06035640835762024, -0.047164175659418106], [0.10820364952087402, 0.01511329784989357], [0.12535226345062256, -0.05079320818185806], [0.09886451810598373, -0.02110620215535164], [-0.08188533782958984, -0.030620213598012924], [0.05052364245057106, -0.016396885737776756], [-0.11669550836086273, -0.10382311791181564], [0.13928130269050598, 0.038452763110399246], [-0.010777120478451252, -0.048274602741003036], [-0.011826485395431519, -0.017110297456383705], [-0.09902971982955933, -0.06175730749964714], [0.1105206161737442, -0.05507165566086769], [0.09681432694196701, 0.09516157954931259], [0.04214422032237053, 0.04733804240822792], [-0.0012491638772189617, -0.05180557444691658], [-0.09375235438346863, -0.09848692268133163], [-0.14849454164505005, 0.026202492415905], [0.09410824626684189, 0.056777387857437134], [0.07535432279109955, 0.013714566826820374], [-0.05019822344183922, 0.022080713883042336], [-0.06883135437965393, -0.08939649909734726], [-0.08716999739408493, -0.0955473780632019]], [[0.038177765905857086, 0.010533301159739494], [0.09709645807743073, 0.1152753084897995], [0.0660073310136795, -0.012250091880559921], [0.09798440337181091, -0.09620924293994904], [0.0820126086473465, -0.1485784500837326], [-0.06609459221363068, -0.054433777928352356], [-0.058779794722795486, 0.0702403336763382], [0.11696590483188629, 0.007879596203565598], [0.11424016952514648, 0.07049122452735901], [0.05771983414888382, -0.08242492377758026], [-0.047012362629175186, -0.17807435989379883], [-0.15583816170692444, -0.16611094772815704], [0.10219011455774307, -0.05496843531727791], [-0.01878238469362259, 0.10355861485004425], [0.07516847550868988, 0.12029967457056046], [0.1259574443101883, 0.0011071121552959085], [-0.09879305958747864, 0.02353871427476406], [0.07233017683029175, -0.07169140130281448], [0.06057204678654671, -0.05783408507704735], [-0.10739010572433472, 0.11618240922689438], [-0.04070829972624779, 0.07971318811178207], [-0.02020406909286976, 0.006239763926714659], [-0.06480595469474792, -0.035646941512823105], [-0.10657034814357758, -0.15403534471988678], [-0.12144491821527481, -0.04006774723529816], [-0.13484534621238708, 0.008017107844352722], [0.010534839704632759, -0.04711499065160751], [-0.01300430204719305, 0.06068998575210571], [0.05738168582320213, -0.14473159611225128], [0.029752559959888458, 0.11590221524238586], [-0.00035535465576685965, 0.13502590358257294], [-0.11983215808868408, -0.07670331001281738]], [[-0.07886258512735367, -0.020613979548215866], [0.08644597977399826, -0.09832560271024704], [0.06712959706783295, -0.05529887229204178], [0.07568147033452988, -0.034776605665683746], [-0.08582021296024323, -0.13210506737232208], [0.02737673558294773, -0.01943381316959858], [-0.03412095084786415, -0.08431504666805267], [-0.00540170818567276, -0.06746937334537506], [0.11753140389919281, 0.07842762768268585], [0.09683021157979965, -0.11153721064329147], [-0.027502479031682014, 0.011455309577286243], [0.04126789793372154, -0.11196030676364899], [-0.033049147576093674, 0.03327753767371178], [-0.03178873285651207, 0.1293855458498001], [0.07061836868524551, 0.1225808784365654], [-0.09412206709384918, 0.005169319920241833], [-0.060376983135938644, -0.064181849360466], [-0.09154370427131653, -0.004655350465327501], [-0.10197571665048599, 0.10485777258872986], [-0.0796005129814148, -0.10159160196781158], [-0.10538704693317413, 0.144451305270195], [-0.026906825602054596, -0.14494888484477997], [-0.030952857807278633, 0.10214155912399292], [0.016805250197649002, 0.1172032281756401], [-0.08153829723596573, -0.0877220630645752], [0.11382965743541718, -0.05916619673371315], [0.016315829008817673, 0.11084921658039093], [0.04690634459257126, 0.013199648819863796], [0.047950781881809235, -0.1466330885887146], [-0.024898450821638107, 0.021373862400650978], [-0.11259753257036209, -0.03141459450125694], [0.05608286336064339, 0.13302786648273468]], [[0.07736501097679138, 0.07957854121923447], [0.04637567698955536, -0.1655840426683426], [0.01605052500963211, -0.10760197043418884], [-0.07508789747953415, -0.06589049100875854], [-0.036734212189912796, -0.04514116048812866], [0.04965364933013916, 0.1663563996553421], [-0.021947843953967094, -0.03469668701291084], [0.05658841133117676, 0.10775208473205566], [0.1019427552819252, 0.05962803214788437], [-0.024168111383914948, 0.07052331417798996], [-0.0505199171602726, 0.1456538885831833], [-0.028044946491718292, 0.01786496862769127], [0.04460621252655983, -0.019387202337384224], [0.03192884847521782, -0.08307080715894699], [-0.041370268911123276, -0.1502467393875122], [-0.06952740252017975, -0.10108854621648788], [-0.029229868203401566, -0.01663397252559662], [-0.11196782439947128, 0.12578235566616058], [-0.15232674777507782, -0.2134653776884079], [0.08777216821908951, -0.03466343507170677], [0.027800260111689568, -0.03497641906142235], [-0.029167940840125084, 0.057704612612724304], [0.08562170714139938, -0.015510899014770985], [0.016736388206481934, 0.004640521481633186], [0.09192263334989548, 0.09584208577871323], [-0.0004915599129162729, 0.10515599697828293], [-0.107707679271698, -0.01605486124753952], [0.0512547567486763, 0.1308192014694214], [0.04291071742773056, 0.08600152283906937], [-0.08580100536346436, -0.16164426505565643], [-0.003626990830525756, -0.029351573437452316], [-0.0288965106010437, 0.011081000789999962]], [[-0.02340085804462433, 0.057652879506349564], [-0.006066539790481329, -0.1833110749721527], [-0.05198482796549797, -0.04281279444694519], [-0.06908803433179855, 0.04984162747859955], [0.06723756343126297, -0.11515678465366364], [-0.09141600131988525, 0.051396481692790985], [-0.06523734331130981, -0.06007817015051842], [0.05800331011414528, -0.09106586873531342], [-0.12445957213640213, -0.07297371327877045], [-0.08101928234100342, 0.06490805000066757], [-0.07116466760635376, 0.11120820790529251], [0.018272770568728447, -0.01258315984159708], [-0.0801665335893631, 0.12115444988012314], [-0.04038098827004433, 0.10663287341594696], [-0.06511814892292023, 0.041242536157369614], [-0.09155858308076859, 0.126151442527771], [-0.011998306028544903, -0.007883286103606224], [0.10632995516061783, -0.05645626410841942], [0.0520675927400589, 0.07950809597969055], [-0.10276222974061966, -0.015407643280923367], [-0.0051584187895059586, 0.12452240288257599], [0.0826721265912056, 0.07660429924726486], [0.1401481181383133, 0.03476138040423393], [-0.09074846655130386, 0.0798509493470192], [0.12304579466581345, -0.006405259948223829], [0.114117331802845, -0.016033457592129707], [-0.014902587048709393, -0.11527514457702637], [-0.03140538930892944, 0.12745355069637299], [0.14132867753505707, -0.04608500748872757], [0.05615019053220749, 0.004305361770093441], [0.07742027938365936, -0.020865285769104958], [-0.10032825171947479, 0.016602780669927597]], [[0.06238505244255066, -0.004729008302092552], [-0.06711174547672272, 0.055688921362161636], [0.10434840619564056, 0.07113397866487503], [-0.010152746923267841, 0.043899644166231155], [-0.05487825721502304, -0.0068036331795156], [-0.03960123658180237, 0.05038833990693092], [-0.14010336995124817, 0.028025759384036064], [-0.12042158097028732, -0.02020007185637951], [0.11481583118438721, -0.004806984215974808], [0.08180778473615646, 0.06732702255249023], [0.15476496517658234, -0.02812710404396057], [-0.1640174686908722, -0.031133951619267464], [0.07682881504297256, 0.009379059076309204], [-0.01650475524365902, 0.06316772103309631], [-0.012154174037277699, -0.1466929316520691], [-0.008723576553165913, -0.10137560218572617], [-0.08714209496974945, -0.08949993550777435], [-0.08104899525642395, 0.12863798439502716], [0.015771077945828438, -0.0511636845767498], [0.13209395110607147, -0.11611180752515793], [-0.04659797623753548, -0.004455955699086189], [0.06476158648729324, -0.03055834025144577], [-0.05145961046218872, -0.03269625082612038], [0.1646171510219574, -0.089168980717659], [-0.023767583072185516, -0.005415512714534998], [0.10096292197704315, -0.10820336639881134], [0.03637927025556564, 0.019441936165094376], [0.04926823079586029, -0.03492047265172005], [-0.09138144552707672, -0.020800841972231865], [-0.12748640775680542, -0.06990700215101242], [-0.03408120945096016, -0.09441699832677841], [-0.01316254772245884, 0.050347331911325455]], [[-0.1021014153957367, -0.03442670404911041], [-0.0011784711387008429, 0.08367127925157547], [-0.15880094468593597, -0.048398736864328384], [-0.11237896978855133, 0.10818483680486679], [0.14802666008472443, -0.11844097822904587], [-0.10778395086526871, -0.0021389483008533716], [-0.08318093419075012, -0.14331991970539093], [-0.027369556948542595, -0.05801248922944069], [0.020199589431285858, -0.005049174185842276], [0.14728134870529175, 0.1153460144996643], [-0.06550058722496033, 0.03677307069301605], [-0.012286718003451824, 0.010420581325888634], [-0.08706225454807281, 0.04819384217262268], [0.02170788124203682, 0.004946896806359291], [-0.07436634600162506, 0.0674530565738678], [-0.015390939079225063, 0.1483226716518402], [0.15165895223617554, -0.060167644172906876], [-0.02492726407945156, 0.03659634664654732], [0.020579053089022636, -0.03902347758412361], [-0.16286545991897583, 0.12171909958124161], [-0.17606619000434875, -0.019495056942105293], [0.03703958913683891, -0.15670356154441833], [-0.13461114466190338, -0.07318062335252762], [-0.09962151944637299, -0.15079031884670258], [0.09338869154453278, -0.10518087446689606], [0.01999419368803501, -0.054818045347929], [-0.051279690116643906, 0.08391601592302322], [-0.08025220781564713, 0.10670877993106842], [-0.0119492681697011, -0.04170750826597214], [0.1343543380498886, 0.06743562966585159], [0.15629471838474274, -0.005769017152488232], [-0.032536085695028305, 0.036001697182655334]], [[-0.041932474821805954, -0.013875680975615978], [0.17185398936271667, 0.038119785487651825], [-0.09845542162656784, -0.11175741255283356], [0.09103099256753922, -0.037351518869400024], [-0.020079942420125008, -0.03401926904916763], [-0.04783335700631142, -0.0005799115169793367], [-0.07061705738306046, 0.03603903204202652], [-0.07203782349824905, -0.025883207097649574], [0.10610869526863098, 0.10797140002250671], [-0.032034456729888916, 0.006503022275865078], [-0.1271570324897766, -0.09595829993486404], [-0.05251132324337959, -0.012160765007138252], [-0.1316012442111969, -0.06062521040439606], [-0.06770563125610352, 0.01803659275174141], [-0.07468070834875107, -0.08281292766332626], [-0.12379924952983856, 0.017135867848992348], [-0.0996614471077919, 0.1124979704618454], [0.08574876189231873, -0.07119498401880264], [0.14244283735752106, 0.11893294751644135], [-0.12356700748205185, -0.1123921349644661], [-0.1370224505662918, -0.05350672826170921], [-0.0780273973941803, 0.12064403295516968], [0.014367792755365372, 0.034637611359357834], [-0.1499444842338562, -0.1231546700000763], [-0.032688748091459274, 0.060169633477926254], [0.04420584812760353, -0.019278431311249733], [0.10444620996713638, 0.007193136494606733], [-0.10213533043861389, 0.06140156835317612], [0.12387414276599884, 0.03570012003183365], [0.04911388084292412, 0.00953744351863861], [0.07111014425754547, 0.16035470366477966], [-0.09367887675762177, 0.10030397772789001]], [[0.1110864132642746, 0.041781097650527954], [0.06294600665569305, 0.006940830964595079], [-0.06062377989292145, 0.11240410059690475], [0.03125268593430519, 0.0801016241312027], [0.04821918159723282, 0.06062358245253563], [0.04117656871676445, -0.15661610662937164], [-0.05927472189068794, -0.01690724492073059], [0.03577534109354019, -0.07306695729494095], [0.055002205073833466, 0.02733968012034893], [0.10597384721040726, -0.0023102497216314077], [-0.05273979529738426, -0.20183558762073517], [-0.02471981570124626, 0.01320494432002306], [0.11728231608867645, -0.05594780296087265], [0.12481123208999634, -0.08335189521312714], [0.1246446818113327, -0.0364745669066906], [0.05105704441666603, 0.06295084953308105], [-0.0830167755484581, -0.08362501114606857], [0.004451668821275234, -0.027259275317192078], [0.1237737238407135, -0.08000601828098297], [0.09113467484712601, 0.07814556360244751], [0.0005787443369626999, -0.0922013521194458], [-0.16895422339439392, -0.1721857339143753], [0.07245811074972153, -0.12269851565361023], [-0.130103200674057, -0.11408854275941849], [0.011264855042099953, -0.13481158018112183], [0.04275379329919815, -0.10631034523248672], [-0.11166595667600632, 0.11723925173282623], [0.008324198424816132, -0.033178236335515976], [-0.13158367574214935, -0.1301589459180832], [0.020739780738949776, 0.1574466973543167], [-0.055823441594839096, 0.11710461974143982], [0.03637685626745224, -0.04617192968726158]], [[0.04653486609458923, -0.049018144607543945], [0.008126678876578808, -0.03653639182448387], [-0.034914977848529816, 0.06841688603162766], [-0.054720401763916016, 0.12541694939136505], [-0.034946508705616, -0.06574596464633942], [-0.053926944732666016, 0.11453647911548615], [-0.035147275775671005, 0.0511685349047184], [-0.05025600269436836, -0.06806263327598572], [0.08804338425397873, 0.02261517569422722], [0.032023023813962936, -0.0971270203590393], [-0.060491736978292465, 0.006417619530111551], [-0.0587744265794754, -0.06998246908187866], [0.11728180199861526, 0.02967153489589691], [-0.08433988690376282, 0.039806023240089417], [0.008257896639406681, -0.030734609812498093], [0.02227180078625679, 0.05721341446042061], [-0.030349459499120712, 0.0935898870229721], [-0.009621771983802319, -0.05263185873627663], [-0.009487912990152836, -0.0004868864198215306], [0.048551663756370544, 0.1376328021287918], [0.08020635694265366, -0.022731781005859375], [0.023189973086118698, 0.014412442222237587], [0.03777836263179779, 0.052839476615190506], [0.11532416194677353, 0.020691093057394028], [0.02932479791343212, -0.005345482379198074], [0.10955928266048431, -0.039104923605918884], [-0.08041198551654816, 0.017115911468863487], [0.013890175148844719, 0.08764772117137909], [0.12750981748104095, -0.09012503176927567], [-0.1169397234916687, -0.03312387317419052], [0.081843800842762, -0.1639242023229599], [-0.02085481584072113, -0.09201177954673767]], [[-0.017784126102924347, -0.013897624798119068], [-0.0633329376578331, 0.07393151521682739], [0.009937439113855362, -0.05342847481369972], [-0.02679629810154438, -0.03368835523724556], [-0.11050345748662949, 0.031103625893592834], [-0.0023617816623300314, 0.0034972592256963253], [-0.12137172371149063, -0.1399896889925003], [-0.05842643603682518, -0.07291145622730255], [-0.08613765984773636, 0.09756021201610565], [0.06586112827062607, 0.10763834416866302], [-0.06932294368743896, 0.07967464625835419], [-0.03400659188628197, -0.008814291097223759], [0.04373883083462715, 0.11763816326856613], [-0.11206715553998947, 0.07154802232980728], [0.06489306688308716, -0.0873722955584526], [-0.06856776028871536, 0.12793506681919098], [0.07182086259126663, 0.05294031649827957], [0.10956282168626785, 0.02187798172235489], [0.07879266142845154, -0.02058456465601921], [-0.0664551705121994, 0.12684035301208496], [-0.04979414865374565, -0.056236881762742996], [0.09636062383651733, -0.028683140873908997], [-0.0821174830198288, -0.0014270554529502988], [-0.07012352347373962, -0.018472641706466675], [0.019297592341899872, -0.04871515557169914], [-0.03804190456867218, -0.1283116191625595], [0.05871492624282837, -0.06920257210731506], [0.11688300222158432, -0.06255878508090973], [0.06269484758377075, -0.05351618304848671], [-0.010326234623789787, -0.05519184097647667], [-0.06814597547054291, 0.08382272720336914], [-0.04284638538956642, 0.12179897725582123]], [[-0.05884573981165886, 0.020472243428230286], [-0.12194264680147171, 0.03919389843940735], [0.09866053611040115, -0.05614672973752022], [-0.029398590326309204, 0.04278608039021492], [0.08521302044391632, 0.017391636967658997], [-0.045534294098615646, -0.0263972245156765], [-0.047097351402044296, -0.0046343193389475346], [0.011451483704149723, -0.09828860312700272], [-0.011816941201686859, 0.03428318351507187], [-0.057488247752189636, -0.10838583111763], [0.05314108356833458, -0.12464020401239395], [-0.1055019348859787, -0.2020946890115738], [-0.012366719543933868, -0.09055685251951218], [-0.04102222993969917, 0.12551066279411316], [0.14112307131290436, 0.07364297658205032], [-0.029817255213856697, 0.02181803248822689], [-0.10537393391132355, -0.0700632780790329], [0.06633526086807251, -0.17353039979934692], [-0.08837993443012238, 0.12119145691394806], [-0.03075554594397545, -0.05493622645735741], [-0.02275598980486393, 0.037926480174064636], [-0.035513341426849365, -0.040990062057971954], [0.07365855574607849, 0.01413235068321228], [-0.024071892723441124, 0.03668110445141792], [0.03029954992234707, 0.0588933564722538], [-0.07981227338314056, -0.049387142062187195], [0.10312070697546005, -0.08310583978891373], [0.07746545970439911, -0.03670700266957283], [0.033323850482702255, -0.07404284924268723], [0.1440335512161255, 0.154817134141922], [0.04850294440984726, 0.11457032710313797], [-0.09534009546041489, 0.042859092354774475]], [[-0.11587397754192352, -0.04076223820447922], [0.07320553809404373, -0.1987697184085846], [-0.015330708585679531, 0.0248427577316761], [0.09283182770013809, -0.013240803964436054], [0.14569111168384552, 0.04925274848937988], [0.07380777597427368, 0.1622149795293808], [-0.05361519753932953, -0.12125491350889206], [-0.08910617977380753, -0.15170809626579285], [0.06558115780353546, -0.03887135162949562], [-0.08110499382019043, 0.0555725060403347], [0.13952447474002838, 0.05126776546239853], [0.11945120990276337, 0.044444482773542404], [0.07370982319116592, -0.054271090775728226], [-0.0833406150341034, 0.11978930979967117], [-0.15567438304424286, -0.09159184992313385], [0.013749933801591396, 0.10817185044288635], [0.05380401760339737, -0.027351373806595802], [-0.053908396512269974, -0.12492241710424423], [0.012146014720201492, 0.11811907589435577], [-0.012380989268422127, 0.1560380905866623], [0.07437046617269516, 0.17755001783370972], [0.022502271458506584, -0.14335879683494568], [0.03717392683029175, 0.11859676986932755], [0.0958508774638176, -0.0015951275127008557], [0.08622881770133972, 0.026247728615999222], [0.05098676308989525, -0.06476356089115143], [-0.11477569490671158, 0.06688519567251205], [0.007627768442034721, -0.07086187601089478], [0.04598308354616165, 0.06582336872816086], [-0.058273959904909134, -0.032559409737586975], [-0.008083371445536613, -0.0677451342344284], [-0.09885523468255997, 0.12952548265457153]], [[-0.05229039862751961, -0.022327715530991554], [-0.02919229492545128, -0.0729784145951271], [0.06741064786911011, 0.03640730306506157], [0.004792123567312956, 0.0881664901971817], [-0.09235632419586182, -0.0968751385807991], [-0.050687067210674286, 0.003652042942121625], [-0.13850511610507965, 0.08995002508163452], [0.09887611120939255, -0.02242201566696167], [0.004022375680506229, -0.08316142112016678], [0.0248547550290823, 0.07180807739496231], [-0.14112962782382965, -0.11160482466220856], [0.00231916387565434, 0.0810181125998497], [-0.033142074942588806, 0.022653931751847267], [-0.07126713544130325, -0.05740971863269806], [0.013683591969311237, 0.022668970748782158], [0.11996946483850479, -0.10774274915456772], [-0.017351504415273666, -0.0032784240320324898], [-0.05756751820445061, 0.1277513951063156], [-0.06921135634183884, -0.15546417236328125], [-0.13236969709396362, -0.17308640480041504], [-0.07587870210409164, -0.05369488149881363], [-0.11138749122619629, -0.05068531632423401], [-0.149226114153862, 0.017019540071487427], [-0.01817314885556698, 0.07885494083166122], [-0.12797042727470398, 0.10093308240175247], [-0.12652167677879333, -0.005600166041404009], [-0.014560340903699398, -0.05951222404837608], [0.05408879369497299, -0.11099901050329208], [-0.10191496461629868, 0.11428206413984299], [0.1123330295085907, -0.09340319037437439], [0.11558180302381516, 0.0850239172577858], [0.032903145998716354, 0.012483466416597366]], [[0.04504784196615219, -0.08782806992530823], [0.002116700867190957, -0.03742526099085808], [0.13753381371498108, 0.05794711410999298], [0.029377620667219162, -0.028324807062745094], [-0.04086830094456673, 0.09912029653787613], [0.05889995023608208, -0.12397526949644089], [-0.03013595938682556, -0.03748225420713425], [0.052554089576005936, -0.029219595715403557], [-0.08582711219787598, -0.02356853522360325], [0.08634933084249496, -0.09913235157728195], [-0.07752389460802078, 0.07195474207401276], [-0.09524023532867432, -0.03798157349228859], [0.008658125065267086, -0.025098910555243492], [0.05537062883377075, 0.047612082213163376], [-0.07930432260036469, -0.113670714199543], [0.10523145645856857, -0.021243199706077576], [-0.10160921514034271, 0.024372512474656105], [-0.1609707921743393, -0.07112225145101547], [-0.03286463022232056, -0.11236881464719772], [0.1469733864068985, 0.06338843703269958], [0.15321533381938934, -0.019095493480563164], [0.009965049102902412, 0.0884273573756218], [-0.03522677347064018, -0.08133402466773987], [0.06522087007761002, -0.15263524651527405], [0.02093495987355709, -0.006837752647697926], [-0.03447522222995758, -0.09601884335279465], [-0.028970370069146156, -0.056696441024541855], [-0.07307961583137512, -0.11278586834669113], [-0.16452045738697052, 0.03335697948932648], [0.10937990248203278, 0.11639777570962906], [0.07291535288095474, 0.07587616890668869], [0.11371330171823502, -0.016434291377663612]], [[0.00963026937097311, 0.06187528744339943], [-0.09738407284021378, -0.10633064061403275], [-0.07428395748138428, -0.014417756348848343], [0.05201338231563568, -0.0347442589700222], [-0.15253041684627533, -0.10138595104217529], [0.015204018913209438, -0.016222752630710602], [-0.146549791097641, 0.048126984387636185], [-0.07119166105985641, 0.08351829648017883], [0.05266442149877548, 0.047197721898555756], [0.04252241179347038, 0.03753216564655304], [0.06539250165224075, -0.03520813584327698], [-0.09581027179956436, -0.0975574478507042], [-0.027689997106790543, 0.12654738128185272], [-0.11320745199918747, -0.015608323737978935], [-0.057140711694955826, 0.03634219616651535], [0.06222466379404068, -0.07600677758455276], [0.03230265527963638, -0.10096772015094757], [0.08237884193658829, -0.06156428903341293], [0.0298923347145319, -0.16317026317119598], [-0.05463733151555061, -0.007060283794999123], [0.007316908333450556, -0.028183268383145332], [0.06204720214009285, 0.027764545753598213], [0.058158617466688156, 0.013251201249659061], [0.020931843668222427, -0.08640676736831665], [-0.07614429295063019, -0.07966452836990356], [-0.06789147853851318, 0.006477158050984144], [0.09136446565389633, -0.12619705498218536], [0.07748236507177353, 0.07927606999874115], [-0.04066682234406471, 0.11289069056510925], [-0.14424745738506317, -0.06518688052892685], [-0.10756652057170868, 0.07768099009990692], [0.05933276191353798, 0.027734210714697838]], [[-0.09147129952907562, -0.034578680992126465], [-0.12183227390050888, 0.07537729293107986], [0.08893732726573944, -0.0020761601626873016], [0.13919182121753693, 0.12325090169906616], [-0.028217647224664688, -0.008986166678369045], [-0.12119116634130478, 0.05494154244661331], [0.10426343977451324, 0.10377039015293121], [-0.009927228093147278, -0.025760456919670105], [-0.0617796964943409, 0.074089914560318], [0.10250230133533478, -0.049087826162576675], [0.007627488579601049, -0.01832009106874466], [0.04203414171934128, -0.034386154264211655], [0.10928178578615189, 0.0058119758032262325], [0.019919075071811676, 0.018355078995227814], [0.09504237025976181, 0.048619188368320465], [0.1256074756383896, -0.08935333788394928], [0.05734921246767044, 0.09055844694375992], [-0.0217897929251194, 0.012134033255279064], [0.0716492235660553, 0.03564843907952309], [0.06336505711078644, -0.09404090791940689], [0.00015182755305431783, -0.058358918875455856], [0.061788640916347504, -0.09214652329683304], [-0.033338580280542374, 0.08374098688364029], [-0.08757907152175903, -0.053770776838064194], [-0.01616033911705017, 0.014366292394697666], [-0.08173079788684845, -0.14201286435127258], [0.02140744775533676, -0.12597887217998505], [-0.06859030574560165, -0.12363293766975403], [0.06051991134881973, 0.05568714067339897], [0.03866446018218994, 0.06696515530347824], [0.07990196347236633, 0.10404770821332932], [0.0622277595102787, 0.043409086763858795]], [[0.0036401746328920126, 0.015725305303931236], [-0.15247857570648193, 0.12587663531303406], [-0.047923874109983444, -0.06647682189941406], [0.04737253859639168, -0.07585052400827408], [-0.14620953798294067, 0.10792648047208786], [-0.04675214737653732, -0.0334215983748436], [-0.15113410353660583, -0.06652453541755676], [-0.05893600359559059, 0.038364727050065994], [-0.08176606893539429, -0.0415748693048954], [-0.0450984388589859, -0.023980671539902687], [-0.10449963808059692, 0.008157167583703995], [0.008843159303069115, 0.07806583493947983], [0.10033665597438812, -0.1472523957490921], [0.14211444556713104, 0.07766930758953094], [0.10556858032941818, 0.0619928203523159], [0.028784388676285744, 0.030937809497117996], [0.06969340145587921, 0.06691194325685501], [-0.13364478945732117, 0.057909734547138214], [-0.03627191483974457, -0.048484113067388535], [0.07488389313220978, 0.04842402786016464], [0.13431140780448914, -0.09275704622268677], [-0.07377570867538452, 0.1359320878982544], [0.025326939299702644, -0.11813017725944519], [-0.0481349416077137, -0.06603395193815231], [-0.004616709426045418, 0.1597878783941269], [0.019436417147517204, -0.0660611018538475], [0.09928607195615768, -0.06319020688533783], [0.09441608190536499, 0.08195821940898895], [-0.12852339446544647, 0.01921653561294079], [-0.07388966530561447, 0.06720661371946335], [0.07740811258554459, 0.09485306590795517], [0.048379700630903244, -0.08855289220809937]], [[-0.05557859316468239, -0.014650621451437473], [0.060239892452955246, 0.05550289526581764], [-0.0049503217451274395, -0.13045229017734528], [-0.020823752507567406, -0.022284172475337982], [-0.044589582830667496, 0.0485377237200737], [-0.012090127915143967, -0.052410755306482315], [0.006468355190008879, 0.022878224030137062], [-0.08985638618469238, 0.05717260017991066], [0.051076821982860565, 0.0692690834403038], [-0.027883557602763176, 0.06190275028347969], [0.1556883305311203, 0.007834583520889282], [-0.03829997405409813, 0.06478789448738098], [0.041358403861522675, 0.05863194540143013], [-0.09443935006856918, 0.09105031937360764], [-0.028813103213906288, 0.08170974999666214], [0.07595649361610413, -0.0961262658238411], [-0.09842732548713684, 0.0054822503589093685], [-0.025488082319498062, 0.03153892606496811], [-0.062070876359939575, -0.11666690558195114], [0.1086401715874672, 0.10563193261623383], [0.157296285033226, 0.06804690510034561], [-0.12623170018196106, 0.047104477882385254], [0.07289207726716995, 0.10877680778503418], [0.11749544739723206, -0.08305847644805908], [-0.04935990646481514, 0.0031054422724992037], [0.0266854427754879, -0.039764128625392914], [0.09249543398618698, 0.0784832090139389], [0.10848163813352585, 0.13549686968326569], [0.014685689471662045, 0.10602600127458572], [0.04776958003640175, -0.11783897131681442], [-0.1283927857875824, -0.035161297768354416], [0.005652461666613817, 0.09462477266788483]], [[0.09595949202775955, 0.07797753810882568], [0.05036599934101105, 0.13623368740081787], [0.03996412083506584, -0.10199205577373505], [0.09549607336521149, 0.07499296963214874], [-0.03822903335094452, -0.02394683286547661], [-0.04911470785737038, -0.08421619236469269], [0.06618471443653107, -0.050315551459789276], [0.09946061670780182, 0.09856054931879044], [-0.027442434802651405, -0.005011902190744877], [-0.061794742941856384, 0.03885037451982498], [-0.13276457786560059, -0.03855779767036438], [-0.07395657896995544, 0.056216344237327576], [-0.14833517372608185, -0.07592564076185226], [-0.07948148250579834, 0.07818339020013809], [0.15947559475898743, -0.02948809415102005], [-0.014280722476541996, -0.030681002885103226], [0.12543146312236786, -0.047209035605192184], [0.047959424555301666, -0.048268623650074005], [-0.027375319972634315, -0.10612563043832779], [-0.08463897556066513, -0.06429830193519592], [-0.04522604122757912, -0.12205476313829422], [0.08653227239847183, -0.0739465281367302], [-0.0048518190160393715, -0.11593636870384216], [0.04834272339940071, -0.173850417137146], [0.03249263018369675, 0.05962739139795303], [0.052667051553726196, -0.10910961776971817], [0.13473963737487793, 0.12874284386634827], [0.0037264993879944086, 0.0026228581555187702], [-0.0015301171224564314, 0.09839996695518494], [0.0014670148957520723, -0.035119328647851944], [0.1634972095489502, 0.05767195671796799], [-0.0643606185913086, -0.06249753385782242]], [[0.13711050152778625, -0.06849697232246399], [0.06272926181554794, 0.1321669965982437], [-0.018247563391923904, -0.02034882828593254], [-0.09138709306716919, 0.010365141555666924], [0.027363022789359093, 0.0407402403652668], [-0.15851974487304688, -0.11205847561359406], [0.04185870662331581, -0.08295116573572159], [-0.002770744962617755, -0.010571463964879513], [0.10062242299318314, -0.02071332186460495], [-0.08277176320552826, 0.004381434991955757], [-0.15989230573177338, -0.029665349051356316], [-0.10208861529827118, -0.09110721945762634], [0.11072076857089996, -0.16167114675045013], [-0.07325997203588486, 0.07993626594543457], [0.09664864838123322, 0.09093021601438522], [0.05585692822933197, 0.07317785173654556], [-0.06828819960355759, -0.0772729367017746], [-0.08674290776252747, -0.052073884755373], [0.11999525129795074, 0.060119785368442535], [0.04438389465212822, -0.09773550182580948], [-0.05534607172012329, -0.16140392422676086], [-0.04464765265583992, -0.05911438539624214], [0.06266075372695923, -0.012986963614821434], [-0.1025371327996254, -0.10980316996574402], [0.008501477539539337, 0.0054079825058579445], [0.027486350387334824, 0.0475594699382782], [0.0895695611834526, -0.019509004428982735], [-0.07915070652961731, -0.060283370316028595], [-0.05140891671180725, -0.040538426488637924], [-0.014744270592927933, 0.005811477079987526], [0.12058491259813309, 0.10014075040817261], [-0.005973181687295437, 0.012868075631558895]], [[-0.05768006294965744, -0.09334388375282288], [0.011875487864017487, -0.05657071992754936], [-0.05116826668381691, 0.03760410100221634], [-0.07433422654867172, 0.1120411604642868], [0.04431506618857384, -0.0947934165596962], [-0.08549732714891434, -0.0025187574792653322], [0.08935876935720444, 0.08422944694757462], [0.09765646606683731, 0.10587063431739807], [0.027042267844080925, -0.04151034355163574], [-0.06325148046016693, 0.0742729976773262], [-0.15155600011348724, 0.08824457228183746], [0.0895305871963501, -0.10747965425252914], [0.10425018519163132, -0.008260137401521206], [0.017588071525096893, 0.0543023943901062], [-0.0004127312859054655, 0.04470449686050415], [0.09086346626281738, -0.10473570227622986], [0.022111067548394203, 0.052656035870313644], [0.02152436226606369, -0.061424627900123596], [-0.08740945905447006, 0.09022798389196396], [-0.05116008222103119, 0.05987272784113884], [-0.13613159954547882, -0.0958126038312912], [-0.09013083577156067, -0.011434533633291721], [-0.09582275152206421, -0.12688468396663666], [0.02565620467066765, -0.13007815182209015], [0.022947225719690323, -0.05641479045152664], [-0.057090625166893005, -0.034169670194387436], [0.10034863650798798, 0.019500529393553734], [0.0657557025551796, 0.10552916675806046], [-0.010562504641711712, -0.033269625157117844], [-0.08174281567335129, 0.017377622425556183], [-0.08656930923461914, 0.10015755146741867], [-0.11864261329174042, 0.12634655833244324]], [[0.13319215178489685, -0.1638862043619156], [0.05053935572504997, 0.04052162170410156], [0.08456769585609436, -0.06609073281288147], [-0.07579406350851059, -0.13256043195724487], [-0.09135346114635468, -0.08105701953172684], [0.024511443451046944, 0.061860863119363785], [-0.01767355017364025, 0.10841672122478485], [0.004182207398116589, 0.10492485761642456], [-0.056830860674381256, 0.020083393901586533], [-0.06828899681568146, 0.06595009565353394], [0.08829369395971298, -0.12558400630950928], [0.03516030311584473, -0.09945391118526459], [-0.08724285662174225, -0.11547175794839859], [0.008381220512092113, -0.05901988968253136], [0.02849643863737583, -0.06410642713308334], [0.0899626761674881, -0.10176055878400803], [-0.06417226791381836, -0.09006428718566895], [-0.18500551581382751, 0.027733614668250084], [0.04859708249568939, 0.07904015481472015], [-0.019128723070025444, -0.09298861026763916], [0.10204889625310898, 0.04422075301408768], [-0.015442168340086937, 0.09097041934728622], [0.018270425498485565, -0.1258603036403656], [0.08107957988977432, -0.03756670653820038], [0.001428149058483541, 0.11847361922264099], [-0.002039962913841009, -0.1096070259809494], [-0.011756856925785542, -0.11167646199464798], [0.03428592532873154, 0.011189285665750504], [-0.03876496106386185, -0.08536703139543533], [0.10499865561723709, 0.08679578453302383], [-0.0384487546980381, 0.09076245874166489], [0.15324652194976807, -0.09817834943532944]], [[-0.019936757162213326, 0.06514947861433029], [-0.1618160754442215, -0.00949062779545784], [-0.06260069459676743, 0.056557267904281616], [0.08591007441282272, 0.04641871154308319], [-0.07276182621717453, 0.09279711544513702], [0.08755047619342804, 0.04378378018736839], [0.08992607146501541, -0.047987185418605804], [0.028755150735378265, 0.016543403267860413], [-0.0779772698879242, -0.03923548758029938], [0.060701433569192886, -0.1057867705821991], [0.12270736694335938, 0.005317827221006155], [0.05244668200612068, 0.0821828618645668], [0.08296332508325577, -0.06005747616291046], [0.04266251251101494, 0.06375328451395035], [0.044821154326200485, -0.12131686508655548], [-0.04970594868063927, -0.06741227954626083], [0.038043055683374405, 0.02986299619078636], [0.0150825884193182, -0.07116610556840897], [0.017198719084262848, -0.012626588344573975], [0.0021866350434720516, -0.03512550890445709], [0.039013903588056564, 0.045253876596689224], [-0.08675345033407211, -0.08031594753265381], [0.09336616843938828, 0.0477939136326313], [0.16686341166496277, 0.13755173981189728], [0.019396811723709106, -0.062071025371551514], [-0.04784360155463219, -0.03226875886321068], [-0.0242505744099617, 0.02862042747437954], [0.0943077802658081, 0.12614959478378296], [0.12543755769729614, -0.08759938925504684], [-0.05937496945261955, -0.0176926888525486], [-0.03985757753252983, -0.162834033370018], [-0.105618916451931, 0.04194977506995201]], [[-0.05282166227698326, -0.11446847766637802], [-0.11565811932086945, -0.05333281308412552], [0.10849425196647644, -0.007754121907055378], [-0.018795477226376534, -0.09542373567819595], [-0.0033251421991735697, -0.061537712812423706], [0.0812435895204544, 0.04625672101974487], [-0.10453254729509354, -0.030099712312221527], [-0.10619788616895676, -0.048316098749637604], [0.042086150497198105, 0.10288451611995697], [-0.1354629546403885, 0.05969741567969322], [-0.036342132836580276, 0.005737878382205963], [-0.10109976679086685, -0.07856873422861099], [-0.05220542848110199, -0.05560002475976944], [-0.009632007218897343, 0.11325937509536743], [-0.025025585666298866, 0.10281574726104736], [0.15419118106365204, -0.05492456629872322], [0.09501002728939056, -0.05608772486448288], [0.021142886951565742, 0.06320829689502716], [0.03388577327132225, -0.04914774373173714], [0.10775238275527954, 0.03442031145095825], [0.0487627238035202, -0.06220986321568489], [-0.1595933735370636, 0.058616552501916885], [0.03594296798110008, -0.08810219168663025], [0.1054210364818573, 0.00855199247598648], [-0.14974768459796906, -0.10314270853996277], [-0.036721065640449524, -0.0467953085899353], [0.07750758528709412, 0.07391590625047684], [0.06570164859294891, 0.10244595259428024], [-0.003939701709896326, -0.07541163265705109], [-0.10700049251317978, 0.010477801784873009], [0.06793142110109329, 0.005005166865885258], [-0.05980181694030762, -0.10978779941797256]], [[0.012753846123814583, 0.06708410382270813], [-0.07292510569095612, 0.07891735434532166], [0.079703189432621, -0.024519946426153183], [0.043247025460004807, 0.026286611333489418], [0.04788752645254135, -0.08559528738260269], [-0.14655087888240814, -0.06732850521802902], [0.02655220590531826, -0.040795061737298965], [-0.09141698479652405, 0.04609043523669243], [-0.011213011108338833, 0.022443529218435287], [-0.10307721793651581, -0.04027162492275238], [-0.060658544301986694, -0.04766634479165077], [-0.06715092808008194, -0.1363047957420349], [-0.1180221438407898, -0.13837312161922455], [0.15508881211280823, -0.025608034804463387], [0.1312626749277115, 0.12898293137550354], [0.1490778625011444, 0.051098812371492386], [0.004345928784459829, -0.06383705884218216], [0.044539738446474075, -0.08490003645420074], [0.01038617268204689, -0.05957125872373581], [0.03700942173600197, -0.07279633730649948], [0.05093764886260033, -0.19040951132774353], [-0.11019362509250641, -0.12569698691368103], [-0.11279509216547012, 0.03020384907722473], [-0.14457908272743225, -0.0016035698354244232], [-0.015633223578333855, -0.04518096148967743], [-0.06757818162441254, -0.07717883586883545], [-0.09868677705526352, -0.09581051021814346], [-0.07318080216646194, -0.13478229939937592], [-0.13918693363666534, -0.06709576398134232], [0.12654097378253937, 0.12798267602920532], [0.135732501745224, 0.04891544580459595], [-0.04464246705174446, -0.036559656262397766]], [[-0.12409118562936783, -0.06943266093730927], [0.02299557626247406, -0.016074426472187042], [-0.14817796647548676, 0.1034688651561737], [0.04022466391324997, -0.02234397456049919], [0.14942125976085663, 0.04303647577762604], [-0.06590785086154938, -0.07459616661071777], [0.08979246765375137, -0.048615433275699615], [0.13970708847045898, -0.0005902646807953715], [-0.020851999521255493, -0.06898844987154007], [0.009936677291989326, 0.0317063182592392], [-0.012945277616381645, 0.0937187448143959], [-0.004384296480566263, 0.09819188714027405], [0.00922074168920517, 0.05275321006774902], [-0.03464778512716293, -0.0863218829035759], [0.03493291139602661, -0.0798749327659607], [0.022812092676758766, -0.10436765849590302], [-0.07981065660715103, -0.06581543385982513], [0.019254585728049278, 0.05795756354928017], [0.04645668342709541, -0.08588668704032898], [0.05005676671862602, 0.06957228481769562], [-0.0031988106202334166, 0.049683794379234314], [0.05174164101481438, 0.1517178863286972], [-0.07510828226804733, -0.10250494629144669], [0.018051031976938248, -0.07436586916446686], [-0.07084279507398605, -0.06111866980791092], [-0.07403784990310669, 0.12868757545948029], [-0.03459658473730087, -0.05543740093708038], [-0.030149944126605988, -0.10113987326622009], [0.03723086416721344, 0.09386733174324036], [0.03383713215589523, 0.02780708484351635], [-0.08032456040382385, 0.0018237805925309658], [-0.08852101117372513, 0.06330570578575134]], [[0.09599664807319641, 0.05797675624489784], [0.08612016588449478, 0.002897431142628193], [-0.07149288058280945, -0.062158577144145966], [-0.05198883265256882, -0.03571426868438721], [-0.10310353338718414, 0.05492740496993065], [0.16616472601890564, 0.06346538662910461], [0.049926310777664185, -0.07241512089967728], [0.11041140556335449, -0.006420773454010487], [-0.11743263155221939, 0.10494355112314224], [-0.07017067819833755, -0.07730787247419357], [0.15574605762958527, 0.012389885261654854], [0.1600124090909958, -0.11674979329109192], [0.11283411085605621, 0.07672710716724396], [0.11078076809644699, -0.05980587378144264], [-0.10329747200012207, 0.02857917733490467], [-0.0336059145629406, -0.02776191011071205], [0.04264010861515999, -0.05409116670489311], [-0.057837363332509995, -0.09794308990240097], [-0.07238331437110901, 0.1004539355635643], [-0.023934537544846535, -0.024041123688220978], [0.09648996591567993, 0.03652076795697212], [0.17699752748012543, 0.014852127060294151], [0.038872070610523224, 0.13386721909046173], [-0.046470239758491516, -0.06727681308984756], [-0.04880162328481674, -0.10839380323886871], [0.10474259406328201, 0.08579137176275253], [-0.15261712670326233, -0.024346740916371346], [0.06610015034675598, -0.06708529591560364], [0.1580638438463211, -0.05209130793809891], [-0.0833730697631836, 0.08929941058158875], [0.06712345033884048, -0.16727003455162048], [-0.09566068649291992, 0.16924487054347992]], [[0.009357276372611523, 0.04493008553981781], [-0.11321251839399338, -0.16290564835071564], [-0.11000079661607742, 0.04514105245471001], [0.07435953617095947, -0.0767853781580925], [0.01062384806573391, 0.02240605652332306], [0.019504239782691002, -0.029392089694738388], [0.11237336695194244, -0.023486236110329628], [0.10255227237939835, 0.08087609708309174], [0.033330049365758896, -0.03671823814511299], [0.1078406423330307, -0.0911245048046112], [0.09419245272874832, 0.046170637011528015], [0.07934281975030899, 0.10212522000074387], [0.10069645196199417, 0.15362384915351868], [-0.07322044670581818, 0.036690860986709595], [-0.021538855507969856, -0.1466936320066452], [0.00698108272626996, 0.06522352993488312], [-0.021491283550858498, 0.021837422624230385], [0.11997422575950623, 0.05386802554130554], [-0.024569693952798843, 0.09260093420743942], [-0.15643057227134705, 0.036770228296518326], [-0.13115406036376953, -0.0529823862016201], [0.03754763677716255, 0.02696690335869789], [0.027413032948970795, 0.06068169325590134], [0.121970035135746, 0.05210092291235924], [0.123015396296978, -0.10201981663703918], [-0.03265184536576271, 0.10865382105112076], [-0.143168643116951, -0.04914586991071701], [0.0055676898919045925, 0.045325104147195816], [0.10418984293937683, 0.0014107248280197382], [-0.03733772784471512, -0.14482468366622925], [-0.0527971051633358, 0.010747667402029037], [-0.1256856471300125, 0.028305968269705772]], [[-0.10382424294948578, 0.024033330380916595], [0.10648449510335922, -0.032861750572919846], [0.006253686733543873, 0.08726372569799423], [-0.08744364231824875, 0.06749465316534042], [0.034721892327070236, -0.10596561431884766], [-0.07702530175447464, -0.10972912609577179], [-0.10748478025197983, 0.016459010541439056], [-0.00466426694765687, -0.011693376116454601], [-0.044120170176029205, 0.007177392952144146], [0.10815002024173737, 0.09298933297395706], [0.040233515202999115, 0.06991863250732422], [-0.04006200283765793, -0.048040375113487244], [-0.1351989209651947, -0.04790099337697029], [-0.1005023941397667, -0.07566728442907333], [0.049337029457092285, 0.1454128473997116], [-0.035049762576818466, 0.04976582154631615], [0.11533459275960922, -0.025600245222449303], [-0.0053978231735527515, -0.04521350935101509], [-0.05820123851299286, -0.0102558434009552], [-0.04298608750104904, -0.10654627531766891], [-0.09228042513132095, 0.021610107272863388], [-0.03830842673778534, 0.023609446361660957], [-0.07248949259519577, -0.014517584815621376], [-0.08228546380996704, 0.026184072718024254], [0.028165390715003014, -0.10786827653646469], [0.06663982570171356, -0.08903330564498901], [0.11900054663419724, -0.05975433811545372], [0.10174499452114105, -0.10665059089660645], [-0.06485944241285324, -0.0991644486784935], [0.07385000586509705, 0.040602583438158035], [0.018600257113575935, 0.07686254382133484], [0.11446619778871536, -0.12125633656978607]], [[0.025782471522688866, 0.044615235179662704], [-0.00288784340955317, 0.029441850259900093], [-0.15397973358631134, -0.056977953761816025], [-0.060079582035541534, -0.08646563440561295], [0.14524267613887787, -0.1061139926314354], [-0.028705131262540817, 0.11377184838056564], [0.08287863433361053, -0.08224606513977051], [0.06363734602928162, -0.10312093049287796], [-0.045444488525390625, 0.0016044966178014874], [-0.049334995448589325, 0.09161806851625443], [-0.09427661448717117, -0.08651280403137207], [-0.07163578271865845, -0.12953872978687286], [0.09156648814678192, 0.07683360576629639], [-0.08163252472877502, -0.07720718532800674], [-0.1273612082004547, 0.062244683504104614], [0.049362409859895706, -0.009238806553184986], [0.008255851455032825, 0.02054697833955288], [0.09542256593704224, -0.12670700252056122], [-0.014439685270190239, 0.1029207706451416], [-0.1354193091392517, -0.012256522662937641], [0.028592044487595558, -0.04895423725247383], [-0.006426460575312376, -0.04182291775941849], [-0.11394680291414261, 0.039553333073854446], [-0.051895592361688614, 0.021437838673591614], [0.06610997021198273, 0.015453808940947056], [-0.04507503658533096, -0.005636319983750582], [-0.058887459337711334, 0.05588449537754059], [0.030352219939231873, 0.04577140882611275], [0.06277819722890854, -0.16159194707870483], [-0.12829957902431488, 0.00016459397738799453], [0.008291879668831825, -0.0005485669826157391], [-0.0473715215921402, -0.027029890567064285]], [[-0.15663368999958038, 0.07166709750890732], [0.093076191842556, -0.03363245353102684], [-0.15352196991443634, -0.03862915188074112], [-0.025702018290758133, 0.09561652690172195], [0.14015386998653412, -0.11902614682912827], [0.038937538862228394, 0.08351725339889526], [0.058297719806432724, -0.020731018856167793], [-0.09874080866575241, -0.0748528391122818], [-0.10126381367444992, 0.13891391456127167], [0.10841894149780273, -0.12016623467206955], [-0.05825826898217201, -0.027791913598775864], [-0.019389623776078224, 0.004377782344818115], [0.03250110521912575, 0.1149713471531868], [0.10524579882621765, -0.006156106013804674], [0.08461622893810272, 0.10889609158039093], [-0.09551921486854553, 0.022740161046385765], [-0.010115332901477814, 0.05032562464475632], [-0.07769794017076492, 0.054380014538764954], [-0.12462247908115387, 0.10592078417539597], [-0.09781543165445328, 0.058423176407814026], [-0.09352011978626251, -0.03658309578895569], [-0.08732512593269348, -0.12946800887584686], [0.10082311928272247, 0.024563590064644814], [-0.11137376725673676, 0.006001428700983524], [-0.04680221900343895, -0.025502635166049004], [-0.030827857553958893, -0.031462714076042175], [-0.08541467040777206, 0.006901607383042574], [-0.04550817981362343, -0.10170474648475647], [0.10869593173265457, 0.03246752545237541], [0.07809384912252426, 0.008085389621555805], [-0.05266229063272476, -0.026188913732767105], [0.009466130286455154, 0.042251650243997574]], [[-0.057902753353118896, 0.03773769363760948], [0.12087727338075638, -0.027148202061653137], [-0.08834933489561081, -0.055266737937927246], [-0.044793643057346344, -0.04322897270321846], [-0.11139746010303497, -0.010046523064374924], [-0.08908412605524063, 0.002020422136411071], [-0.12337259203195572, 0.09132082015275955], [-0.028621632605791092, -0.0950043797492981], [-0.008897040039300919, -0.10844738036394119], [0.11352431774139404, -0.10112449526786804], [-0.03470907360315323, -0.046028535813093185], [-0.12547527253627777, 0.0696578249335289], [-0.01785081811249256, -0.03434218093752861], [-0.02680100128054619, -0.06334500759840012], [-0.06657897680997849, 0.016598325222730637], [0.03056582249701023, -0.11366006731987], [-0.035138752311468124, -0.09290377050638199], [-0.05747665464878082, 0.08775205910205841], [0.08876053988933563, 0.13551747798919678], [0.0795520693063736, -0.12212786823511124], [0.06067311018705368, -0.19562223553657532], [-0.10280539095401764, 0.04846201092004776], [-0.0665518268942833, -0.08745506405830383], [0.0012032454833388329, 0.031086020171642303], [0.0425214022397995, -0.044295784085989], [-0.06287208199501038, 0.0646611675620079], [0.03007739596068859, -0.0658586397767067], [-0.008285104297101498, -0.07736294716596603], [0.01866048388183117, -0.10599330812692642], [0.04859882965683937, 0.15551616251468658], [0.09132746607065201, 0.14700300991535187], [0.08536893129348755, 0.07322406023740768]], [[0.055015455931425095, -0.006162366829812527], [-0.08868430554866791, -0.10308165848255157], [0.11115618795156479, 0.022397717460989952], [0.05830305442214012, -0.11403176188468933], [-0.15264087915420532, 0.12143764644861221], [-0.03758128359913826, -0.024458149448037148], [-0.1267211139202118, 0.11293446272611618], [-0.10715173184871674, 0.0491534061729908], [0.15054260194301605, 0.08929149806499481], [-0.04810735583305359, 0.1281682550907135], [-0.08945420384407043, 0.06744330376386642], [0.031024709343910217, -0.05744520202279091], [-0.08377311378717422, -0.10361353307962418], [0.09717623144388199, -0.1266075074672699], [0.12634994089603424, -0.10358016192913055], [0.08675314486026764, -0.039906054735183716], [-0.04900972545146942, 0.07505594938993454], [0.042197346687316895, 0.007121152710169554], [0.031831227242946625, -0.1746271699666977], [-0.0556722991168499, -0.103058360517025], [0.06780344992876053, -0.1504812091588974], [0.03016919456422329, 0.05299555882811546], [-0.0049184393137693405, -0.08458134531974792], [0.07531093060970306, 0.03948799893260002], [-0.09125814586877823, 0.12145169824361801], [-0.1273314505815506, 0.013041944243013859], [0.08804094791412354, -0.015183365903794765], [0.06391965597867966, 0.002136342693120241], [0.017980318516492844, 0.10164301842451096], [0.042948994785547256, 0.10956217348575592], [-0.0264444537460804, -0.10531752556562424], [-0.015886936336755753, 0.06168174371123314]], [[-0.05124598741531372, -0.04370390996336937], [0.06851541250944138, -0.010034528560936451], [0.06895924359560013, 0.07531186938285828], [-0.1086614727973938, 0.01561417244374752], [-0.07790514826774597, 0.011900359764695168], [-0.11149074137210846, 0.05883382633328438], [0.07435519993305206, 0.08237482607364655], [0.0426408052444458, 0.13182803988456726], [0.003845008322969079, -0.1257031112909317], [-0.12599581480026245, -0.008942809887230396], [0.07444153726100922, -0.05369473621249199], [-0.06317338347434998, -0.08919547498226166], [0.0195552296936512, 0.10357651114463806], [0.10189778357744217, -0.12679538130760193], [0.006421093828976154, -0.09899900108575821], [0.08451610058546066, 0.0713796392083168], [-0.09236516803503036, -0.10588085651397705], [-0.09564868360757828, 0.11068064719438553], [0.10192227363586426, -0.08766549825668335], [0.12095332145690918, 0.03747963532805443], [0.017645876854658127, -0.03416237235069275], [-0.0860704779624939, 0.008017192594707012], [-0.025909602642059326, -0.03307406231760979], [0.13642391562461853, 0.023796575143933296], [0.010468200780451298, -0.03104471042752266], [-0.033991213887929916, 0.06528627872467041], [-0.008448927663266659, -0.04712721332907677], [0.04609544947743416, 0.07217179983854294], [-0.002102076541632414, 0.07637011259794235], [0.039760470390319824, 0.006640529725700617], [-0.11041740328073502, 0.035535067319869995], [0.06592263281345367, 0.04792075604200363]], [[-0.10706274956464767, -0.09305568039417267], [-0.09278492629528046, -0.033252276480197906], [-0.08222366869449615, 0.027493279427289963], [-0.004099311772733927, 0.056364770978689194], [-0.00044352319673635066, -0.12695720791816711], [-0.023209836333990097, -0.09473106265068054], [-0.12632246315479279, -0.10918467491865158], [0.00861628819257021, 0.08461553603410721], [0.07480508089065552, 0.03030177764594555], [0.029498573392629623, -0.028314586728811264], [0.06519497185945511, 0.035359691828489304], [0.058247435837984085, -0.04143716022372246], [0.06501525640487671, 0.13443735241889954], [0.10843499004840851, 0.06146597862243652], [-0.14356103539466858, -0.08472179621458054], [-0.0971749871969223, -0.05448188632726669], [-0.11456149071455002, -0.09261504560709], [-0.0058976104483008385, 0.06518052518367767], [0.008743992075324059, -0.06553280353546143], [-0.06296442449092865, 0.07767304033041], [-0.024501308798789978, 0.008151172660291195], [-0.0008028200827538967, 0.009044758044183254], [0.014221844263374805, 0.02411489002406597], [-0.07768315821886063, 0.02626197412610054], [0.04119604825973511, -0.011059812270104885], [0.14124082028865814, -0.07982680946588516], [-0.0071648890152573586, -0.13090503215789795], [0.14318208396434784, 0.039235446602106094], [0.10423114150762558, -0.06916983425617218], [-0.04604646936058998, -0.11382532119750977], [0.00035149461473338306, -0.12186676263809204], [-0.10578999668359756, 0.06454984843730927]], [[-0.06878134608268738, 0.1310099959373474], [0.10931918025016785, -0.152216836810112], [-0.07669144868850708, 0.08054226636886597], [-0.08243119716644287, 0.10506577789783478], [-0.008648604154586792, -0.10274047404527664], [0.028097795322537422, 0.041013315320014954], [-0.09651757031679153, -0.12559053301811218], [-0.008795722387731075, -0.13215500116348267], [-0.12779007852077484, 0.12584108114242554], [0.12389830499887466, -0.018642442300915718], [0.021876711398363113, 0.05211220681667328], [0.07571940869092941, -0.08942288905382156], [-0.05330173298716545, 0.10677263885736465], [0.06722000241279602, 0.023348351940512657], [-0.0018321413081139326, -0.058061420917510986], [-0.10020513087511063, -0.051468830555677414], [0.013372482731938362, 0.10061801970005035], [-0.03279546648263931, 0.0036450019106268883], [-0.012457780539989471, 0.1311691254377365], [0.04841629043221474, 0.11321952193975449], [-0.015210720710456371, 0.0335431769490242], [-0.006054166238754988, -0.1388622522354126], [0.08385069668292999, -0.06908391416072845], [0.10564036667346954, 0.0005287951207719743], [-0.025622474029660225, -0.008619694039225578], [0.12466412037611008, -0.15780015289783478], [-0.10567321628332138, 0.09877993166446686], [0.022114619612693787, -0.024527406319975853], [0.043786127120256424, -0.16704024374485016], [-0.07439853250980377, 0.10088392347097397], [-0.08876489847898483, 0.008864154107868671], [-0.0730048418045044, 0.14897416532039642]], [[-0.13071586191654205, -0.08624176681041718], [-0.025616789236664772, 0.10552169382572174], [-0.0712854415178299, -0.0771740972995758], [-0.019467279314994812, -0.01879906840622425], [-0.041017819195985794, -0.027251293882727623], [-0.03217416629195213, -0.0796605795621872], [0.07082512229681015, 0.04647204279899597], [0.06004343181848526, 0.13005518913269043], [0.011155467480421066, 0.06612677127122879], [-0.07924158126115799, -0.0982232615351677], [-0.11733049899339676, -0.10715176165103912], [-0.07112231850624084, -0.10268847644329071], [0.026878420263528824, 0.06898032873868942], [0.02104085683822632, 0.07501184940338135], [-0.03254968672990799, -0.014828921295702457], [0.08780740946531296, -0.13041996955871582], [0.041492972522974014, 0.008226816542446613], [-0.1506781429052353, -0.052752457559108734], [0.015273054130375385, -0.1568395346403122], [-0.07593907415866852, -0.10350845009088516], [-0.0004841704503633082, -0.13265924155712128], [-0.06367415934801102, 0.09730551391839981], [-0.08387317508459091, 0.020617878064513206], [-0.08451230078935623, 0.06383264809846878], [0.021689869463443756, -0.08867214620113373], [0.008731173351407051, 0.023563900962471962], [-0.055413227528333664, -0.09326282143592834], [-0.09560402482748032, 0.023199472576379776], [-0.15000513195991516, 0.048011552542448044], [0.08825142681598663, 0.0679469183087349], [0.062423236668109894, 0.0010187964653596282], [0.09251879900693893, 0.04346751794219017]], [[-0.13799044489860535, 0.046311020851135254], [-0.07706283777952194, -0.061997391283512115], [-0.04705571383237839, 0.04809538647532463], [0.027957286685705185, -0.0729346051812172], [0.11819251626729965, -0.17512023448944092], [0.07114153355360031, 0.12197021394968033], [0.08827019482851028, -0.08328502625226974], [0.017948077991604805, -0.14010384678840637], [0.0640789270401001, -0.08036859333515167], [-0.02095693349838257, -0.03357154130935669], [0.1502787470817566, 0.07632257044315338], [0.005714258179068565, -0.0004984178231097758], [0.11039569973945618, 0.05029991269111633], [-0.10450512170791626, 0.09438333660364151], [-0.09836053103208542, 0.05331072211265564], [-0.05936501547694206, 0.08464483916759491], [0.011384828016161919, 0.09895292669534683], [0.07035835087299347, 0.056273531168699265], [-0.024904727935791016, 0.04840822517871857], [-0.032847341150045395, -0.015124869532883167], [0.019671853631734848, 0.09241846948862076], [-0.015723833814263344, -0.11500628292560577], [0.009565967135131359, -0.02718934789299965], [0.06514669954776764, 0.06841251999139786], [-0.01672595925629139, 0.005605115555226803], [-0.01623665913939476, 0.0024215064477175474], [-0.04000071436166763, -0.07983282953500748], [0.12001749128103256, 0.0018939462024718523], [0.07937511056661606, -0.15932287275791168], [-0.14895635843276978, 0.08796891570091248], [-0.06053857505321503, 0.04503527283668518], [0.001962503883987665, 0.11105143278837204]], [[-0.08942390978336334, -0.10448423773050308], [-0.07525192201137543, 0.02639947272837162], [0.06250213086605072, -0.05534366890788078], [-0.015868477523326874, -0.09661820530891418], [-0.09197529405355453, 0.02070697955787182], [-0.041350893676280975, 0.018951600417494774], [-0.01428156066685915, -0.12516340613365173], [0.0746135339140892, -0.007084829267114401], [0.07964518666267395, 0.010674184188246727], [0.01824789121747017, 0.12921762466430664], [-0.019617097452282906, 0.13712045550346375], [-0.13488832116127014, 0.0844491496682167], [0.04515675827860832, -0.06751615554094315], [-0.03716530278325081, -0.0332745723426342], [0.04225132614374161, -0.13083882629871368], [0.09688049554824829, 0.03981655836105347], [0.07279752194881439, -0.05086638033390045], [-0.08688144385814667, 0.042549218982458115], [-0.11993778496980667, -0.01675238087773323], [-0.09077703952789307, 0.051491253077983856], [0.0985107570886612, 0.03816595301032066], [-0.05632779374718666, 0.13443632423877716], [0.08631723374128342, 0.06770985573530197], [0.15426568686962128, -0.05604233220219612], [-0.09174340218305588, 0.1358070820569992], [0.1319037824869156, 0.06328323483467102], [0.05794290080666542, 0.03132631257176399], [0.07970757782459259, 0.004505489952862263], [-0.14007210731506348, 0.11711303889751434], [-0.1410045027732849, -0.13687606155872345], [-0.15360158681869507, -0.07456368207931519], [0.09842949360609055, -0.04234912618994713]], [[0.028151366859674454, -0.01406893227249384], [0.08956728130578995, -0.16340824961662292], [0.008251076564192772, 0.13045808672904968], [0.023851435631513596, 0.06476601213216782], [0.04163021966814995, 0.07054724544286728], [0.036374207586050034, 0.013823839835822582], [0.10722895711660385, 0.026524651795625687], [0.06659847497940063, -0.06910841912031174], [-0.10304123163223267, 0.04434753581881523], [-0.08042366802692413, -0.12644033133983612], [0.13775627315044403, 0.012940783984959126], [0.04599746689200401, -0.15111863613128662], [0.011286339722573757, -0.016540324315428734], [-0.12187238037586212, 0.10062557458877563], [-0.09402129054069519, 0.027226174250245094], [-0.0699053555727005, 0.07579886168241501], [0.0013993765460327268, 0.07267268002033234], [0.06644780933856964, -0.03856990113854408], [-0.01354269590228796, -0.03322851285338402], [-0.07771795988082886, 0.04915064200758934], [-0.07095778733491898, 0.06674396991729736], [-0.040575943887233734, -0.10153020173311234], [0.07107723504304886, 0.06971293687820435], [-0.0872352346777916, -0.07922473549842834], [-0.005904556717723608, -0.15768998861312866], [-0.07542189955711365, -0.11113046109676361], [-0.07077901065349579, 0.06828857213258743], [0.007614661008119583, 0.09644225984811783], [0.09655655920505524, 0.03312483802437782], [-0.06558865308761597, -0.02240508422255516], [-0.09025918692350388, -0.07434292882680893], [-0.14392124116420746, 0.14907962083816528]], [[-0.01398947462439537, 0.14031535387039185], [0.02406296879053116, 0.061809226870536804], [-0.10579732805490494, 0.15517504513263702], [-0.11566858738660812, -0.11555886268615723], [0.15249672532081604, 0.03535809740424156], [0.004816223867237568, 0.056528519839048386], [0.14003394544124603, -0.15046925842761993], [-0.019119160249829292, -0.06717868894338608], [-0.023277215659618378, -0.0016109399730339646], [0.10903440415859222, 0.1228833943605423], [-0.01222729217261076, -0.09738767892122269], [0.1567835509777069, -0.09629073739051819], [-0.13657177984714508, -0.06437954306602478], [0.030943017452955246, 0.019155457615852356], [-0.05762447044253349, 0.08895394951105118], [0.01618989370763302, 0.0019304751185700297], [0.1686352640390396, -0.12609806656837463], [-0.07287480682134628, -0.0281674861907959], [-0.10891561210155487, -0.041873056441545486], [-0.1671542227268219, 0.07428542524576187], [-0.1547648161649704, -0.08186828345060349], [-0.017798228189349174, -0.035064056515693665], [-0.13417072594165802, -0.052749890834093094], [-0.008901989087462425, 0.07811402529478073], [0.1309499740600586, -0.11308278888463974], [-0.12099120020866394, -0.12979403138160706], [-0.03685346245765686, 0.041015610098838806], [0.09686307609081268, 0.1215810552239418], [0.12660501897335052, -0.022572092711925507], [0.036591045558452606, -0.017496692016720772], [-0.029051726683974266, -0.08294401317834854], [-0.1282656490802765, -0.02905002236366272]], [[-0.10279184579849243, 0.07816379517316818], [0.025483615696430206, -0.10843006521463394], [-0.044023919850587845, -0.06035037338733673], [-0.10753954946994781, 0.06612775474786758], [-0.09952365607023239, -0.10153543949127197], [0.05785448104143143, 0.015308261848986149], [0.1200321689248085, -0.029983319342136383], [0.06705732643604279, -0.03814935311675072], [0.09667006880044937, 0.013132437132298946], [-0.11860001087188721, -0.0967356264591217], [0.13311037421226501, -0.06632845848798752], [0.12308128923177719, 0.010402558371424675], [0.12399043142795563, 0.04528765752911568], [0.11070539802312851, 0.08103279024362564], [-0.1449378877878189, -0.042182840406894684], [-0.09559924155473709, 0.040552664548158646], [0.050925616174936295, 0.10597273707389832], [-0.03948909044265747, -0.14225932955741882], [0.030535627156496048, -0.027547797188162804], [-0.04409926012158394, -0.024680957198143005], [-0.041903045028448105, 0.00962184276431799], [0.02258688025176525, -0.06016117334365845], [-0.10652134567499161, 0.08245719224214554], [0.07646448910236359, -0.10541524738073349], [-0.010695280507206917, 0.01776505447924137], [-0.0010055095190182328, -0.06480900198221207], [0.06313146650791168, -0.040466297417879105], [-0.02287149243056774, -0.08048131316900253], [0.1138414740562439, -0.012306627817451954], [0.07737747579813004, 0.05098249390721321], [-0.014063281007111073, 0.061188314110040665], [0.088868647813797, 0.08628831058740616]], [[-0.04330102726817131, -0.04873648285865784], [0.025602910667657852, -0.10578890144824982], [0.033766161650419235, 0.04990232735872269], [-0.029763322323560715, 0.08869853615760803], [-0.059805937111377716, 0.03782210126519203], [0.03051939234137535, 0.1182268038392067], [-0.09125734865665436, 0.060852233320474625], [-0.0439087375998497, -0.04835760220885277], [0.03953532502055168, -0.10692693293094635], [-0.03093661740422249, -0.033506639301776886], [0.03455287218093872, 0.15474975109100342], [0.03761791065335274, 0.11389701813459396], [0.11830173432826996, 0.15940140187740326], [-0.06536837667226791, -0.04965343326330185], [0.013263949193060398, 0.05843915417790413], [0.010915659368038177, 0.0631658136844635], [-0.06534595042467117, -0.09838605672121048], [0.05143032222986221, -0.05981133505702019], [-0.030209574848413467, -0.08957457542419434], [-0.12838847935199738, 0.08660344034433365], [0.05778962001204491, 0.151794895529747], [0.15711428225040436, 0.15479712188243866], [0.12275630980730057, 0.040926143527030945], [0.04260951280593872, 0.026414943858981133], [-0.0018350163009017706, -0.0009299324010498822], [-0.0547325536608696, 0.12397021055221558], [-0.13508203625679016, 0.03594150394201279], [0.052885595709085464, -0.07245747745037079], [-0.048191770911216736, -0.12626489996910095], [-0.027313057333230972, -0.10203327238559723], [-0.16914181411266327, -0.15070030093193054], [-0.04702799767255783, 0.03505245968699455]], [[-0.036039113998413086, 0.011155817657709122], [-0.0877242237329483, -0.09171638637781143], [-0.16083595156669617, -0.06140308082103729], [-0.03653450310230255, 0.10767637193202972], [0.0193543191999197, -0.14271214604377747], [-0.024296486750245094, 0.13065122067928314], [-0.0026490935124456882, -0.17744648456573486], [0.10676682740449905, -0.012683695182204247], [-0.14761626720428467, -0.03870997577905655], [0.14339426159858704, -0.10383737832307816], [-0.13053376972675323, 0.019297396764159203], [0.005396242719143629, -0.056299805641174316], [-0.013345024548470974, 0.03901691362261772], [0.0553407147526741, 0.0904165729880333], [-0.09528854489326477, -0.010646789334714413], [-0.1166892945766449, -0.07197050750255585], [-0.010123344138264656, -0.04530094191431999], [0.03303920850157738, -0.14339113235473633], [0.033880479633808136, 0.03325103968381882], [-0.1381172239780426, 0.15749314427375793], [-0.0661153718829155, 0.008057080209255219], [0.06971917301416397, -0.11184100061655045], [0.01552082784473896, 0.06988561153411865], [-0.13407489657402039, 0.14916673302650452], [0.09857115149497986, -0.16780692338943481], [0.10707509517669678, 0.006925666239112616], [-0.02129761315882206, 0.10606234520673752], [-0.06671731919050217, 0.0608447827398777], [0.12353986501693726, -0.057227008044719696], [-0.14198076725006104, 0.06201164051890373], [0.051020264625549316, -0.16098466515541077], [-0.14274853467941284, 0.03244834765791893]], [[0.11838105320930481, -0.026074925437569618], [-0.004600217565894127, 0.11029829829931259], [0.10666606575250626, -0.1003551185131073], [-0.11212639510631561, -0.03772702440619469], [0.06040945276618004, 0.10293807089328766], [0.10239003598690033, -0.10229075700044632], [-0.06755012273788452, -0.042608581483364105], [0.019359497353434563, 0.15624351799488068], [0.06618206202983856, -0.07367445528507233], [0.047248292714357376, 0.06355750560760498], [-0.06523183733224869, 0.011086808517575264], [0.034346263855695724, -0.027979902923107147], [0.06486334651708603, 0.045256346464157104], [-0.07307852059602737, 0.04211409389972687], [-0.07568228989839554, 0.060003798454999924], [0.15242306888103485, -0.04626033455133438], [0.03312520310282707, -0.07139503210783005], [0.0033170420210808516, 0.09019263833761215], [-0.004964858293533325, -0.13473184406757355], [0.014468441717326641, -0.06422996520996094], [-0.035065703094005585, -0.10274450480937958], [-0.15432365238666534, 0.06631165742874146], [-0.10325095802545547, 0.09878433495759964], [-0.031838539987802505, 0.010383421555161476], [-0.04595639184117317, 0.09392490983009338], [-0.05389953777194023, -0.1098109632730484], [0.11489781737327576, 0.07581912726163864], [0.07408064603805542, -0.12319885939359665], [-0.06721755117177963, 0.034723736345767975], [0.12033488601446152, -0.10448263585567474], [-0.03907164931297302, -0.041630398482084274], [0.06813333928585052, -0.15362593531608582]], [[-0.05857837572693825, 0.09518352895975113], [-0.13694700598716736, -0.14175450801849365], [-0.0803518071770668, 0.0023345155641436577], [-0.0027158178854733706, -0.006055198144167662], [-0.041373368352651596, -0.13692520558834076], [0.1340814232826233, 0.10467249155044556], [-0.08474414050579071, -0.1190338060259819], [-0.11707717925310135, -0.1348312795162201], [0.04010158032178879, 0.009638785384595394], [-0.02782478742301464, 0.09615309536457062], [0.09405985474586487, -0.09861965477466583], [-0.04533614590764046, -0.14843077957630157], [0.0460691973567009, -0.06797468662261963], [-0.07236524671316147, -0.10137942433357239], [-0.06024755537509918, 0.08099167793989182], [0.03797180950641632, 0.09043478220701218], [0.12226661294698715, -0.05917423591017723], [0.11917237937450409, -0.014496142975986004], [-0.053432364016771317, 0.01486144121736288], [-0.09331890940666199, -0.049614910036325455], [-0.035598475486040115, -0.09073163568973541], [0.1024317517876625, -0.10309018939733505], [0.10546348989009857, 0.04752951115369797], [-0.03511292487382889, -0.07224409282207489], [-0.00018848024774342775, -0.0003139678738079965], [-0.03613540902733803, -0.06808453053236008], [0.07777638733386993, -0.11797504872083664], [-0.02720184065401554, -0.029079357162117958], [0.08458993583917618, 0.0679493397474289], [-0.021544087678194046, -0.008009505458176136], [0.08330167084932327, -0.1240004450082779], [0.036434873938560486, 0.0733654648065567]], [[-0.13868343830108643, -0.13001298904418945], [-0.14305850863456726, -0.014323687180876732], [-0.07193809002637863, -0.016466420143842697], [0.012683210894465446, 0.06990820914506912], [0.014357897453010082, 0.005240361671894789], [0.10685806721448898, 0.0902748852968216], [-0.12964288890361786, -0.1335316002368927], [-0.06526742875576019, -0.026518743485212326], [0.05575786530971527, 0.04379821568727493], [0.10815772414207458, 0.047397613525390625], [0.058797821402549744, 0.03974063694477081], [0.10841482132673264, 0.09526190906763077], [-0.023093877360224724, 0.11767323315143585], [0.08942728489637375, 0.045197583734989166], [0.03470879793167114, 0.08994442224502563], [0.07117626816034317, -0.06582654267549515], [0.09537719935178757, 0.11941203474998474], [-0.023696571588516235, 0.0357886366546154], [0.043942082673311234, -0.162190780043602], [-0.0730922669172287, 0.039645422250032425], [-0.0514179989695549, -0.05508677288889885], [0.10920891165733337, 0.12125828117132187], [-0.02655535191297531, 0.028854548931121826], [-0.09660182893276215, -0.06796788424253464], [0.10929995775222778, 0.06330924481153488], [0.08755157142877579, -0.07522948086261749], [-0.1314777135848999, -0.04324555769562721], [-0.02181236445903778, -0.026285074651241302], [0.08528032898902893, 0.05241119861602783], [-0.06149487942457199, -0.1469232439994812], [-0.13776443898677826, -0.1250700205564499], [-0.04702586308121681, -0.0646739974617958]], [[0.03569943457841873, -0.045865368098020554], [-0.07591317594051361, 0.027902236208319664], [0.1425900012254715, -0.09671665728092194], [0.005778880324214697, 0.02033972553908825], [-0.12732122838497162, 0.0486103892326355], [-0.08573688566684723, -0.0199310053139925], [0.06583116948604584, 0.0507107749581337], [-0.05366607382893562, -0.006347339600324631], [-0.0046019842848181725, -0.06964307278394699], [0.12771926820278168, 0.10905873030424118], [-0.022690260782837868, 0.09516285359859467], [-0.010688253678381443, 0.01576382666826248], [0.02091946266591549, -0.0915338471531868], [0.013680926524102688, 0.05395234376192093], [-0.09538684785366058, -0.019364627078175545], [0.12839874625205994, -0.05610421672463417], [-0.044679172337055206, 0.14777930080890656], [-0.11466533690690994, 0.15008223056793213], [-0.08509364724159241, -0.13819736242294312], [0.08152597397565842, -0.14294524490833282], [0.05516112595796585, -0.056382711976766586], [0.016759248450398445, -0.03553362190723419], [-0.028110088780522346, 0.046134017407894135], [-0.008750148117542267, 0.04655969887971878], [-0.1459578424692154, 0.16231940686702728], [-0.09576956927776337, 0.13496576249599457], [-0.03575846552848816, -0.07061704248189926], [-0.0917990654706955, 0.02393457293510437], [0.05369675159454346, 0.000547663657926023], [0.004519296810030937, -0.12230101227760315], [0.08875636756420135, -0.0676836371421814], [0.021098338067531586, -0.08964398503303528]], [[0.0024544813204556704, -0.1421349197626114], [0.11075416952371597, 0.011075707152485847], [0.055233538150787354, -0.10621895641088486], [-0.06506283581256866, 0.053345099091529846], [0.037827156484127045, 0.012842107564210892], [-0.10771295428276062, -0.11194372177124023], [-0.08558809757232666, -0.09278882294893265], [0.09939518570899963, -0.0807267352938652], [-0.04150330275297165, 0.05524725466966629], [-0.06840929388999939, 0.0628601685166359], [-0.06655310094356537, -0.02601476013660431], [-0.020055636763572693, -0.011631635017693043], [-0.08122207969427109, 0.06900408118963242], [0.09564895927906036, -0.014082139357924461], [0.12497841566801071, 0.046971697360277176], [0.11745621263980865, -0.03200698643922806], [0.04138759523630142, -0.015241377055644989], [-0.08344303071498871, 0.006363533902913332], [-0.1302608698606491, -0.1627504825592041], [-0.029025355353951454, -0.08510053902864456], [-0.1457141935825348, -0.1014459952712059], [-0.046034183353185654, 0.11926242709159851], [-0.07533574849367142, -0.00477082934230566], [-0.04067597910761833, 0.04312711954116821], [-0.03650211915373802, 0.11161090433597565], [-0.008637340739369392, -0.03390778228640556], [0.027894796803593636, -0.07169201225042343], [-0.04493645578622818, -0.09324301034212112], [-0.11179911345243454, 0.07346075773239136], [0.08130688965320587, -0.09120716899633408], [0.09969936311244965, 0.04754742980003357], [0.041235048323869705, 0.021182360127568245]], [[-0.0509725958108902, -0.07891330868005753], [-0.004805093631148338, 0.021374238654971123], [0.006360698491334915, -0.023433664813637733], [0.023997876793146133, -0.022051583975553513], [-0.14671696722507477, 0.01719028316438198], [0.04345647245645523, -0.09468147903680801], [-0.016220876947045326, -0.022350627928972244], [0.08730484545230865, 0.10876486450433731], [-0.10040557384490967, 0.024183694273233414], [0.0743151307106018, 0.09799164533615112], [0.11481685191392899, 0.054108876734972], [-0.005296566057950258, 0.09286947548389435], [0.09338807314634323, -0.09133247286081314], [0.047614891082048416, 0.08927054703235626], [0.002793105784803629, 0.011010484769940376], [-0.054152343422174454, 0.08346050977706909], [0.09018652141094208, 0.09163394570350647], [-0.04766605794429779, 0.1028902530670166], [0.03388896957039833, 0.017420349642634392], [0.06809120625257492, -0.07717862725257874], [-0.02643018774688244, -0.03601688891649246], [-0.10236822068691254, 0.08396939188241959], [0.08717966079711914, -0.03848198801279068], [0.06745386123657227, 0.056609947234392166], [-0.09489128738641739, -0.012694885954260826], [0.11010649800300598, -0.11480626463890076], [-0.09558860957622528, -0.15147149562835693], [0.10933348536491394, 0.11459250748157501], [-0.117217518389225, 0.003736985381692648], [0.028829973191022873, -0.06621768325567245], [-0.1438809335231781, -0.1158381924033165], [0.07756799459457397, -0.03660124912858009]], [[-0.0043479204177856445, 0.0115667087957263], [-0.028067607432603836, 0.10010547190904617], [0.13776566088199615, 0.04358833283185959], [0.10927072912454605, 0.07416698336601257], [0.05551888421177864, -0.03824411332607269], [0.024848192930221558, -0.07461988180875778], [-0.06481499969959259, -0.09454409033060074], [0.06786267459392548, 0.07544879615306854], [0.12230002135038376, -0.05204596370458603], [-0.0011430680751800537, 0.04553977772593498], [-0.04779766499996185, -0.011671711690723896], [0.03381255641579628, -0.12608182430267334], [-0.10779448598623276, -0.03210802003741264], [-0.07119859009981155, -0.11437999457120895], [-0.02114865556359291, 0.1433669924736023], [0.06925608962774277, 0.06073177233338356], [0.061257895082235336, 0.10551142692565918], [-0.10408129543066025, -0.12993167340755463], [0.011647511273622513, 0.06286503374576569], [-0.05210540071129799, -0.08704625070095062], [-0.08405711501836777, -0.09629939496517181], [-0.09116510301828384, -0.17430175840854645], [0.019081249833106995, -0.08902700245380402], [-0.15789835155010223, -0.18295659124851227], [-0.01629718765616417, 0.10314711183309555], [-0.06174169108271599, -0.08226467669010162], [0.09246587008237839, -0.07629818469285965], [-0.07200609892606735, -0.05042119696736336], [-0.145100936293602, -0.06672467291355133], [-0.022205734625458717, 0.15711675584316254], [-0.027554765343666077, 0.032174523919820786], [0.15341773629188538, -0.042352139949798584]], [[-0.03911175951361656, -0.17642390727996826], [0.028366366401314735, -0.11105184257030487], [0.1438775509595871, 0.019215622916817665], [0.0757976844906807, -0.027890898287296295], [-0.15080326795578003, 0.08705493062734604], [0.009644675999879837, 0.04381066560745239], [-0.09455849230289459, 0.10087592154741287], [-0.04786992818117142, 0.1427001655101776], [0.1245659813284874, 0.06523240357637405], [-0.028976714238524437, 0.07708273828029633], [-0.012274417094886303, 0.07070280611515045], [-0.11633705347776413, -0.046766117215156555], [0.11875392496585846, 0.029017336666584015], [-0.08075243979692459, -0.12097517400979996], [0.04665059223771095, -0.11254636943340302], [0.09090245515108109, -0.09813719987869263], [-0.033690195530653, 0.05132745951414108], [-0.14780406653881073, 0.1282363384962082], [0.030464552342891693, 0.005113102495670319], [-0.004631771706044674, -0.15795136988162994], [0.03151693195104599, -0.048771217465400696], [-0.06858225166797638, 0.0324028879404068], [0.029170488938689232, 0.13880027830600739], [-0.004930490627884865, 0.00739683210849762], [-0.13941067457199097, -0.06858126819133759], [0.10022947192192078, -0.021669330075383186], [-0.044441040605306625, -0.07811108976602554], [0.08983653038740158, 0.1362379491329193], [-0.06909479200839996, -0.06579166650772095], [0.0007000670302659273, -0.12629234790802002], [-0.1449487805366516, 0.00649266317486763], [-0.08666884899139404, -0.16152343153953552]], [[-0.12450241297483444, -0.02885187789797783], [-0.13899117708206177, -0.17711985111236572], [0.028832174837589264, -0.0032882732339203358], [-0.06269100308418274, -0.006664146203547716], [0.0078000775538384914, -0.1582653671503067], [-0.017583465203642845, -0.015123569406569004], [0.009332353249192238, 0.054247546941041946], [0.0667225569486618, -0.04340684413909912], [-0.07320424169301987, 0.003599064890295267], [0.07308804988861084, -0.12101798504590988], [0.14118708670139313, 0.04177015647292137], [-0.03895967826247215, 0.07005389034748077], [-0.05639924481511116, 0.12594684958457947], [0.09940242767333984, 0.09558585286140442], [-0.11002487689256668, -0.07234370708465576], [0.08774681389331818, -0.08698269724845886], [0.003055568551644683, -0.04690012335777283], [0.01497108768671751, 0.017464319244027138], [-0.14589060842990875, 0.07643325626850128], [0.010687346570193768, 0.07217689603567123], [0.14542654156684875, -0.0009254456963390112], [0.14826689660549164, 0.009365959092974663], [0.12877550721168518, 0.1279553771018982], [0.06518003344535828, -0.03362838178873062], [0.11919137835502625, -0.002725877333432436], [0.11800280958414078, -0.06107824668288231], [0.04967889189720154, -0.04345383867621422], [-0.0403732992708683, -0.016127511858940125], [-0.10729163885116577, 0.06854216754436493], [-0.10861346125602722, -0.049174290150403976], [0.034043967723846436, -0.06817357242107391], [-0.05358228087425232, 0.09045075625181198]], [[0.08140312880277634, 0.04536619037389755], [-0.09939254075288773, -0.10805680602788925], [0.1092197597026825, 0.0424044094979763], [0.08762480318546295, 0.08962304890155792], [0.1051059439778328, -0.10850781947374344], [-0.07649347186088562, -0.05372403934597969], [0.031409017741680145, -0.03900928050279617], [0.059352364391088486, 0.0547003448009491], [-0.04278157278895378, 0.11696440726518631], [-0.00045229450915940106, 0.038278307765722275], [-0.06892742216587067, 0.038984060287475586], [0.11859561502933502, 0.1003132238984108], [0.12291056662797928, 0.10308095067739487], [0.06271732598543167, -0.10141967236995697], [0.06627815216779709, 0.005221319384872913], [-0.10022152960300446, -0.10214431583881378], [-0.09323681890964508, 0.09845644235610962], [0.0037465430796146393, -0.007173330523073673], [0.027059506624937057, -0.09145253151655197], [0.10802566260099411, -0.013113483786582947], [-0.07817994803190231, 0.130087211728096], [0.08595069497823715, 0.09752310067415237], [0.10656297206878662, 0.08531410992145538], [0.059210315346717834, 0.13924574851989746], [-0.05415887013077736, -0.02221870608627796], [0.09393196552991867, -0.03512170910835266], [0.0172892976552248, -0.028184890747070312], [0.03835345804691315, 0.13162066042423248], [-0.07697941362857819, -0.10290803015232086], [-0.045848798006772995, -0.09487663209438324], [-0.03449723869562149, -0.15233094990253448], [-0.09537191689014435, -0.11794300377368927]], [[-0.1330193281173706, -0.10067398101091385], [0.0615619495511055, -0.09868378937244415], [0.10014740377664566, 0.07961433380842209], [-0.10730650275945663, 0.00016687007155269384], [0.011950191110372543, -0.01183735579252243], [0.08974719047546387, 0.009190242737531662], [0.10675689578056335, 0.007667359430342913], [0.020778551697731018, 0.004884277004748583], [0.05714542791247368, 0.0524502769112587], [0.00024258787743747234, 0.06991102546453476], [0.12632499635219574, -0.05024616792798042], [0.041300542652606964, -0.08495296537876129], [-0.048294372856616974, 0.11124913394451141], [0.10029905289411545, 0.11859431862831116], [-0.04585214704275131, -0.04111252352595329], [0.0057548596523702145, 0.03991324454545975], [0.0026410177815705538, 0.10200201719999313], [-0.10413835197687149, -0.044617000967264175], [-0.10548920184373856, -0.14639316499233246], [0.03928922116756439, -0.029336415231227875], [0.038333792239427567, 0.06724944710731506], [0.12690791487693787, -0.008197125047445297], [0.0436471663415432, -0.023781120777130127], [-0.09290289133787155, 0.0687994584441185], [0.05206209048628807, 0.0034462641924619675], [-0.03925769776105881, -0.0012296423083171248], [0.007187905255705118, 0.06220772862434387], [-0.09008937329053879, 0.04002034664154053], [0.11488160490989685, -0.05553915724158287], [-0.08276069164276123, 0.06471642106771469], [0.08613929897546768, -0.11385321617126465], [-0.08493492752313614, -0.06603328883647919]], [[-0.050479404628276825, 0.054976437240839005], [-0.14421120285987854, -0.09380290657281876], [0.15723972022533417, -0.16053783893585205], [0.12067372351884842, -0.041749805212020874], [-0.1380271315574646, 0.016100628301501274], [0.08467251807451248, -0.12158844619989395], [-0.0007135288906283677, -0.004685443826019764], [0.08374437689781189, 0.11575418710708618], [0.07127094268798828, -0.08982639759778976], [-0.1257186383008957, -0.014314056374132633], [0.030224470421671867, -0.13534918427467346], [-0.17708469927310944, -0.05773229897022247], [0.09186180680990219, -0.13560345768928528], [-0.013804340735077858, 0.09131595492362976], [0.08688763529062271, -0.10836170613765717], [0.047126393765211105, -0.007892449386417866], [-0.08421067148447037, -0.003079020418226719], [0.036870937794446945, 0.10006606578826904], [0.11173169314861298, 0.05736362934112549], [0.1615694910287857, -0.07827972620725632], [0.06278396397829056, -0.1772647500038147], [-0.09000077098608017, 0.13758236169815063], [-0.11641242355108261, -0.03498619422316551], [0.0448732003569603, -0.06913206726312637], [0.01217565406113863, -0.03120250068604946], [-0.012235157191753387, -0.1123969554901123], [-0.11619798094034195, 0.09505889564752579], [-0.10500385612249374, -0.006085325963795185], [-0.08319152891635895, 0.02597028762102127], [0.008116508834064007, -0.08452547341585159], [0.10841173678636551, 0.050474293529987335], [-0.04850948229432106, 0.0543815977871418]], [[0.020838433876633644, -0.025514811277389526], [0.012011905200779438, 0.009524649940431118], [-0.026463324204087257, 0.0057462346740067005], [0.027475843206048012, 0.060384053736925125], [-0.04300818592309952, 0.08771640062332153], [0.08603225648403168, 0.06908188760280609], [-0.06288420408964157, 0.052325885742902756], [-0.03199401870369911, -0.08870910853147507], [-0.09127287566661835, 0.062742218375206], [0.03685604780912399, -0.07703529298305511], [0.15833953022956848, 0.01168898120522499], [0.11943511664867401, 0.07098216563463211], [-0.023099195212125778, -0.016993096098303795], [0.09754498302936554, -0.05365680530667305], [0.020487487316131592, -0.15555085241794586], [-0.019875744357705116, 0.11443163454532623], [0.07145753502845764, 0.043220240622758865], [-0.012427090667188168, 0.12302026897668839], [-0.11096268147230148, -0.018936650827527046], [0.06361301243305206, 0.012129686772823334], [-0.07371073216199875, 0.169864684343338], [0.1649981290102005, -0.0046241795644164085], [-0.027544401586055756, 0.07217293977737427], [0.13470368087291718, 0.06723673641681671], [0.029735499992966652, 0.06266091018915176], [0.07814638316631317, 0.010490940883755684], [0.046937908977270126, -0.05973013862967491], [-0.04816756024956703, -0.0750572681427002], [0.06914989650249481, -0.016890790313482285], [-0.07925622165203094, -0.1442277431488037], [-0.15279541909694672, -0.15399615466594696], [0.02880975417792797, 0.050996627658605576]], [[-0.06402119249105453, -0.10902902483940125], [-0.03655707836151123, 0.07583741098642349], [-0.0054535334929823875, -0.09730909019708633], [0.07375643402338028, -0.09857713431119919], [-0.018060140311717987, 0.028920788317918777], [-0.03510433807969093, -0.008777732960879803], [-0.020602915436029434, 0.11234920471906662], [0.03816516697406769, 0.10599444806575775], [0.10413382947444916, -0.10448803007602692], [-0.0470733679831028, 0.023387596011161804], [-0.10589031875133514, -0.02597169391810894], [-0.04641706123948097, -0.02836919203400612], [-0.04379389435052872, -0.11791381984949112], [0.025002699345350266, -0.05331672355532646], [0.06305813789367676, -0.13143585622310638], [0.15294139087200165, -0.09403585642576218], [0.08416770398616791, 0.12072212994098663], [-0.07428194582462311, 0.011345510371029377], [0.09585633128881454, 0.03412160649895668], [0.08119069784879684, -0.13891248404979706], [0.14082907140254974, 0.015581884421408176], [-0.1388387680053711, -0.02304830029606819], [-0.051859524101018906, -0.0679565891623497], [-0.13328340649604797, -0.10688523948192596], [-0.020951801910996437, 0.14280374348163605], [0.002074885182082653, 0.070061594247818], [-0.06521375477313995, 0.06037386506795883], [0.05598922446370125, 0.124369315803051], [0.007699534296989441, -0.05410976707935333], [-0.06458847969770432, -0.11819621175527573], [0.023346707224845886, 0.013150240294635296], [0.0070855626836419106, -0.16169026494026184]]], "conv2.bias": [-0.009204834699630737, -0.04688926041126251, -0.04508538544178009, -0.05926990136504173, -0.08911309391260147, -0.08605965971946716, 0.05709754303097725, 0.10826881974935532, -0.09109210968017578, 0.017410315573215485, -0.07874547690153122, -0.005862916354089975, -0.08633971959352493, -0.031933341175317764, 0.06469649821519852, -0.09318501502275467, 0.010393296368420124, -0.0724339485168457, -0.0491504929959774, 0.03845948725938797, -0.10912981629371643, 0.1055162325501442, -0.01785539649426937, -0.05867119878530502, 0.02121865376830101, -0.039473894983530045, 0.07269652187824249, 0.04703201353549957, 0.11414429545402527, -0.04377234727144241, -0.09010503441095352, -0.11086984723806381, -0.10626239329576492, -0.08701159060001373, 0.050192248076200485, 0.060314226895570755, 0.0260811448097229, -0.010466109961271286, 0.11251706629991531, 0.033706098794937134, -0.01607886701822281, -0.09443016350269318, -0.027702590450644493, -0.023197710514068604, 0.02043141797184944, -0.0706845372915268, 0.00602820236235857, 0.007586391642689705, -0.10239823162555695, 0.01877749152481556, -0.04627973213791847, -0.09581457823514938, -0.07725474238395691, -0.08345931023359299, 0.021131861954927444, -0.10237167030572891, -0.03195458650588989, -0.01510616671293974, 0.0351933054625988, -0.056439097970724106, 0.004124978091567755, -0.05403222516179085, 0.10276549309492111, 0.007925312966108322], "fc1.weight": [[0.018216485157608986, -0.01817425712943077, 0.001448576687835157, 0.04855722561478615, -0.019192306324839592, 0.006703695748001337, 0.010109969414770603, -0.011762111447751522, -0.007758334279060364, -0.00907407607883215, -0.023564210161566734, -0.023466575890779495, -0.006378796882927418, -0.020678486675024033, -0.005374277010560036, -0.023959286510944366, 0.004790343344211578, 0.011994940228760242, 0.01835106499493122, 0.002748505910858512, -0.004173464607447386, 0.0063752480782568455, 0.024386512115597725, 0.0164367463439703, -0.007462354376912117, -0.022737223654985428, -0.025593258440494537, 0.01570911891758442, 0.018383091315627098, -0.003878468880429864, 0.00340910442173481, 0.008670557290315628, -0.01893877051770687, -0.011447012424468994, -0.02431846782565117, -0.023125534877181053, -0.018401198089122772, 0.015160424634814262, 0.017096977680921555, -0.004982887767255306, -0.02031618170440197, -0.022764062508940697, 0.0010674940422177315, 0.0019167951541021466, 0.0003627173136919737, 0.005639905575662851, -0.004866454750299454, 0.0017355576856061816, 0.02341151423752308, 0.014286377467215061, 0.002098731929436326, 0.018645046278834343, -0.0052317483350634575, 0.0029565345030277967, -0.019393479451537132, -0.013656161725521088, -0.021026207134127617, -0.006242540664970875, 0.006260890979319811, 0.012330498546361923, -0.030390484258532524, -0.016288071870803833, 0.027023321017622948, -0.024614356458187103, 0.0011639433214440942, -0.028587372973561287, 0.01673036813735962, -0.05274522677063942, -0.012593747116625309, -0.03393464908003807, 0.029972730204463005, -0.02179272472858429, -0.01796051673591137, 0.002043197862803936, 0.02718537673354149, -0.021672219038009644, 0.03203260898590088, 0.052300870418548584, -0.030049506574869156, 0.035344816744327545, -0.03022647090256214, 0.030671080574393272, -0.02313377521932125, 0.011276397854089737, 0.01114259846508503, -0.015162263996899128, -0.02377757430076599, 0.020664123818278313, -0.015009735710918903, 0.011607781983911991, -0.026445113122463226, -0.058344416320323944, -0.002425101585686207, -0.01263958215713501, 0.00436016358435154, -0.054236579686403275, -0.01776343397796154, -0.025461038574576378, 0.0013073919108137488, 0.007202019914984703, -0.01238084677606821, -0.0033522576559334993, 0.03599061444401741, -0.004528779070824385, -0.013419611379504204, 0.03784500062465668, 0.019606390967965126, 0.024202760308980942, -0.022980548441410065, 0.000408059248002246, 0.010342923924326897, -0.010920440778136253, -0.032126206904649734, 0.005382285453379154, 0.02737506479024887, 0.003930302802473307, 0.015717733651399612, -0.007674583233892918, -0.010987978428602219, -0.012718914076685905, -0.047132108360528946, 0.04143146425485611, -0.015104827471077442, -0.012454850599169731, -0.03359110653400421, -0.01698603294789791, 0.00040830380748957396, 0.013540300540626049, 0.0012824221048504114, 0.008851777762174606, 0.01319588627666235, 0.005075692664831877, 0.008131050504744053, 0.009632784873247147, 0.02362600527703762, -0.006171534303575754, 0.027496250346302986, -0.03775181621313095, 0.030252687633037567, 0.00012213765876367688, -0.021206993609666824, -0.015545332804322243, 0.00958171859383583, -0.006232169456779957, 0.002671722322702408, 0.001493882155045867, 0.006205826997756958, 