{"conv1.weight": [[[-0.5221467614173889, 0.6156142950057983]], [[-0.41061368584632874, -0.6113415360450745]], [[-0.4696984589099884, 0.3090047836303711]], [[0.6747569441795349, 0.13097698986530304]], [[0.12183987349271774, 0.3152298033237457]], [[-0.4241948127746582, -0.0721484124660492]], [[0.38125574588775635, -0.5871930122375488]], [[0.20312342047691345, -0.3030489385128021]], [[0.11595436930656433, 0.11110382527112961]], [[-0.2469249665737152, 0.09915191680192947]], [[0.016545290127396584, 0.021706389263272285]], [[0.2862861454486847, 0.3990839719772339]], [[-0.4943254292011261, 0.6264265775680542]], [[-0.013690602034330368, 0.42909228801727295]], [[-0.4916478991508484, -0.01928071118891239]], [[0.14524152874946594, -0.45014116168022156]], [[0.14416871964931488, 0.20672045648097992]], [[0.22033058106899261, 0.35427409410476685]], [[0.4746653139591217, 0.36650198698043823]], [[0.053732819855213165, 0.4755653142929077]], [[-0.22956080734729767, 0.200642392039299]], [[-0.40005210041999817, 0.21440444886684418]], [[-0.5768371820449829, 0.3228946626186371]], [[-0.5701137185096741, -0.06150403991341591]], [[0.3585912883281708, -0.23553778231143951]], [[0.6818780303001404, -0.43483954668045044]], [[0.09139858931303024, -0.35010069608688354]], [[0.4556753933429718, -0.3227466344833374]], [[-0.46473047137260437, -0.4023378789424896]], [[0.1983736902475357, -0.18693150579929352]], [[-0.1016593798995018, -0.220587819814682]], [[-0.02469298429787159, 0.43994140625]]], "conv1.bias": [0.4020959436893463, -0.01239125058054924, 0.49907830357551575, 0.004735480062663555, -0.6957491040229797, -0.44481492042541504, 0.11090841889381409, 0.18093417584896088, -0.6060566902160645, 0.5268641710281372, -0.6633766889572144, 0.42894184589385986, 0.41655635833740234, -0.6141133308410645, -0.13534663617610931, 0.4373200237751007, -0.3760327994823456, 0.5280072093009949, -0.23571516573429108, 0.0468687005341053, -0.337182879447937, 0.6982209086418152, 0.5788755416870117, -0.36059629917144775, 0.17217102646827698, -0.5176401734352112, -0.6836506724357605, 0.29144251346588135, -0.48186177015304565, -0.49036139249801636, -0.09259811043739319, -0.29894065856933594], "batchnorm1.weight": [1.0306636095046997, 1.0090761184692383, 1.0252699851989746, 1.0495914220809937, 1.0483286380767822, 0.989872932434082, 1.024851679801941, 1.0280500650405884, 1.0453429222106934, 1.0258333683013916, 1.0455243587493896, 1.0337411165237427, 1.0117771625518799, 1.0191535949707031, 1.0034064054489136, 1.0408096313476562, 1.0377556085586548, 1.0395935773849487, 1.054234504699707, 1.0586211681365967, 1.0224131345748901, 1.0196171998977661, 1.013683795928955, 1.0087414979934692, 1.0297831296920776, 1.0307198762893677, 1.0258104801177979, 1.0473324060440063, 1.0018829107284546, 1.0307034254074097, 1.0111442804336548, 1.03855299949646], "batchnorm1.bias": [-0.03683222457766533, -0.025104476138949394, -0.02815965563058853, -0.03163757547736168, -0.027231864631175995, -0.03456325829029083, -0.03460615873336792, -0.030626505613327026, -0.0293614249676466, -0.026618534699082375, -0.02664131298661232, -0.03540465235710144, -0.02748744934797287, -0.035872191190719604, -0.025237228721380234, -0.02789081633090973, -0.03525501489639282, -0.028854168951511383, -0.02912137098610401, -0.02779918909072876, -0.02637016400694847, -0.027734817937016487, -0.033838383853435516, -0.028563201427459717, -0.03549554571509361, -0.027970504015684128, -0.02909615822136402, -0.026949742808938026, -0.03494784235954285, -0.027949417009949684, -0.024303371086716652, -0.029062597081065178], "conv2.weight": [[[-0.08768045902252197, 0.07127482444047928], [-0.12618891894817352, 0.06731636077165604], [-0.12545862793922424, 0.05116398259997368], [-0.06595500558614731, 0.11425948888063431], [-0.0560249388217926, -0.021286429837346077], [0.020397266373038292, 0.05824752151966095], [0.08237314224243164, -0.13719542324543], [0.07801162451505661, -0.08240960538387299], [0.011258521117269993, 0.08213303983211517], [-0.038138534873723984, -0.029168328270316124], [0.008182169869542122, 0.012588282115757465], [-0.08600553870201111, -0.10366559773683548], [-0.07089652121067047, -0.10041027516126633], [-0.101178839802742, 0.09353398531675339], [-0.01208605244755745, 0.0036360369995236397], [-0.07551079988479614, 0.08156966418027878], [0.12853634357452393, 0.0229803416877985], [0.11486054211854935, 0.13114231824874878], [0.12776382267475128, 0.11174028366804123], [-0.06500890105962753, -0.009076941758394241], [0.016238613054156303, 0.11733631044626236], [0.01780993863940239, -0.11008594930171967], [0.03376953303813934, 0.06614139676094055], [-0.11339475214481354, -0.10165897011756897], [-0.004710724111646414, -0.09731724113225937], [-0.08397521823644638, 0.07050412148237228], [0.12620140612125397, -0.0148995416238904], [0.011637303046882153, -0.1046244204044342], [0.061237212270498276, 0.070256806910038], [-0.05377186834812164, -0.07006455957889557], [-0.12182199954986572, -0.10627041012048721], [-0.046986762434244156, -0.09800756722688675]], [[0.05078812688589096, -0.01671239733695984], [-0.00943033304065466, -0.08394912630319595], [0.027336010709404945, -0.04759034141898155], [0.06156957522034645, 0.11437413096427917], [-0.11544940620660782, -0.04321034252643585], [0.029437491670250893, -0.09141827374696732], [0.05443830415606499, -0.004120477940887213], [-0.07985451817512512, -0.015052800066769123], [-0.05078506097197533, 0.1330566257238388], [0.03964684158563614, -0.05036408081650734], [-0.0643216222524643, 0.03839216008782387], [-0.03309325501322746, 0.12091198563575745], [0.019504567608237267, 0.09508108347654343], [-0.0968204215168953, 0.0637158676981926], [0.1207590326666832, -0.03273448720574379], [0.04332409054040909, -0.01871444843709469], [-0.08820876479148865, -0.007155332714319229], [-0.10945341736078262, -0.05711940675973892], [0.009387269616127014, 0.018054094165563583], [-0.10982117801904678, -0.06708374619483948], [-0.0680147111415863, -0.0007711613434366882], [-0.03795294463634491, -0.024161478504538536], [0.02941766194999218, -0.10431589186191559], [-0.04854387789964676, -0.11126985400915146], [-0.017413845285773277, -0.05905923247337341], [0.01354895904660225, -0.042210835963487625], [-0.023168088868260384, 0.001952653401531279], [-0.10464376211166382, -0.06670428067445755], [0.10556810349225998, -0.004226264543831348], [0.009580660611391068, -0.003159607294946909], [-0.03159598633646965, -0.10055724531412125], [0.04422779008746147, -0.0057724216021597385]], [[-0.0326998271048069, 0.09783216565847397], [-0.057159025222063065, 0.03883220627903938], [0.05717567354440689, -0.025707343593239784], [-0.032915662974119186, -0.021256567910313606], [0.0009119744645431638, -0.010992533527314663], [0.08883427828550339, -0.06125742942094803], [-0.0199297908693552, 0.07506001740694046], [-0.0409795418381691, 0.10595881193876266], [0.02860322967171669, 0.05385306850075722], [-0.07349937409162521, 0.006042229477316141], [0.03977534919977188, -0.02683207578957081], [0.04397423192858696, 0.09785950183868408], [-0.05740312859416008, -0.0477813221514225], [0.009116836823523045, 0.09096246212720871], [0.06749774515628815, -0.09118068963289261], [-0.0518062561750412, -0.02330118976533413], [0.06551874428987503, -0.10898595303297043], [-0.032961465418338776, -0.11719083040952682], [-0.07224688678979874, 0.07334641367197037], [-0.0994528979063034, -0.03631429374217987], [0.12295742332935333, -0.0823553130030632], [0.032628774642944336, -0.10141582041978836], [-0.0325629897415638, 0.09314993023872375], [0.0869525894522667, 0.02063133381307125], [-0.09064140170812607, -0.012819765135645866], [0.018868258222937584, 0.020907115191221237], [-0.12496648728847504, 0.06496856361627579], [-0.13497640192508698, -0.01857522316277027], [-0.004000222310423851, 0.08625932782888412], [-0.06204938143491745, 0.09492309391498566], [-0.10146726667881012, 0.0449746698141098], [-0.05242183431982994, 0.10043926537036896]], [[0.07651565223932266, 0.05675908178091049], [0.052256327122449875, 0.049810297787189484], [0.013460311107337475, 0.11330216377973557], [-0.11216441541910172, -0.1329411119222641], [-0.09568454325199127, -0.013652629218995571], [-0.12046217173337936, 0.06705836206674576], [-0.01920015551149845, 0.07205978035926819], [-0.08851724863052368, 0.07176370918750763], [0.02448085881769657, -0.021597951650619507], [-0.07959965616464615, 0.06503453850746155], [-0.055540718138217926, -0.015207737684249878], [0.06978610157966614, 0.0053881010971963406], [-0.12291274964809418, 0.09986211359500885], [-0.10295534878969193, 0.013554342091083527], [0.027687493711709976, -0.027572153136134148], [0.03430207818746567, -0.03159641474485397], [0.03543884679675102, 0.04283430054783821], [-0.12305495887994766, -0.005815786309540272], [-0.026000382378697395, -0.01603706181049347], [-0.13013970851898193, 0.09041906893253326], [0.10673289746046066, 0.032718099653720856], [-0.1329350769519806, -0.023097673431038857], [-0.07889245450496674, -0.055330827832221985], [0.11400889605283737, 0.015040370635688305], [-0.05640479177236557, -0.04623591899871826], [-0.010674191638827324, 0.09622155874967575], [0.09258805215358734, -0.03093484230339527], [-0.11175782978534698, -0.1056932806968689], [0.049317777156829834, 0.0749751403927803], [0.11120287328958511, 0.05155229941010475], [-0.018160801380872726, -0.09722375124692917], [-0.10830549895763397, 0.025730429217219353]], [[-0.10869418829679489, 0.03505081683397293], [0.10779371112585068, 0.03419305011630058], [-0.05124065652489662, -0.11699240654706955], [-0.03311781957745552, 0.0005461719701997936], [-0.003822591155767441, -0.07815062254667282], [0.08690575510263443, -0.05543249100446701], [-0.05402175709605217, -0.014323443174362183], [-0.09038110077381134, -0.07201572507619858], [-0.0035246890038251877, 0.024919211864471436], [0.03712834417819977, 0.05367488041520119], [0.030151518061757088, 0.10507076233625412], [0.07781384140253067, 0.09687064588069916], [-0.10584938526153564, 0.030799251049757004], [0.07639184594154358, 0.07937537878751755], [-0.046433139592409134, 0.08807578682899475], [-0.07828011363744736, -0.11846804618835449], [-0.07315303385257721, -0.029722051694989204], [-0.015956398099660873, 0.05365181714296341], [-0.0680779293179512, -0.03467569500207901], [-0.032225437462329865, 0.07670571655035019], [0.10479660332202911, 0.009020920842885971], [-0.015124103985726833, -0.005680258851498365], [-0.04390508309006691, -0.07326361536979675], [0.11938917636871338, -0.06836141645908356], [0.058208100497722626, -0.013544986955821514], [0.06580447405576706, 0.1016007512807846], [0.056246042251586914, -0.137735053896904], [-0.12191342562437057, 0.06459659337997437], [-0.11551222205162048, -0.10074110329151154], [-0.11289724707603455, 0.09015053510665894], [0.031179655343294144, -0.12134171277284622], [0.01898691989481449, 0.07911542803049088]], [[0.1056813970208168, -0.10369288176298141], [-0.029124876484274864, -0.02036922797560692], [-0.0986972451210022, 0.037616316229104996], [0.060014501214027405, 0.0330088846385479], [0.11013361066579819, 0.09761881828308105], [0.03829968720674515, 0.09196314215660095], [0.10950332134962082, -0.02497323974967003], [-0.07677612453699112, 0.09788709878921509], [0.04256149008870125, 0.04079446569085121], [-0.11652959138154984, 0.015997961163520813], [0.07271893322467804, 0.017226986587047577], [-0.012392595410346985, -0.02188993990421295], [-0.02643916942179203, -0.07015300542116165], [-0.023278294131159782, 0.12901484966278076], [0.004541533067822456, -0.08360564708709717], [0.015427861362695694, -0.09420578926801682], [0.04376581311225891, 0.025259127840399742], [0.05553935095667839, -0.0746917799115181], [0.05888839811086655, -0.058881726115942], [0.06445193290710449, -0.009701034054160118], [-0.0761086717247963, -0.04454647749662399], [-0.09341444820165634, -0.04074179753661156], [0.050768472254276276, -0.041276976466178894], [-0.05515157803893089, -0.07165491580963135], [-0.08644025772809982, 0.07278868556022644], [-0.06296900659799576, -0.014284132048487663], [-0.11144046485424042, -0.08071796596050262], [-0.050483688712120056, 0.10945353657007217], [-0.026977265253663063, -0.05473452806472778], [0.10738716274499893, -0.034727249294519424], [-0.015135071240365505, -0.10984992235898972], [0.030737748369574547, -0.03378540650010109]], [[0.037414442747831345, -0.10780535638332367], [-0.08616390079259872, -0.09702678769826889], [-0.048526421189308167, -0.011969990096986294], [-0.0172002874314785, 0.07064471393823624], [0.04797236621379852, 0.1326456516981125], [-0.045167841017246246, -0.031853172928094864], [0.058939892798662186, 0.0768495425581932], [-0.10078222304582596, -0.005749290343374014], [0.028434203937649727, -0.017220389097929], [-0.012645388953387737, 0.021944154053926468], [0.08346569538116455, 0.13202577829360962], [-0.014300696551799774, 0.0083779813721776], [0.004461660515516996, 0.04019917920231819], [-0.03886403143405914, 0.1149340495467186], [-0.021339332684874535, -0.10290544480085373], [-0.07442289590835571, 0.09732836484909058], [-0.055207666009664536, 0.09850325435400009], [0.04444882273674011, 0.04809890314936638], [0.09368307888507843, 0.08142134547233582], [0.08067144453525543, 0.03519256040453911], [-0.05265739560127258, -0.03775138407945633], [-0.09402208030223846, 0.08713152259588242], [-0.05549206957221031, 0.020352711901068687], [-0.11325324326753616, -0.019876059144735336], [-0.040469419211149216, -0.016641704365611076], [0.020911965519189835, 0.10759485512971878], [0.008160233497619629, -0.09379583597183228], [0.05384614318609238, 0.07229387015104294], [-0.11343341320753098, -0.07095871865749359], [0.11207450926303864, 0.01616034097969532], [-0.11114948242902756, -0.02761482074856758], [0.10957708209753036, -0.08536545187234879]], [[-0.02737254649400711, -0.0955309271812439], [-0.10297457128763199, -0.021221201866865158], [-0.04996945708990097, 0.04410203918814659], [-0.03499710187315941, -0.130985826253891], [0.07886666059494019, -0.09228771179914474], [-0.10184737294912338, 0.11475350707769394], [0.01757694035768509, 0.048490118235349655], [-0.018611568957567215, 0.0812937468290329], [-0.06667549163103104, 0.09100749343633652], [-0.10833610594272614, -0.08558650314807892], [-0.054592493921518326, -0.12289588898420334], [-0.08412216603755951, -0.014879108406603336], [-0.032900527119636536, -0.059707336127758026], [0.09193730354309082, -0.03586238622665405], [0.0022684826981276274, -0.10978665202856064], [-0.058787714689970016, -0.0871628150343895], [-0.0363297313451767, -0.040073998272418976], [-0.11589617282152176, -0.051714103668928146], [0.09427099674940109, -0.1332017183303833], [-0.05016922950744629, -0.08802676200866699], [-0.13303633034229279, 0.020219886675477028], [0.09085971862077713, 0.07698719203472137], [-0.09396690875291824, -0.046526357531547546], [-0.02156178280711174, -0.07249345630407333], [-0.10437559336423874, -0.013335739262402058], [-0.043568409979343414, 0.09960854053497314], [0.02059321664273739, -0.10515065491199493], [0.06653080880641937, -0.057496923953294754], [0.09730516374111176, 0.05977806821465492], [0.014746817760169506, -0.03481099382042885], [0.021153133362531662, -0.09365742653608322], [0.018248384818434715, 0.08580563217401505]], [[-0.10322282463312149, -0.0533946193754673], [0.029232211410999298, 0.04597673937678337], [-0.0597308985888958, 0.08722711354494095], [-0.022599071264266968, 0.06643049418926239], [-0.1005856841802597, -0.09542911499738693], [0.004965206608176231, -0.10202977806329727], [-0.06455136835575104, -0.12121092528104782], [-0.08567554503679276, -0.005932742264121771], [0.10552947968244553, -0.07734613120555878], [0.07267329841852188, 0.11394771188497543], [0.08225846290588379, -0.03973385691642761], [-0.020234987139701843, 0.08529514819383621], [-0.009708653204143047, 0.015430504456162453], [-0.1233716607093811, 0.10971038788557053], [-0.0018213065341114998, 0.03581961989402771], [0.06844678521156311, 0.03646251931786537], [-0.03539587929844856, 0.09236705303192139], [0.003436804050579667, 0.10505633801221848], [0.0013728061458095908, -0.08800923824310303], [0.03525984287261963, 0.03454730659723282], [-0.0840495377779007, 0.12467014789581299], [-0.1109294444322586, -0.0005692067788913846], [-0.08238624036312103, -0.040938980877399445], [-0.049125660210847855, 0.10991514474153519], [0.11262611299753189, 0.0882391631603241], [0.029032157734036446, -0.0504533052444458], [0.1065656915307045, -0.06922200322151184], [0.02686861902475357, 0.03934173658490181], [-0.08725692331790924, 0.047796111553907394], [0.07312749326229095, -0.13094644248485565], [-0.10769796371459961, -0.12946130335330963], [0.10890811681747437, 0.0583985261619091]], [[0.058412566781044006, -0.050926536321640015], [0.02060370147228241, 0.01477087289094925], [-0.05330822244286537, -0.13307882845401764], [-0.12609322369098663, -0.0896768793463707], [0.006484229117631912, -0.0352061428129673], [0.09760846197605133, 0.07847361266613007], [-0.12125871330499649, -0.0647653341293335], [-0.028176281601190567, 0.11341509968042374], [0.09070506691932678, -0.007297400385141373], [-0.04435885325074196, -0.1071925014257431], [0.11440210789442062, -0.07168811559677124], [-0.06729324162006378, -0.12163526564836502], [-0.05326511710882187, 0.06491659581661224], [0.07448505610227585, 0.0108037069439888], [-0.0674845278263092, -0.06479351222515106], [0.10219263285398483, 0.11601954698562622], [-0.11431664228439331, 0.11307620257139206], [0.017330138012766838, -0.022243302315473557], [-0.022463304921984673, 0.011303553357720375], [0.07025690376758575, -0.024013493210077286], [0.09876050800085068, -0.13779278099536896], [-0.01806613802909851, -0.05718052759766579], [0.03580280393362045, 0.05950634554028511], [-0.07326454669237137, 0.07194863259792328], [-0.049466975033283234, -0.10537679493427277], [-0.08740395307540894, 0.020964058116078377], [-0.12659858167171478, -0.08679207414388657], [-0.11640395224094391, 0.03469797223806381], [0.03806962072849274, 0.04736623540520668], [-0.029517514631152153, 0.05863580107688904], [0.0869673565030098, 0.09161118417978287], [-0.009379791095852852, -0.0263600405305624]], [[0.02166374959051609, -0.11597593128681183], [-0.061491429805755615, -0.1227511391043663], [-0.0824190303683281, 0.08607632666826248], [-0.016050124540925026, 0.01985097862780094], [0.140008345246315, 0.12905284762382507], [0.074956014752388, -0.07688538730144501], [-0.1165403202176094, -0.09776169806718826], [0.021211961284279823, 0.061638522893190384], [0.008008520118892193, -0.056240737438201904], [0.06641937047243118, -0.06707996129989624], [0.027413977310061455, 0.13211803138256073], [0.04410567134618759, -0.09341827034950256], [-0.018986107781529427, -0.08824470639228821], [-0.04043063148856163, 0.017552653327584267], [-0.01178725529462099, 0.06992021203041077], [0.008034583181142807, -0.12350407242774963], [-0.04332893341779709, 0.08166144043207169], [0.13875311613082886, -0.043524060398340225], [0.07625050842761993, 0.1115659773349762], [0.0067666987888514996, 0.019159890711307526], [-0.04140133783221245, -0.09889551252126694], [-0.08134609460830688, 0.03029593825340271], [0.08214589953422546, -0.09031396359205246], [-0.09729181975126266, 0.08326324820518494], [0.08179783821105957, -0.07528535276651382], [-0.0944463461637497, 0.09090550243854523], [-0.06066809222102165, -0.11185620725154877], [-0.12233387678861618, 0.04726696386933327], [0.09145452082157135, 0.0888821929693222], [0.10632721334695816, 0.02550549805164337], [0.028763877227902412, -0.04414093866944313], [0.06303025782108307, -0.08092401921749115]], [[-0.05442783609032631, 0.03859447315335274], [-0.01474088802933693, -0.06272085011005402], [0.09181168675422668, 0.08393822610378265], [0.1171669140458107, 0.021335523575544357], [-0.007306217215955257, 0.006532717030495405], [-0.057541850954294205, 0.05551404133439064], [-0.016353685408830643, -0.07654700428247452], [0.02200378105044365, 0.031055161729454994], [-0.08400002121925354, 0.03643978387117386], [-0.09489892423152924, -0.11479257047176361], [0.021460363641381264, 0.12043098360300064], [0.06435174494981766, 0.06127408891916275], [-0.10015270859003067, -0.06055668741464615], [0.054797157645225525, 0.0673426166176796], [-0.11299999803304672, 0.021267374977469444], [-0.031747229397296906, -0.002599197207018733], [-0.07325754314661026, 0.07072209566831589], [-0.05508740618824959, 0.05030256509780884], [0.0005872745532542467, 0.017984876409173012], [0.1020064428448677, 0.07536128908395767], [-0.11703139543533325, -0.11552281677722931], [-0.020269233733415604, 0.10553883761167526], [0.0923769623041153, 0.03252802789211273], [0.01090293936431408, -0.030486661940813065], [-0.08827341347932816, 0.10864061117172241], [-0.004596444312483072, 0.10363622009754181], [-0.008427262306213379, -0.06868526339530945], [0.06044602021574974, 0.028796155005693436], [-0.08147577196359634, -0.06505637615919113], [0.056584808975458145, -0.05542830005288124], [0.08397451788187027, -0.052156999707221985], [-0.052945248782634735, 0.026253869757056236]], [[-0.07223911583423615, 0.04205043241381645], [0.01898396946489811, 0.03532727435231209], [0.07356364279985428, 0.05675823241472244], [0.08280544728040695, 0.10362210124731064], [-0.001324986107647419, 0.08527378737926483], [-0.029783936217427254, 0.09734136611223221], [-0.04409191012382507, -0.08405213057994843], [0.07134518772363663, -0.11144100874662399], [0.11376173049211502, 0.04105278104543686], [-0.13002385199069977, -0.026088926941156387], [0.04975373297929764, -0.11095856875181198], [0.06799344718456268, 0.0942673310637474], [-0.05170135200023651, -0.035522378981113434], [-0.053728677332401276, 0.10842447727918625], [-0.01703704334795475, -0.029569434002041817], [-0.0006662103696726263, -0.015055304393172264], [-0.07475981116294861, -0.11589380353689194], [0.06838730722665787, 0.10826857388019562], [-0.01996217854321003, 0.11174909770488739], [0.07624875754117966, -0.0574706494808197], [-0.015953166410326958, -0.09466294944286346], [0.024999408051371574, 0.028391046449542046], [-0.0913502499461174, -0.028667626902461052], [-0.09060030430555344, 0.06837823241949081], [-0.022872338071465492, 0.11047118902206421], [0.12200073897838593, -0.10627629607915878], [0.05868954584002495, -0.059337303042411804], [-0.04105913266539574, 0.10445898026227951], [0.05294099822640419, 0.10387804359197617], [0.08221913129091263, -0.07213813066482544], [0.07123016566038132, 0.002686114748939872], [0.06858266890048981, 0.04758647084236145]], [[-0.10008954256772995, 0.11249601095914841], [-0.08488260209560394, -0.04832112789154053], [-0.09574565291404724, -0.04759139567613602], [-0.0831463560461998, -0.06063633784651756], [0.044796690344810486, -0.10065068304538727], [0.07935193181037903, 0.09606510400772095], [0.012737920507788658, -0.044237781316041946], [-0.06805553287267685, 0.024901103228330612], [0.07795310765504837, -0.07210072129964828], [0.03109584003686905, 0.022989872843027115], [0.10451117157936096, 0.013527919538319111], [0.06908611953258514, 0.0033240513876080513], [0.004987114109098911, 0.06391601264476776], [0.041394904255867004, 0.032554879784584045], [-0.08675822615623474, 0.0777115598320961], [-0.08170749992132187, -0.04178997501730919], [-0.045458972454071045, 0.11449567973613739], [-0.1017000824213028, 0.11129973828792572], [-0.018241481855511665, 0.014928290620446205], [-0.11749975383281708, -0.03098163940012455], [-0.01823672093451023, 0.12160038203001022], [-0.01706533692777157, -0.04442891478538513], [-0.0027755287010222673, 0.10214699059724808], [-0.05560766160488129, 0.04660237208008766], [-0.03125770390033722, 0.009400054812431335], [-0.08175664395093918, -0.08563143014907837], [0.01818954572081566, -0.02769804187119007], [0.05982391536235809, -0.10456240177154541], [0.0759640634059906, 0.007012451533228159], [0.09101695567369461, -0.026948321610689163], [-0.06199556589126587, -0.13417504727840424], [0.04873547703027725, -0.11325354129076004]], [[0.08557788282632828, -0.10551203787326813], [0.02581140026450157, -0.13340459764003754], [-0.0464932918548584, -0.07436492294073105], [0.12032648921012878, -0.06590777635574341], [-0.09872736781835556, 0.018420739099383354], [0.055938053876161575, -0.03555552288889885], [0.10738743096590042, -0.034410230815410614], [0.02277887426316738, 0.0263824500143528], [0.12900540232658386, 0.042544130235910416], [0.052683666348457336, 0.04776698723435402], [-0.0229643527418375, -0.0718185156583786], [0.07371046394109726, 0.09696277976036072], [-0.016484815627336502, -0.10644467920064926], [0.008413189090788364, -0.03283296152949333], [0.010817384347319603, -0.05684972181916237], [-0.06345933675765991, -0.10932836681604385], [0.11899537593126297, -0.03494057059288025], [0.08180373907089233, 0.026241280138492584], [0.10434208065271378, 0.05199253559112549], [0.042233437299728394, 0.045047033578157425], [-0.05222126096487045, 0.08523550629615784], [0.07576463371515274, 0.02137996442615986], [-0.03124007023870945, -0.09464798122644424], [-0.06776822358369827, 0.03147675096988678], [-0.0919666439294815, 0.007958411239087582], [-0.12082016468048096, -0.11617384850978851], [-0.01843753084540367, -0.08819679915904999], [-0.0036171316169202328, -0.024943558499217033], [0.005416776053607464, -0.11560679227113724], [-0.08703852444887161, -0.03955439105629921], [-0.0068575795739889145, -0.03112383931875229], [0.014878806658089161, -0.01078000944107771]], [[0.01162258442491293, 0.03643651306629181], [0.009109972976148129, 0.08625836670398712], [0.03970247879624367, 0.09901338815689087], [0.08145968616008759, 0.0015980436000972986], [0.020662691444158554, -0.1127452477812767], [0.05784120410680771, -0.007713610772043467], [-0.019888460636138916, -0.08897250890731812], [0.13218699395656586, 0.10120664536952972], [-0.07094346731901169, -0.011335503309965134], [-0.048168495297431946, 0.1252269148826599], [0.06706609576940536, -0.05668191611766815], [-0.01783725433051586, 0.03360232710838318], [-0.009507128968834877, 0.1037033200263977], [-0.10456202179193497, -0.10298004001379013], [-0.09594596922397614, 0.12382373213768005], [-0.00903165340423584, -0.09187828004360199], [-0.1064213365316391, 0.017685700207948685], [0.08499915897846222, 0.013121271505951881], [0.1158095970749855, -0.047893863171339035], [0.10682547837495804, 0.03200017660856247], [0.02103510871529579, -0.04077545925974846], [-0.04807483032345772, -0.08975277841091156], [-0.03568572551012039, -0.014941338449716568], [0.0727783665060997, -0.0100297462195158], [0.019359629601240158, 0.08738207072019577], [-0.042002253234386444, -0.08908248692750931], [-0.027262622490525246, -0.00034183726529590786], [0.09701523184776306, -0.13302119076251984], [-0.051034633070230484, -0.018163081258535385], [-0.08625669777393341, -0.10675936192274094], [0.04626309499144554, 0.13123002648353577], [-0.01312054879963398, 0.10054388642311096]], [[0.07048286497592926, -0.017658112570643425], [0.04080052301287651, -0.09778149425983429], [-0.05184267833828926, -0.018357494845986366], [0.0582878440618515, -0.08569298684597015], [0.04617850482463837, 0.05646686255931854], [0.016797209158539772, -0.10414397716522217], [-0.0511043518781662, -0.08312155306339264], [-0.09522594511508942, 0.05691380426287651], [-0.12785305082798004, 0.02323148585855961], [0.040606677532196045, -0.010405348613858223], [-0.05887092277407646, 0.019885871559381485], [0.013096803799271584, -0.041468992829322815], [-0.015584420412778854, 0.07180548459291458], [-0.06134752556681633, 0.00042703517829068005], [-0.08089131861925125, -0.04852905869483948], [0.023290324956178665, 0.03618000075221062], [-0.11498303711414337, -0.011389562860131264], [0.02535913698375225, -0.05111587047576904], [-0.0714246928691864, -0.0605638287961483], [0.018717855215072632, 0.019504591822624207], [-0.0019188893493264914, 0.031677983701229095], [0.09191668033599854, -0.045469749718904495], [-0.05373312532901764, -0.009542513638734818], [0.12160760909318924, -0.06459067761898041], [0.07294943183660507, 0.012453310191631317], [-0.10420525074005127, -0.12221872806549072], [-0.08255735784769058, -0.12216993421316147], [-0.036534469574689865, -0.023573072627186775], [0.0052176909521222115, -0.01274027954787016], [0.09243622422218323, -0.07085691392421722], [0.03618684411048889, 0.016700129956007004], [-0.1071288138628006, -0.022218376398086548]], [[-0.0320199690759182, 0.06838680058717728], [0.10206972062587738, -0.0036621298640966415], [-0.06504296511411667, -0.11102894693613052], [-0.10197824239730835, 0.07207709550857544], [0.06746049970388412, -0.055455926805734634], [-0.0955125242471695, 0.03549976646900177], [0.003000880591571331, 0.07633359730243683], [0.027210837230086327, 0.08065378665924072], [-0.07718302309513092, -0.0679221823811531], [0.0027858505491167307, -0.011344462633132935], [0.04699933901429176, 0.008043738082051277], [-0.03244930878281593, -0.12651754915714264], [0.0864640325307846, -0.06531072407960892], [0.08515618741512299, 0.07543355971574783], [0.04763452708721161, -0.04793901741504669], [-0.016074705868959427, 0.03699705749750137], [0.08363134413957596, -0.08545238524675369], [-0.0062758708372712135, -0.05557900667190552], [-0.014265456236898899, -0.10443294793367386], [-0.024987520650029182, -0.002209118101745844], [0.01639580726623535, 0.12197624146938324], [0.11291924864053726, -0.0009667867561802268], [0.002857765182852745, -0.033726196736097336], [0.11066943407058716, -0.003854198381304741], [-0.07610132545232773, 0.07748941332101822], [-0.05785567685961723, -0.07896041125059128], [0.028378963470458984, -0.03373323753476143], [0.05219816789031029, 0.05478706210851669], [-0.09958884119987488, -0.04281119629740715], [-0.06594987213611603, -0.11149073392152786], [0.09599020332098007, -0.0007121344096958637], [-0.04622206091880798, 0.11255184561014175]], [[0.1153368204832077, 0.07242985814809799], [0.09464479982852936, 0.03834323212504387], [0.04291514679789543, 0.10624753683805466], [0.047158148139715195, 0.04771289601922035], [-0.028743743896484375, 0.10732685774564743], [-0.0653093233704567, 0.00012129578681197017], [0.08776939660310745, -0.0011830597650259733], [0.024878039956092834, -0.003831807291135192], [-0.08162793517112732, -0.04696700721979141], [0.10682573914527893, 0.00828943308442831], [-0.08740393072366714, -0.10946787148714066], [0.108002670109272, 0.03185740485787392], [0.06880147755146027, 0.06269766390323639], [-0.02649436704814434, 0.07052955031394958], [0.13241046667099, -0.049784451723098755], [0.0168155450373888, 0.10623450577259064], [0.08703774213790894, -0.11558226495981216], [0.07520358264446259, -0.09947532415390015], [-0.054354194551706314, 0.051171209663152695], [-0.0013751519145444036, 0.06993389129638672], [0.09311956912279129, -0.047791529446840286], [0.02209039032459259, -0.02294725552201271], [-0.04301954060792923, 0.09379062056541443], [0.1174938753247261, -0.10595037788152695], [0.09694667905569077, 0.12632900476455688], [-0.12896129488945007, 0.05650407448410988], [0.07315535843372345, 0.018964003771543503], [-0.11565244942903519, -0.013270040974020958], [-0.08280051499605179, -0.04826534166932106], [-0.022314036265015602, 0.07875838130712509], [0.0647427961230278, -0.0154117988422513], [0.11507491022348404, -0.11668983846902847]], [[-0.11993441730737686, -0.10776455700397491], [0.11010780185461044, 0.07178183645009995], [0.03761684522032738, 0.09484049677848816], [0.05809350311756134, -0.10132557898759842], [-0.031223170459270477, 0.025469671934843063], [0.07700318098068237, 0.006760108284652233], [-0.0950753465294838, -0.042141105979681015], [0.061388444155454636, 0.02087823674082756], [-0.012265997938811779, -0.02017531916499138], [0.015031369403004646, 0.015078105963766575], [-0.13638858497142792, -0.027421224862337112], [-0.10380369424819946, 0.03736213967204094], [-0.03631890192627907, -0.08213934302330017], [0.08847827464342117, -0.1094437763094902], [-0.09003759175539017, -0.018881265074014664], [-0.028391515836119652, 0.04885963723063469], [-0.0731234923005104, -0.0777604877948761], [0.039213959127664566, 0.065580353140831], [0.014744848944246769, 0.007758576422929764], [-0.10030271857976913, -0.012513192370533943], [-0.13062717020511627, 0.035191770642995834], [-0.021625731140375137, -0.033897776156663895], [-0.06035934388637543, -0.08960244804620743], [-0.0665624737739563, -0.08679166436195374], [-0.11658889055252075, -0.034817878156900406], [0.09383157640695572, -0.03532347083091736], [0.01820012927055359, -0.08264104276895523], [-0.05260644853115082, 0.05596456304192543], [-0.033288974314928055, 0.10350892692804337], [0.008725910447537899, 0.06943823397159576], [-0.02663920819759369, 0.0015637034084647894], [-0.09861656278371811, 0.00955849327147007]], [[0.04777391999959946, -0.020367585122585297], [0.09488947689533234, -0.12860174477100372], [-0.09433212876319885, -0.09470231086015701], [-0.007504982408136129, 0.08557072281837463], [-0.06910566985607147, 0.04459696635603905], [-0.09410876780748367, 0.014949445612728596], [-0.10672146081924438, -0.1269489973783493], [0.10407331585884094, -0.1140524297952652], [0.12038484215736389, 0.06098809093236923], [-0.03016183339059353, 0.0279605221003294], [0.0005243581254035234, -0.0648459792137146], [0.038504328578710556, 0.04625140130519867], [-0.07524275034666061, 0.08144577592611313], [-0.05460449308156967, 0.034463003277778625], [0.005732662510126829, -0.032946862280368805], [-0.11440759897232056, -0.08994511514902115], [-0.05045870691537857, 0.08875689655542374], [0.09539228677749634, -0.06795132160186768], [-0.0701230838894844, 0.03780459985136986], [-0.024109072983264923, 0.08383961021900177], [0.033906809985637665, 0.09225323051214218], [0.0069535356014966965, 0.00019886158406734467], [-0.09518174827098846, 0.02904120460152626], [-0.08643690496683121, 0.09934994578361511], [-0.08014165610074997, -0.01772969961166382], [-0.021218696609139442, -0.13137252628803253], [-0.03029772639274597, 0.012067057192325592], [-0.045258209109306335, -0.06688664108514786], [-0.05238627642393112, 0.10219306498765945], [0.0616137720644474, -0.08851511776447296], [-0.07479435950517654, 0.06383578479290009], [0.08015020936727524, 0.058789581060409546]], [[-0.05057689920067787, -0.06726627051830292], [0.06103730946779251, 0.027160296216607094], [-0.047324925661087036, -0.05857575684785843], [0.009456902742385864, 0.11015185713768005], [0.1366865485906601, -0.12555181980133057], [0.026515280827879906, 0.061655495315790176], [-0.12228348106145859, 0.05071190372109413], [-0.007039025891572237, 0.04765162616968155], [0.09818653762340546, -0.05195258930325508], [0.06273725628852844, 0.0007568887667730451], [0.049214862287044525, -0.12099556624889374], [-0.015858951956033707, 0.004004474263638258], [-0.11901611089706421, 0.008406219072639942], [-0.030907075852155685, 0.07327498495578766], [0.00631501991301775, -0.05088495463132858], [-0.07860080152750015, 0.11942802369594574], [0.051535315811634064, -0.07158149033784866], [-0.07811454683542252, -0.11410239338874817], [0.10903772711753845, -0.0969211757183075], [0.11428887397050858, -0.08666908740997314], [0.11490406095981598, -0.11968967318534851], [-0.12440546602010727, -0.1260751634836197], [-0.025904186069965363, -0.11249339580535889], [0.07565459609031677, -0.061439745128154755], [-0.06456485390663147, 0.037161316722631454], [-0.046152934432029724, -0.021666813641786575], [-0.11436555534601212, -0.09369882941246033], [-0.09275822341442108, 0.08514843881130219], [0.07486166805028915, -0.11062441021203995], [-0.07199826836585999, 0.0106282327324152], [0.056222595274448395, -0.10733180493116379], [0.03816823288798332, 0.06708213686943054]], [[0.006549587473273277, -0.10259607434272766], [-0.12395875155925751, 0.05019692704081535], [-0.03216671571135521, -0.04958344250917435], [-0.07866265624761581, -0.04693994298577309], [-0.09447158873081207, 0.10910866409540176], [0.05179357901215553, -0.10231458395719528], [-0.0815519168972969, 0.07117018848657608], [-0.01980125531554222, 0.0006792899803258479], [0.017131954431533813, 0.09840606898069382], [0.020825378596782684, -0.0647662878036499], [-0.00848331581801176, -0.0329994298517704], [-0.11496927589178085, 0.04626089707016945], [-0.06654372066259384, 0.010803320445120335], [0.1189466193318367, 0.10985676199197769], [-0.04967440292239189, -0.10635695606470108], [-0.09264378994703293, 0.06584225594997406], [0.0738910511136055, 0.0506887212395668], [-0.08182445168495178, 0.01772376149892807], [-0.06331717222929001, 0.026502592489123344], [0.015550093725323677, 0.05127738416194916], [-0.09944170713424683, 0.02041761763393879], [0.12404688447713852, 0.10438272356987], [-0.08928001672029495, -0.1117621436715126], [0.000868736591655761, 0.05243193730711937], [-0.07941535860300064, 0.07349391281604767], [-0.0009249331196770072, -0.024365946650505066], [-0.10513973236083984, -0.008199632167816162], [-0.022069381549954414, -0.0973501205444336], [0.01919274590909481, -0.11628974229097366], [-0.011158502660691738, -0.02710973471403122], [0.032553721219301224, -0.07892228662967682], [-0.03229924291372299, -0.030339965596795082]], [[0.05992266908288002, 0.0074696168303489685], [-0.07401297986507416, 0.08286397904157639], [-0.1399848461151123, -0.09298304468393326], [0.03560619801282883, 0.0024492910597473383], [5.748019611928612e-05, 0.08311143517494202], [-0.10645939409732819, -0.055102769285440445], [0.060855649411678314, -0.032141149044036865], [0.04612312093377113, -0.07226470112800598], [-0.06619354337453842, -0.002083789324387908], [-0.022113805636763573, -0.008028825744986534], [-0.05522017180919647, -0.04518720880150795], [0.07272855192422867, -0.032316308468580246], [-0.1272968202829361, 0.00474222656339407], [-0.06398651748895645, 0.016095783561468124], [-0.04825669527053833, -0.02379465661942959], [-0.08841347694396973, 0.02310291677713394], [0.07235781103372574, -0.024324392899870872], [-0.08124839514493942, 0.04871055856347084], [-0.09503686428070068, 0.08785432577133179], [-0.05147397518157959, 0.08495708554983139], [0.0822814479470253, 0.030681611970067024], [-0.03215441852807999, -0.0619630329310894], [-0.13915640115737915, 0.09857774525880814], [-0.010077928192913532, -0.06702618300914764], [0.04953036084771156, -0.10190800577402115], [0.10932835191488266, -0.13153667747974396], [0.05533582344651222, 0.10203932225704193], [0.07362478971481323, -0.015399779193103313], [-0.010568143799901009, -0.04118500277400017], [0.011638368479907513, 0.007120748981833458], [-0.025912784039974213, 0.05206092447042465], [0.07094842195510864, -0.006931610405445099]], [[0.06003662571310997, 0.11409686505794525], [-0.09712424874305725, 0.08562939614057541], [0.07104719430208206, -0.08173806220293045], [0.005714766681194305, 0.00297286338172853], [0.04169129952788353, 0.014213587157428265], [-0.11632314324378967, -0.037380218505859375], [-0.04068778455257416, 0.04587247967720032], [-0.06453246623277664, -0.09171953797340393], [0.13480879366397858, 0.05405377596616745], [0.06727370619773865, 0.019934773445129395], [-0.08145365118980408, 0.12332680821418762], [-0.10592044144868851, -0.032353561371564865], [-0.025484619662165642, 0.029003890231251717], [-0.09397503733634949, 0.08030803501605988], [-0.01020058710128069, -0.09595930576324463], [0.007036413066089153, 0.038889989256858826], [0.09058202803134918, 0.0905686616897583], [-0.09493227303028107, 0.12911970913410187], [-0.0004864697402808815, 0.13636532425880432], [0.04803028702735901, 0.07614976167678833], [-0.1195947676897049, 0.039815258234739304], [0.10790305584669113, -0.12311496585607529], [0.05986296758055687, -0.0688048005104065], [-0.12725088000297546, 0.0827270969748497], [-0.045986298471689224, -0.10585915297269821], [-0.09421681612730026, -0.1228855699300766], [-0.08825791627168655, -0.03904082253575325], [0.0375455804169178, 0.09348040819168091], [-0.060278359800577164, 0.0434640571475029], [0.07342110574245453, 0.005807855166494846], [-0.0841159000992775, -0.09111575037240982], [0.0716174766421318, 0.058654893189668655]], [[0.0928770899772644, -0.08074534684419632], [-0.11508897691965103, -0.10531602054834366], [-0.03353153541684151, 0.03473550081253052], [0.09762702137231827, 0.10652817785739899], [-0.030293108895421028, 0.08261387795209885], [0.03519554063677788, -0.05646901950240135], [0.0941922515630722, 0.06271129101514816], [0.012740025296807289, 0.07933545857667923], [-0.10557930916547775, -0.13378103077411652], [-0.10518445074558258, -0.008660354651510715], [-0.11856161803007126, -0.12913276255130768], [-0.13472098112106323, -0.03348391503095627], [0.08855313807725906, -0.06537458300590515], [0.04761234670877457, 0.08821400254964828], [0.0868639200925827, 0.0746326670050621], [0.029739750549197197, -0.1163029745221138], [0.07890316843986511, -0.11423619091510773], [-0.14449265599250793, 0.0763552114367485], [-0.06047569215297699, -0.08526831865310669], [-0.06034894660115242, -0.014955521561205387], [-0.10374823212623596, 0.019443482160568237], [-0.07898509502410889, -0.06957083940505981], [0.0036300464998930693, 0.027553685009479523], [0.09208179265260696, -0.06435848027467728], [-0.026831582188606262, -0.08371267467737198], [-0.11379281431436539, -0.1242312639951706], [0.008943418972194195, -0.06103086471557617], [-0.02858930081129074, 0.06976515054702759], [0.10542881488800049, -0.010639856569468975], [-0.036596108227968216, 0.06821096688508987], [0.07026531547307968, -0.009742139838635921], [-0.05210386961698532, 0.044508807361125946]], [[-0.11027814447879791, 0.03854601830244064], [-0.11149124056100845, -0.028471607714891434], [0.0700593963265419, 0.03991900756955147], [-0.047186948359012604, 0.09935148060321808], [0.04213035851716995, 0.10583309084177017], [0.01589515246450901, 0.02877650037407875], [-0.11125185340642929, -0.06650391221046448], [0.08822854608297348, -0.13319511711597443], [-0.019081853330135345, 0.02135619893670082], [-0.0994672030210495, 0.04974078759551048], [0.037818506360054016, 0.013598419725894928], [-0.10490232706069946, 0.04773502051830292], [-0.061827681958675385, -0.10157184302806854], [-0.11491241306066513, 0.08231507986783981], [0.046138450503349304, 0.042148005217313766], [0.07240460067987442, -0.00018995883874595165], [0.04280560463666916, 0.029335254803299904], [0.015492509119212627, 0.05130640044808388], [-0.020398730412125587, -0.013299239799380302], [-0.03347131609916687, -0.10066395998001099], [-0.04575260356068611, 0.07138034701347351], [-0.0453307069838047, 0.06677906215190887], [0.00436266977339983, -0.11130507290363312], [-0.027027210220694542, 0.0983554944396019], [-0.06992282718420029, -0.11290974169969559], [0.018670426681637764, 0.027458081021904945], [0.0036922364961355925, -0.1414298415184021], [-0.07607082277536392, 0.02015037089586258], [0.05455903708934784, -0.11108430474996567], [0.03261743485927582, -0.039795923978090286], [0.017743470147252083, -0.06332649290561676], [-0.08860595524311066, 0.011325426399707794]], [[-0.1111469492316246, -0.08979541063308716], [0.07665017992258072, -0.08325158804655075], [0.058614581823349, 0.028092116117477417], [0.03030387870967388, -0.11603079736232758], [0.009071005508303642, -0.07741691172122955], [-0.07571367174386978, -0.12392304837703705], [0.09089919179677963, -0.08516619354486465], [-0.005565835162997246, -0.02009901963174343], [0.06958366930484772, 0.08877335488796234], [-0.11606258153915405, -0.010080697014927864], [0.022910499945282936, 0.12389754503965378], [-0.11032364517450333, 0.08240225911140442], [0.02020743303000927, -0.050508659332990646], [-0.0009292028844356537, 0.09251578897237778], [-0.0888081043958664, 0.1155785396695137], [-0.06438076496124268, -0.016626445576548576], [-0.05316608026623726, -0.018513716757297516], [-0.06627833098173141, -0.0944986641407013], [0.0732603669166565, 0.01599936932325363], [-0.07294245809316635, -0.03629135712981224], [-0.09557615965604782, 0.12025349587202072], [0.09005923569202423, -0.11406546831130981], [-0.10430146753787994, 0.09537350386381149], [-0.046262502670288086, -0.09716582298278809], [0.04769750311970711, -0.12294019758701324], [0.11613531410694122, -0.09224432706832886], [-0.06165451183915138, -0.10411027818918228], [0.06784208863973618, 0.04138072580099106], [0.08385159075260162, -0.05269226059317589], [-0.022525103762745857, -0.02604665607213974], [-0.09788664430379868, -0.05743226036429405], [-0.03901667147874832, -0.07487039268016815]], [[-0.03379069268703461, -0.03253719210624695], [0.07018750160932541, -0.12339252978563309], [0.09510795772075653, 0.04586752876639366], [0.0929378792643547, -0.10295885801315308], [-0.01914508454501629, 0.03846799582242966], [0.044058896601200104, -0.09236466884613037], [0.06575129926204681, -0.11169824749231339], [0.034414008259773254, -0.025960108265280724], [0.05599561706185341, -0.023631339892745018], [-0.1182648316025734, 0.014411277137696743], [0.030670229345560074, 0.02593200094997883], [0.030968641862273216, 0.06482851505279541], [-0.06694626063108444, -0.023104842752218246], [-0.10227102786302567, 0.02056703343987465], [-0.08283987641334534, 0.017862878739833832], [0.12236219644546509, -0.14034080505371094], [0.017251353710889816, 0.11398117989301682], [-0.005886038299649954, 0.0038588405586779118], [0.07260258495807648, -0.10635387897491455], [-0.08890173584222794, -0.0017224535113200545], [-0.12381643801927567, -0.08938443660736084], [-0.1352849304676056, 0.09884388744831085], [0.08709665387868881, -0.07878555357456207], [-0.1023174598813057, -0.09572696685791016], [-0.021839506924152374, 0.03754249960184097], [0.1071959137916565, 0.046470075845718384], [-0.10049024969339371, -0.03980831801891327], [0.010425793938338757, -0.11781330406665802], [0.09173361957073212, -0.12313182651996613], [-0.1032819002866745, -0.00808097142726183], [0.003803642001003027, -0.1075706034898758], [0.0565076619386673, 0.025914931669831276]], [[0.09243252873420715, -0.1313231885433197], [0.020010685548186302, -0.0119924396276474], [0.00987526960670948, -0.06044990196824074], [0.11028501391410828, 0.12407626211643219], [0.1041654571890831, -0.06217602267861366], [-0.006154518574476242, -0.042402226477861404], [0.032504480332136154, -0.10341092199087143], [-0.11175533384084702, -0.031488023698329926], [-0.0038488171994686127, 0.10373467952013016], [0.04434521496295929, -0.08792781084775925], [0.06895217299461365, -0.08035010099411011], [0.016364218667149544, 0.014520508237183094], [-0.08105012774467468, -0.10162137448787689], [-0.10266750305891037, 0.020757192745804787], [0.0077092573046684265, 0.06149755045771599], [-0.13354584574699402, -0.016150902956724167], [-0.002526206197217107, -0.10161256790161133], [-0.07052485644817352, -0.03223201259970665], [0.060529980808496475, -0.06662147492170334], [0.09878445416688919, -0.003486960893496871], [-0.03435700759291649, -0.09265356510877609], [0.10444468259811401, 0.012521564960479736], [-0.0683099776506424, -0.008058561943471432], [0.10505253821611404, -0.0651848241686821], [-0.01974768005311489, -0.07303308695554733], [-0.023827550932765007, 0.05512480437755585], [0.09037955105304718, 0.06327767670154572], [-0.14057321846485138, 0.06311161071062088], [0.02851208671927452, 0.017484018579125404], [-0.11361053586006165, 0.11337240040302277], [0.034451939165592194, 0.08072786033153534], [-0.026394527405500412, 0.10343325138092041]], [[0.06098370626568794, 0.1020662933588028], [0.01152084581553936, -0.006161590106785297], [0.002774570370092988, -0.039015959948301315], [0.03020443394780159, -0.10704701393842697], [0.013444310985505581, 0.08775828778743744], [0.08139966428279877, 0.03757104650139809], [0.10500260442495346, -2.9610378987854347e-05], [0.11362284421920776, -0.048666175454854965], [-0.05808413773775101, 0.032523829489946365], [-0.09323533624410629, -0.04406256228685379], [0.06894217431545258, 0.002389215864241123], [-0.07270824164152145, -0.049133799970149994], [-0.030921749770641327, 0.09214019030332565], [-0.12057845294475555, -0.08612892776727676], [-0.0017910898895934224, -0.02276746742427349], [0.09291014820337296, -0.05713040381669998], [0.06852047145366669, -0.03490879759192467], [0.03499480336904526, 0.057885002344846725], [-0.08088234812021255, 0.03163743391633034], [-0.0076305437833070755, 0.05063303932547569], [-0.004847169388085604, -0.009170775301754475], [0.03942291438579559, -0.0665397197008133], [-0.08847080171108246, 0.026978660374879837], [-0.1270294189453125, -0.060400430113077164], [0.04288240149617195, 0.06914795935153961], [0.12127704173326492, -0.055039182305336], [0.08693232387304306, 0.014821027405560017], [-0.08143895119428635, -0.0779198408126831], [0.03579855337738991, -0.012692897580564022], [0.05866813287138939, -0.03509102016687393], [-0.1133364737033844, 0.032120440155267715], [0.10066874325275421, 0.06460326164960861]], [[0.12672944366931915, 0.03520333766937256], [-0.07047111541032791, 0.005108499433845282], [0.07765281200408936, 0.00953127071261406], [0.04242619499564171, 0.0870746299624443], [0.014880802482366562, -0.05062757432460785], [0.05017399787902832, -0.026025574654340744], [-0.13330954313278198, -0.11602796614170074], [0.03217887505888939, 0.08509153872728348], [-0.07071737945079803, -0.051675353199243546], [0.07910072803497314, 0.08879116922616959], [-0.06566495448350906, -0.02922162599861622], [0.08224192261695862, -0.06176818907260895], [0.0035018909256905317, 0.09167598932981491], [0.0009159131441265345, -0.021896623075008392], [0.07909160107374191, -0.08520690351724625], [-0.06997572630643845, 0.017978638410568237], [0.062447912991046906, -0.11184786260128021], [-0.059400420635938644, -0.0661139115691185], [-0.03396138921380043, -0.008627231232821941], [-0.0488525852560997, 0.05631101131439209], [0.1298752874135971, 0.015721717849373817], [0.06411976367235184, -0.09005630016326904], [0.10122374445199966, 0.08750847727060318], [0.00839160941541195, 0.04988143593072891], [-0.023697497323155403, -0.07675161212682724], [0.008827732875943184, 0.011519290506839752], [-0.11155791580677032, -0.06264470517635345], [-0.08662267029285431, -0.018546087667346], [-0.07965468615293503, -0.021388588473200798], [-0.08425769209861755, -0.008437338285148144], [0.07915285974740982, 0.032899219542741776], [0.11344201117753983, 0.06481470912694931]], [[0.07019363343715668, 0.1022067591547966], [-0.09461012482643127, 0.11405600607395172], [-0.11537434905767441, 0.026582933962345123], [0.09321627020835876, -0.00267953984439373], [-0.05335015431046486, 0.021760188043117523], [0.015329122543334961, 0.04663494601845741], [-0.02827484905719757, -0.10271163284778595], [-0.007465215399861336, -0.08563829958438873], [0.020487109199166298, 0.08827632665634155], [-0.009239190258085728, -0.07120250165462494], [-0.017464278265833855, 0.02447354607284069], [0.03736559674143791, -0.10731897503137589], [0.002441714284941554, 0.08344642072916031], [0.027815118432044983, 0.07548180222511292], [-0.006425205618143082, -0.00896555744111538], [-0.005840855650603771, 0.03035222925245762], [0.026674455031752586, 0.0749240592122078], [0.08231112360954285, -0.05498555302619934], [-0.059701088815927505, -0.01698470674455166], [0.08935867995023727, 0.0912017896771431], [-0.12060121446847916, 0.04139312356710434], [-0.024185506626963615, 0.1232023686170578], [-0.0110009191557765, -0.026070816442370415], [0.03525281697511673, -0.06075119599699974], [0.10617772489786148, -0.09208925068378448], [-0.04400531202554703, -0.04603013023734093], [0.03034484200179577, 0.07596968859434128], [0.04589308798313141, -0.027567952871322632], [-0.11642333120107651, 0.11629192531108856], [-0.10792922228574753, 0.05785735696554184], [-0.10075753182172775, -0.030940759927034378], [-0.10019922256469727, 0.058502357453107834]], [[-0.0972629263997078, 0.06968729197978973], [-0.09884699434041977, -0.05453072115778923], [-0.07007480412721634, -0.006897870916873217], [-0.07114849984645844, -0.11620791256427765], [-0.06961622089147568, -0.004203086718916893], [0.0678512379527092, 0.06810447573661804], [0.01877969317138195, 0.025674207136034966], [0.058106813579797745, -0.1112748384475708], [-0.09896615147590637, 0.09239426255226135], [0.06030213087797165, 0.023778662085533142], [-0.007314055692404509, -0.01619802601635456], [0.03722292184829712, 0.08982710540294647], [-0.027657601982355118, -0.08503274619579315], [-0.09308648109436035, 0.019208496436476707], [0.12165172398090363, -0.011172748170793056], [-0.13080862164497375, -0.04825778305530548], [-0.04524024948477745, 0.09445355832576752], [-0.01378991175442934, 0.029526107013225555], [0.0787501111626625, -0.022787440568208694], [-0.09404223412275314, 0.10122081637382507], [0.07173939049243927, -0.05595521628856659], [0.05067886412143707, 0.07220151275396347], [0.11632321774959564, 0.07818290591239929], [-0.056177426129579544, 0.10745982825756073], [-0.09654158353805542, 0.033388033509254456], [0.0033162636682391167, 0.08370029926300049], [-0.0509960800409317, 0.05094542354345322], [-0.09123589098453522, -0.07967252284288406], [0.009264219552278519, -0.0863436609506607], [-0.13164497911930084, 0.04196421802043915], [0.04062582179903984, -0.023499056696891785], [0.06971220672130585, 0.10190217196941376]], [[0.11203731596469879, 0.09233425557613373], [-0.027278712019324303, 0.016949797049164772], [0.0029455635230988264, 0.046213582158088684], [0.013882206752896309, 0.08129581809043884], [0.09873950481414795, 0.05837608501315117], [0.02882361225783825, 0.029648639261722565], [-0.10451283305883408, 0.1164039820432663], [-0.11219862103462219, -0.016348572447896004], [-0.0728146880865097, 0.0257087592035532], [0.06609709560871124, 0.025907397270202637], [-0.07630587369203568, 0.012592580169439316], [-0.0075112441554665565, -0.1053631454706192], [0.062253739684820175, 0.0547097772359848], [0.03983277454972267, -0.033661916851997375], [-0.051176488399505615, 0.10390841215848923], [-0.0723092332482338, -0.12772303819656372], [-0.06573300808668137, 0.12188395112752914], [0.10952476412057877, -0.028119688853621483], [-0.11504184454679489, -0.1003519669175148], [0.07817214727401733, 0.09513778239488602], [-0.05429678410291672, 0.11223551630973816], [0.08979290723800659, 0.11269683390855789], [-0.07315264642238617, 0.10148563981056213], [0.10617843270301819, 0.08194807916879654], [-0.11197668313980103, 0.07156499475240707], [0.04888627678155899, 0.08576752990484238], [-0.0051338993944227695, -0.004384102765470743], [-0.13548806309700012, 0.018754655495285988], [0.10063482075929642, 0.04358816519379616], [-0.020161222666502, -0.02369048446416855], [-0.09766970574855804, 0.017526084557175636], [0.0658048614859581, 0.07339403033256531]], [[-0.09553118050098419, -0.06619054824113846], [0.09537716954946518, -0.13005302846431732], [0.07251977920532227, 0.07756014913320541], [0.034542523324489594, 0.0236994419246912], [-0.017715420573949814, -0.08418810367584229], [-0.04287988692522049, 0.015830250456929207], [0.03424442932009697, 0.013523440808057785], [-0.06432752311229706, -0.05320135876536369], [0.005515579134225845, -0.022553790360689163], [-0.10616113245487213, -0.04795895144343376], [-0.08527838438749313, -0.09961973130702972], [-0.12192966789007187, -0.05250714346766472], [0.061997219920158386, 0.04360803961753845], [-0.08560129255056381, -0.05179671570658684], [-0.027086781337857246, -0.0944468155503273], [-0.02524241805076599, -0.057917773723602295], [-0.07852504402399063, -0.07609526067972183], [-0.03612601011991501, -0.10134907066822052], [-0.12152376025915146, 0.05066879466176033], [-0.08574405312538147, 0.05294046550989151], [-0.057773053646087646, -0.1020403802394867], [-0.04017484560608864, 0.022548014298081398], [0.06888467073440552, 0.06984623521566391], [-0.09030594676733017, -0.0125146908685565], [0.04648822918534279, -0.09297844767570496], [-0.09987254440784454, -0.09749724715948105], [0.1091008335351944, -0.07522734254598618], [-0.03131896257400513, -0.11313577741384506], [0.09237553179264069, -0.06074979901313782], [-0.03581393137574196, 0.025075403973460197], [0.08809497207403183, 0.07212110608816147], [-0.08293747901916504, 0.04004768654704094]], [[-0.1351872831583023, 0.11975758522748947], [-0.04776788130402565, 0.07840338349342346], [-0.012268518097698689, -0.025816937908530235], [0.011228298768401146, -0.12446365505456924], [-0.11225808411836624, 0.021729541942477226], [0.05386804789304733, 0.08998586982488632], [0.04240811616182327, 0.008606288582086563], [0.04783287271857262, -0.07651612907648087], [-0.022028030827641487, -0.07445387542247772], [-0.059581998735666275, 0.10926295816898346], [0.08976628631353378, -0.09603952616453171], [-0.017352642491459846, 0.0352102629840374], [-0.0041776979342103004, -0.0019855499267578125], [0.06455892324447632, 0.07882887870073318], [0.09278777986764908, 0.06816201657056808], [-0.06564069539308548, -0.09225592762231827], [0.07938024401664734, 0.09998924285173416], [-0.07664109021425247, -0.07649217545986176], [0.07142826169729233, 0.011547396890819073], [-0.13994699716567993, -0.05313975363969803], [0.03616941720247269, -0.005240794736891985], [0.00020396863692440093, -0.022435596212744713], [-0.03444044291973114, 0.08120624721050262], [-0.0917312353849411, 0.10599921643733978], [-0.04296039417386055, -0.09135090559720993], [-0.017315955832600594, -0.09692852199077606], [-0.08199654519557953, -0.005555003881454468], [-0.05623176321387291, -0.045416541397571564], [0.01939002051949501, -0.005139733199030161], [0.006862403359264135, -0.0013159009395167232], [0.07443806529045105, 0.0850161463022232], [0.07115350663661957, 0.05879097804427147]], [[-0.059939175844192505, 0.011593556962907314], [-0.009121916256844997, -0.033104490488767624], [0.07109422981739044, -0.04225857928395271], [-0.019729608669877052, 0.03333111107349396], [0.021474916487932205, -0.05860676243901253], [-0.04267900064587593, -0.10440036654472351], [-0.009008738212287426, 0.056453339755535126], [-0.10593833774328232, 0.04538954421877861], [-0.031190484762191772, 0.07655484229326248], [0.021138176321983337, 0.0305304154753685], [0.057223472744226456, -0.06471208482980728], [-0.016008328646421432, -0.12661319971084595], [-0.08676451444625854, -0.08392399549484253], [0.0020955719519406557, 0.060039836913347244], [0.014026684686541557, 0.01998838409781456], [-0.004696900490671396, 0.07270104438066483], [0.04007165506482124, -0.01930416002869606], [-0.0012956376885995269, -0.008955754339694977], [-0.11325771361589432, 0.07245736569166183], [0.09141132980585098, -0.10798192769289017], [-0.09738149493932724, 0.02300228737294674], [0.098552405834198, -0.0046225483529269695], [0.11792230606079102, -0.07819148153066635], [0.07386290282011032, -0.03501521423459053], [0.10201022773981094, -0.05732240155339241], [0.05954514071345329, -0.012897566892206669], [0.07169033586978912, -0.10108044743537903], [-0.03902396932244301, 0.02397189289331436], [0.04618944972753525, 0.1124890148639679], [0.027396591380238533, 0.006331882905215025], [-0.07858335226774216, 0.12253008782863617], [-0.03905794024467468, -0.06218181550502777]], [[0.08341619372367859, -0.10805453360080719], [0.07997730374336243, 0.021968720480799675], [-0.05909205600619316, -0.06766314059495926], [-0.024086249992251396, 0.06996764987707138], [-0.0102482158690691, -0.09448298811912537], [-0.0017344316001981497, -0.002067288849502802], [0.062295470386743546, -0.07321921736001968], [-0.0536944642663002, -0.056561075150966644], [0.05538792535662651, 0.07663540542125702], [-0.11802452802658081, -0.09310326725244522], [-0.04581503942608833, 0.10249239206314087], [-0.07769645005464554, 0.10398798435926437], [-0.016893727704882622, -0.03825584799051285], [0.11433417350053787, 0.052647173404693604], [-0.11899363994598389, -0.008401824161410332], [0.09415695071220398, -0.06940144300460815], [0.05123169720172882, 0.0882590115070343], [-0.030400430783629417, 0.09194204956293106], [0.028683895245194435, -0.011175716295838356], [0.060203444212675095, 0.06220385804772377], [-0.09025420993566513, 0.06899624317884445], [0.06265728920698166, 0.032003238797187805], [-0.013907862827181816, -0.04672696068882942], [-0.012987137772142887, -0.08035528659820557], [0.07660571485757828, 0.008958254009485245], [0.03041554056107998, 0.10505879670381546], [-0.10358556360006332, -0.12476320564746857], [-0.09929316490888596, 0.060738205909729004], [0.04691809415817261, -0.1219538152217865], [0.07980062812566757, 0.10759928822517395], [-0.08724742382764816, -0.12497933208942413], [0.030565477907657623, 0.09542317688465118]], [[0.019706910476088524, -0.06932993978261948], [0.060881733894348145, -0.10312473028898239], [0.004598373547196388, 0.08995823562145233], [-0.09314312040805817, 0.01108502596616745], [-0.0381980836391449, 0.09022950381040573], [0.015130548737943172, 0.10358396172523499], [-0.08600808680057526, -0.12281973659992218], [0.01307510957121849, 0.0309388916939497], [-0.10327262431383133, 0.11423992365598679], [-0.10207220911979675, -0.008917504921555519], [-0.0700455829501152, 0.11496362835168839], [0.08165891468524933, 0.11944404989480972], [0.11223148554563522, -0.07500158250331879], [-0.1019103080034256, 0.12078643590211868], [0.027301408350467682, -0.03919702023267746], [-0.01163051649928093, -0.0029405897948890924], [0.06864585727453232, 0.060864824801683426], [0.11555444449186325, 0.09724865108728409], [-0.0404830239713192, 0.013879288919270039], [0.07387714833021164, 0.01402729656547308], [-0.007957667112350464, 0.11648616194725037], [-0.10470791161060333, 0.1100541278719902], [-0.024215882644057274, -0.01732701063156128], [-0.017091022804379463, -0.03431197628378868], [-0.08992858976125717, -0.10200829058885574], [0.02909591980278492, 0.09354272484779358], [-0.06637907773256302, -0.0031864847987890244], [0.06115631386637688, 0.007665226701647043], [-0.00869835913181305, 0.03988971933722496], [-0.032694458961486816, 0.016533110290765762], [-0.12718234956264496, -0.09775889664888382], [-0.07408207654953003, -0.011211108416318893]], [[-0.10776088386774063, -0.004838518798351288], [0.04770570993423462, 0.11309321224689484], [0.06426388770341873, 0.029906557872891426], [-0.1264043152332306, -0.0172883328050375], [0.04338599368929863, -0.05834977701306343], [-0.07840558886528015, -0.03480677306652069], [0.045171018689870834, -0.040298838168382645], [-0.021604415029287338, 0.11404110491275787], [0.006442398764193058, -0.025317853316664696], [0.04977685213088989, -0.025816187262535095], [-0.01287165842950344, 0.04687711223959923], [0.02721952646970749, 0.11034883558750153], [0.03304373100399971, -0.0014969102339819074], [0.014919102191925049, 0.1221402958035469], [-0.06901487708091736, -0.02353137731552124], [0.028059743344783783, 0.021448586136102676], [-0.12422458827495575, -0.1063513457775116], [0.07444911450147629, -0.09414312243461609], [0.0845043882727623, 0.11429212987422943], [0.01350543275475502, 0.09448998421430588], [-0.10697775334119797, 0.12596511840820312], [0.07899589091539383, 0.06826413422822952], [0.10276328027248383, -0.08945295214653015], [0.1107693761587143, -0.021004220470786095], [0.029415132477879524, -0.062471359968185425], [-0.1252867579460144, 0.11660001426935196], [-0.06506358832120895, -0.04629926383495331], [0.07956636697053909, 0.013715002685785294], [0.07854118943214417, 0.08384082466363907], [0.028480030596256256, -0.06010843813419342], [0.13218863308429718, -0.062204454094171524], [-0.08706735074520111, 0.07978333532810211]], [[-0.12503552436828613, 0.001210296293720603], [-0.09446656703948975, 0.09048423916101456], [-0.0986001119017601, 0.04148709401488304], [0.06729622930288315, -0.07820969074964523], [0.0950789526104927, 0.09141062945127487], [-0.10521483421325684, 0.04545094072818756], [0.05922533944249153, 0.09660413861274719], [0.10580333322286606, -0.144342303276062], [0.015099878422915936, 0.04370173439383507], [0.08169762790203094, -0.07974553108215332], [-0.0623035654425621, 0.03474952280521393], [-0.08900362253189087, -0.09951618313789368], [0.06486252695322037, -0.04047227278351784], [0.021868156269192696, 0.12016569823026657], [0.07682181894779205, 0.0316229946911335], [0.039758242666721344, -0.09102701395750046], [0.10318488627672195, 0.061939626932144165], [0.10027896612882614, 0.09565576165914536], [-0.11357806622982025, -0.12048342078924179], [-0.04191671311855316, 0.06321399658918381], [-0.0023394327145069838, 0.046080585569143295], [-0.11036314070224762, 0.03548111766576767], [0.0808630883693695, -0.015647731721401215], [-0.10175210982561111, 0.09457846730947495], [0.02787362039089203, 0.06236565485596657], [0.08976200222969055, -0.13766609132289886], [-0.04093916714191437, -0.14319336414337158], [-0.07797694206237793, -0.11258910596370697], [0.07363460958003998, -0.11551009118556976], [0.046868279576301575, 0.07361865043640137], [0.008515789173543453, -0.07091604173183441], [0.057884372770786285, 0.014673786237835884]], [[0.013351342640817165, -0.07583417743444443], [0.09915277361869812, -0.005806908011436462], [0.039222050458192825, -0.02322598360478878], [0.0070408484898507595, -0.08699308335781097], [0.09859956055879593, 0.00439604464918375], [-0.11394871771335602, -0.05634304881095886], [-0.03527158498764038, 0.0673903375864029], [-0.10189837217330933, -0.037969835102558136], [-0.07846929132938385, -0.0087293591350317], [-0.06999695301055908, 0.016970457509160042], [-0.0435197614133358, -0.08712399005889893], [0.0743003562092781, 0.08325746655464172], [0.0973362997174263, -0.0623248815536499], [0.02796800620853901, -0.026969239115715027], [-0.09379585832357407, -0.1192047968506813], [-0.024442505091428757, 0.01197502575814724], [0.11508575826883316, 0.07252379506826401], [0.0862375795841217, -0.06936366111040115], [0.056089483201503754, 0.11230499297380447], [0.09299055486917496, 0.006175558548420668], [0.034139279276132584, -0.11055931448936462], [-0.1067984327673912, -0.0549551397562027], [0.08918226510286331, -0.1152026355266571], [-0.0866721123456955, -0.06717254966497421], [-0.056617267429828644, 0.019439438357949257], [-0.0625150054693222, 0.07437140494585037], [0.01918037235736847, -0.09300106018781662], [0.020258821547031403, -0.11038807779550552], [-0.00011804080713773146, -0.025531945750117302], [0.015145659446716309, -0.09555071592330933], [-0.04930886998772621, -0.019177820533514023], [0.047920189797878265, 0.016057662665843964]], [[-0.08925469219684601, 0.06412111967802048], [-0.06624432653188705, -0.05155191943049431], [0.024918748065829277, 0.06983617693185806], [0.13724476099014282, 0.08637041598558426], [0.12192884087562561, -0.05202630162239075], [0.09782124310731888, -0.07009456306695938], [-0.03926422819495201, -0.005357407499104738], [-0.035225510597229004, -0.09664549678564072], [0.04602215811610222, 0.1265731006860733], [-0.0015731893945485353, 0.02287874184548855], [-0.03300429508090019, 0.1117878407239914], [0.10541919618844986, -0.018954414874315262], [-0.06137506291270256, -0.03753819689154625], [0.013315428979694843, 0.10108417272567749], [0.033802345395088196, -0.11671038717031479], [0.1034950241446495, -0.13585025072097778], [0.06098627671599388, 0.0733332484960556], [0.08064734190702438, 0.041365671902894974], [-0.07298946380615234, -0.08507012575864792], [-0.07162029296159744, 0.042510561645030975], [-0.055326271802186966, -0.032103750854730606], [-0.03299583122134209, -0.020458314567804337], [-0.05708697810769081, -0.010736021213233471], [0.10036778450012207, -0.0799359381198883], [-0.04460705444216728, -0.10912732779979706], [0.009721450507640839, -0.08372005075216293], [0.06593821197748184, 0.03834537789225578], [0.09448336064815521, -0.07481987029314041], [-0.12251298129558563, 0.08194609731435776], [0.09142547100782394, 0.022378675639629364], [-0.11855196207761765, 0.027278568595647812], [0.04315178841352463, -0.08921586722135544]], [[-0.1234271302819252, -0.08475759625434875], [-0.09699254482984543, 0.02093832939863205], [-0.06979686766862869, 0.05324983596801758], [-0.04720863327383995, -0.0091338399797678], [-0.057681597769260406, 0.10759895294904709], [-0.06317103654146194, 0.11248855292797089], [-0.07956156134605408, 0.0969453677535057], [-0.032964907586574554, 0.04543877765536308], [-0.04175640270113945, -0.04945139214396477], [-0.10825980454683304, 0.02729012630879879], [-0.032212141901254654, 0.04821397736668587], [0.1288834661245346, 0.08173753321170807], [-0.06289348751306534, 0.07252880185842514], [-0.015691526234149933, 0.10960286855697632], [0.023513151332736015, -0.014709843322634697], [0.021850109100341797, 0.07271469384431839], [-0.02047819085419178, -0.04937838390469551], [0.04799613729119301, 0.009080683812499046], [-0.06348695605993271, 0.05115997791290283], [-0.08448552340269089, 0.021329868584871292], [-0.0366598442196846, 0.0023754844442009926], [-0.022024810314178467, -0.04570425674319267], [-0.11754187196493149, 0.11115878820419312], [-0.12765921652317047, 0.05667993426322937], [0.07969225198030472, -0.00442321365699172], [0.0956263318657875, 0.02538440190255642], [0.05622047558426857, 0.07920154184103012], [0.015751352533698082, 0.06177660822868347], [-0.043931059539318085, -0.058321963995695114], [-0.0936170145869255, -0.09982514381408691], [0.010213327594101429, -0.027119945734739304], [0.06684175878763199, 0.044299181550741196]], [[-0.07169939577579498, -0.049172766506671906], [-0.05722721666097641, 0.001322957337833941], [0.05311204493045807, -0.11284855753183365], [-0.05249704420566559, 0.04628349468111992], [-0.10376065969467163, -0.11161649227142334], [0.05843993276357651, 0.11498533934354782], [0.07369083911180496, 0.03928242623806], [0.06574385613203049, -0.050894711166620255], [0.11390774697065353, -0.09387699514627457], [0.06144377216696739, 0.05382334068417549], [-0.03578175976872444, 0.08693049103021622], [-0.08231708407402039, 0.06344541162252426], [0.1164155825972557, -0.09387683868408203], [0.12560249865055084, -0.007401241920888424], [-0.036546941846609116, -0.10196615755558014], [0.02252175658941269, 0.08331688493490219], [0.09185479581356049, -0.06742093712091446], [0.11552144587039948, -0.00610335124656558], [-0.044992461800575256, 0.04970967024564743], [-0.010944362729787827, -0.014754436910152435], [0.10840273648500443, 0.09672559052705765], [0.002702296245843172, -0.05894303321838379], [0.09328486025333405, -0.047360118478536606], [-0.11576493829488754, -0.009987966157495975], [-0.029709409922361374, -0.019104085862636566], [-0.027953119948506355, -0.0580267459154129], [0.01499275304377079, 0.07686708122491837], [0.0708620548248291, 0.05684991925954819], [-0.12373597174882889, -0.08262297511100769], [-0.03731195256114006, 0.044202253222465515], [-0.1296035796403885, -0.027785243466496468], [0.05338706821203232, -0.059544406831264496]], [[0.06082010641694069, 0.09010718017816544], [-0.12464816868305206, -0.06083705276250839], [0.11370894312858582, -0.07407660782337189], [-0.0670023038983345, -0.07157652080059052], [0.05419892072677612, 0.03670398145914078], [0.08986085653305054, -0.07050050795078278], [0.03920244425535202, 0.027625303715467453], [0.05339168757200241, -0.11137845367193222], [-0.0228789821267128, -0.10361937433481216], [0.047469183802604675, 0.005559722427278757], [0.005069876555353403, 0.12159489840269089], [-0.09713201224803925, 0.12311828881502151], [0.1280478835105896, -0.03776775300502777], [-0.05278843268752098, 0.1026664674282074], [0.0657050684094429, -0.008688930422067642], [-0.12139522284269333, -0.08810481429100037], [-0.03520026057958603, -0.08653748035430908], [-0.009207481518387794, -0.023178083822131157], [0.10663697123527527, 0.03691153973340988], [0.06346528977155685, 0.034758541733026505], [0.027418646961450577, 0.03513333573937416], [-0.04758042097091675, -0.10037895292043686], [0.062323179095983505, -0.026723327115178108], [0.04698174446821213, 0.019097862765192986], [0.03568229079246521, -0.0016118931816890836], [-0.04997900500893593, 0.07915911078453064], [-0.11348550766706467, 0.011442553251981735], [-0.06288258731365204, 0.07818219065666199], [-0.01157075073570013, 0.030099060386419296], [0.0443417951464653, -0.004552059806883335], [0.019253067672252655, 0.05574503168463707], [0.10667765885591507, -0.03468611463904381]], [[-0.11274036020040512, 0.08309551328420639], [0.015273962169885635, -0.12440233677625656], [0.10221423208713531, -0.057862427085638046], [0.1273055523633957, -0.1080828607082367], [0.11163696646690369, 0.07836482673883438], [-0.07018037140369415, 0.06772845983505249], [0.05726557970046997, 0.09039723128080368], [-0.023440850898623466, 0.01669972389936447], [0.027466818690299988, -0.07764211297035217], [-0.009583041071891785, -0.032598331570625305], [0.11520695686340332, 0.07874428480863571], [0.015435734763741493, 0.07383187115192413], [-0.08584065735340118, 0.032882433384656906], [-0.08948486298322678, -0.04921940714120865], [-0.06864530593156815, -0.03142787888646126], [-0.07309854030609131, -0.07084395736455917], [0.09731175750494003, 0.07100553810596466], [0.049821607768535614, -0.01450225431472063], [-0.04523030295968056, -0.02941107749938965], [0.012343288399279118, 0.03590938821434975], [-0.03380829095840454, -0.05710996314883232], [-0.07477352023124695, 0.07978186011314392], [-0.08249242603778839, -0.07706105709075928], [-0.10770832747220993, 0.05490145459771156], [0.05376284569501877, -0.015099786221981049], [-0.03018384426832199, -0.02126782201230526], [0.09707903116941452, -0.09191451966762543], [-0.061185698956251144, 0.09261061996221542], [0.038493916392326355, 0.05432421341538429], [-0.06833662837743759, 0.06352102756500244], [-0.06384807080030441, 0.07476190477609634], [0.10783664882183075, 0.07919514179229736]], [[-0.12070553749799728, 0.11890192329883575], [0.10718086361885071, -0.04201947897672653], [-0.010124539956450462, 0.009210644289851189], [0.03768545389175415, -0.08768656104803085], [-0.08306534588336945, -0.1307973861694336], [0.07218275219202042, 0.004361155908554792], [-0.08429992198944092, 0.030909067019820213], [-0.008191651664674282, 0.1013096272945404], [0.07624675333499908, -0.023612909018993378], [0.03086395189166069, 0.05810937657952309], [0.0797986090183258, -0.09803027659654617], [-0.11928603798151016, 0.0813911035656929], [-0.008470142260193825, 0.04076539725065231], [0.056281156837940216, -0.08640319854021072], [0.05533967167139053, 0.02242456190288067], [0.05654408037662506, 0.03439502418041229], [0.07443094253540039, 0.006400572136044502], [0.02045227587223053, 0.008383583277463913], [-0.11849585920572281, -0.10109037160873413], [-0.0051947408355772495, -0.04478725045919418], [0.07231049239635468, 0.05161004140973091], [-0.07870031893253326, -0.01945987343788147], [-0.04869163781404495, 0.11052726954221725], [-0.07587704807519913, 0.0790543258190155], [-0.11046750098466873, -0.12481774389743805], [0.10145720094442368, -0.05919250100851059], [-0.07008468359708786, -0.05625484883785248], [0.07343944162130356, -0.10007946938276291], [0.09423618763685226, 0.10002654790878296], [-0.09050622582435608, 0.07826633751392365], [-0.02118433266878128, -0.009810635820031166], [-0.07970433682203293, 0.04429330304265022]], [[0.030125904828310013, 0.04902505502104759], [0.10989666730165482, 0.041772060096263885], [-0.06712941825389862, -0.10939706861972809], [-0.025784093886613846, 0.10203418135643005], [-0.08414915204048157, 0.02019462175667286], [0.11436640471220016, 0.10312268882989883], [0.026354482397437096, -0.05354289337992668], [0.06544052064418793, -0.03362170234322548], [0.08898824453353882, 0.028221217915415764], [-0.08511779457330704, -0.004376372322440147], [-0.07378754019737244, -0.04672689363360405], [-0.05673994496464729, -0.05013594776391983], [-0.08928924798965454, 0.08358113467693329], [0.02281937189400196, -0.02884986810386181], [0.04966994374990463, -0.005486597772687674], [-0.10301832854747772, -0.007026033941656351], [0.03705103322863579, -0.03168235719203949], [-0.08214253187179565, 0.09108495712280273], [-0.025955814868211746, 0.06547532230615616], [0.11174812912940979, -0.0029444126412272453], [0.06001642718911171, -0.1364642083644867], [0.03861769288778305, -0.08053869754076004], [-0.024056795984506607, 0.04001209884881973], [0.043112851679325104, -0.0671442523598671], [-0.10349708050489426, 0.0778726190328598], [-0.07657245546579361, -0.03720083460211754], [0.02737891674041748, 0.12493445724248886], [-0.13537408411502838, 0.0562017560005188], [-0.1052623838186264, -0.0005267436499707401], [-0.0931129902601242, -0.06034774333238602], [0.07337231189012527, 0.0374271385371685], [0.0016036975430324674, -0.09802258759737015]], [[-0.05260593444108963, -0.12045129388570786], [0.10593315213918686, 0.022055532783269882], [-0.0460282526910305, -0.1402694433927536], [-0.10923986881971359, 0.07188115268945694], [0.025791823863983154, -0.12457257509231567], [-0.08809442818164825, 0.0026916880160570145], [-0.035872139036655426, 0.0046618920750916], [-0.04829591512680054, 0.09186714142560959], [-0.013746262528002262, 0.04641643911600113], [0.013926823623478413, -0.06758914142847061], [-0.021457305178046227, 0.07832517474889755], [-0.022987985983490944, -0.09193463623523712], [0.10235656052827835, 0.02552596852183342], [-0.09545677900314331, -0.13290618360042572], [0.03983456268906593, -0.08333565294742584], [-0.07928230613470078, -0.09765222668647766], [-0.07856465131044388, -0.015166251920163631], [-0.07934976369142532, -0.02451668307185173], [0.035723503679037094, 0.05848067253828049], [-0.08355604112148285, -0.0784965455532074], [-0.08825268596410751, -0.1348275989294052], [0.038239818066358566, -0.06947369873523712], [-0.10230527073144913, 0.04080604389309883], [0.028068171814084053, -0.0842365100979805], [-0.008798732422292233, -0.012597360648214817], [0.019015781581401825, -0.10533781349658966], [-0.10213172435760498, -0.010501892305910587], [0.07134652882814407, -0.04724273830652237], [-0.03681772202253342, 0.10870042443275452], [0.029478179290890694, 0.029986822977662086], [-0.12910689413547516, 0.06942001730203629], [0.041730623692274094, -0.05717145651578903]], [[-0.027808528393507004, -0.10901052504777908], [0.030675681307911873, 0.06639867275953293], [0.028379423543810844, 0.0787474736571312], [-0.07706600427627563, -0.11157382279634476], [-0.07309339940547943, -0.09716857224702835], [0.08305409550666809, -0.0014460106613114476], [0.033930703997612, 0.06453149765729904], [-0.11801077425479889, -0.059211019426584244], [0.009171873331069946, 0.07270706444978714], [-0.11338455975055695, 0.018981464207172394], [0.07033597677946091, 0.016566844657063484], [-0.04444507136940956, 0.06329401582479477], [-0.07500007003545761, -0.1254003643989563], [0.049846768379211426, -0.07841005176305771], [0.015157829970121384, -0.03369405120611191], [-0.1294342577457428, -0.1210491880774498], [-0.038371287286281586, 0.04709303006529808], [-0.10573404282331467, 0.008245171047747135], [-0.11203128099441528, -0.09890390187501907], [-0.07640445232391357, -0.046251773834228516], [0.11199792474508286, 0.03924502432346344], [0.0452566035091877, -0.002778321737423539], [-0.10716213285923004, 0.09618649631738663], [0.08911434561014175, 0.048157889395952225], [-0.05409322306513786, 0.08372262120246887], [-0.011930156499147415, -0.020931284874677658], [0.08626260608434677, 0.11830770969390869], [0.030403805896639824, 0.06276535987854004], [-0.09453420341014862, 0.10858628898859024], [0.03973406180739403, 0.02540743164718151], [0.011256903409957886, -0.0036096936091780663], [-0.017076991498470306, -0.09339912235736847]], [[-0.02412891387939453, 0.0649750679731369], [-0.10434607416391373, -0.057706318795681], [-0.017382029443979263, -0.1270851492881775], [0.1115175187587738, -0.03279848024249077], [0.09653927385807037, -0.047944437712430954], [0.028815967962145805, -0.12430832535028458], [-0.06903254985809326, 0.03014136292040348], [-0.1203744038939476, 0.036652423441410065], [0.10384276509284973, 0.05485369637608528], [0.033609066158533096, -0.1055368036031723], [-0.006578033324331045, -0.0650579035282135], [0.11519701033830643, -0.09399217367172241], [0.003226696979254484, 0.0253439974039793], [-0.03189357370138168, 0.10503663867712021], [0.020800018683075905, 0.09094206988811493], [0.08467132598161697, -0.08386188745498657], [0.03635900095105171, -0.11494459211826324], [-0.0013827718794345856, -0.07033504545688629], [0.004492862615734339, 0.035254936665296555], [0.11641202867031097, 9.785178554011509e-05], [-0.10374101996421814, -0.08365989476442337], [-0.006771337240934372, 0.10428889095783234], [-0.06374488025903702, 0.03367727994918823], [0.10107668489217758, 0.04433515667915344], [-0.08320410549640656, -0.1086951419711113], [-0.12345311790704727, -0.0789976418018341], [0.025926902890205383, 0.06473769247531891], [0.03927324339747429, 0.07948072254657745], [-0.018521204590797424, 0.04567607864737511], [-0.09436725080013275, 0.014722879976034164], [0.07786055654287338, 0.04656258597970009], [0.12831860780715942, -0.07813089340925217]], [[0.056126195937395096, 0.07701041549444199], [0.10863476246595383, -0.053038351237773895], [-0.13266436755657196, 0.07084351032972336], [-0.04414719343185425, -0.09532911330461502], [0.10033697634935379, -0.06527353078126907], [-0.03209846466779709, 0.03349766507744789], [0.10963688790798187, -0.061108097434043884], [-0.08711282908916473, 0.0028284257277846336], [0.03337796404957771, -0.02633340284228325], [-0.0624074712395668, 0.08780711144208908], [0.02963211014866829, 0.02446896955370903], [0.021349743008613586, 0.02081630565226078], [-0.0281425341963768, 0.029256556183099747], [-0.11087291687726974, 0.1258029043674469], [0.09147540479898453, 0.03725532069802284], [0.02854984998703003, -0.015480825677514076], [-0.029884161427617073, -0.028182821348309517], [0.034482646733522415, 0.09220987558364868], [0.1064184308052063, -0.03765655308961868], [-0.019411249086260796, 0.08734790980815887], [-0.032411377876996994, -0.0868634581565857], [-0.03837539628148079, -0.007558072917163372], [-0.10920234769582748, 0.08451557904481888], [-0.04826022684574127, -0.002939704107120633], [0.003683243179693818, -0.05398538336157799], [-0.05261366814374924, 0.02768624760210514], [-0.015988996252417564, -0.04456191509962082], [-0.07869556546211243, -0.03193634748458862], [0.00013538356870412827, -0.021620681509375572], [0.10234392434358597, -0.006497635506093502], [-0.05809329077601433, 0.027648737654089928], [-0.008423118852078915, 0.07927051186561584]], [[-0.003155037760734558, 0.018052106723189354], [0.01104973629117012, -0.039099421352148056], [0.031132197007536888, -0.09782674908638], [0.07934730499982834, 0.09470691531896591], [0.05212058126926422, 0.028286578133702278], [-0.09539744257926941, -0.08876277506351471], [-0.07810232788324356, -0.0675705224275589], [-0.11218380928039551, -0.056139055639505386], [-0.007402847055345774, -0.01956871710717678], [-0.09460044652223587, -0.09629650413990021], [-0.09770070016384125, -0.06713347882032394], [0.029818616807460785, 0.11629819124937057], [-0.054216936230659485, -0.09015612304210663], [0.030581412836909294, 0.09069683402776718], [-0.036512576043605804, -0.00023516025976277888], [-0.10866601765155792, 0.00722508504986763], [-0.0294208787381649, -0.05809947848320007], [0.013770191930234432, -0.07565177232027054], [0.06758572161197662, 0.049206625670194626], [-0.019884275272488594, 0.06420452147722244], [-0.0001718296844046563, -0.09410159289836884], [0.026205725967884064, -0.14125169813632965], [0.08039016276597977, -0.024294093251228333], [-0.014820490032434464, -0.06663071364164352], [0.0011688037775456905, 0.09199259430170059], [0.007018328178673983, -0.055533360689878464], [0.010875377804040909, -0.0883367732167244], [-0.09276226907968521, -0.0825432538986206], [0.036606647074222565, -0.028048381209373474], [-0.12919621169567108, 0.04914134740829468], [-0.05869607627391815, -0.07036823779344559], [0.06489579379558563, -0.016192251816391945]], [[0.09178204834461212, -0.05671989917755127], [-0.01260570902377367, -0.08735168725252151], [-0.04796864464879036, -0.13818122446537018], [-0.0825580283999443, -0.053779665380716324], [0.11438498646020889, 0.12155888974666595], [-0.0940682590007782, 0.09939228743314743], [-0.017302311956882477, 0.029555587098002434], [-0.003343511838465929, -0.0545937679708004], [0.03331553190946579, -0.05827967822551727], [0.11616198718547821, 0.023410668596625328], [0.0794105976819992, 0.0362783744931221], [-0.10430914908647537, -0.05333079770207405], [-0.014707227237522602, 0.04478633776307106], [-0.08527714014053345, -0.05325355753302574], [-0.1106628030538559, -0.13845422863960266], [0.07254686951637268, 0.05989040806889534], [0.0725172609090805, 0.022763965651392937], [0.05983162671327591, 0.06152525916695595], [0.08791044354438782, 0.11029799282550812], [-0.012209667824208736, 0.03395445644855499], [0.08950845152139664, -0.00042426749132573605], [0.10939283668994904, -0.11762935668230057], [0.03725873678922653, 0.058587443083524704], [0.05309714749455452, -0.050121501088142395], [0.10188110917806625, 0.12603378295898438], [0.017963116988539696, 0.05411152541637421], [0.08665929734706879, -0.05430052801966667], [0.0073184845969080925, 0.041733518242836], [-0.04955900087952614, -0.13034631311893463], [-0.07712797820568085, 0.012868615798652172], [-0.03871320188045502, 0.08691544085741043], [0.11877445876598358, -0.05703241378068924]], [[-0.09471743553876877, 0.05147598683834076], [-0.12191493809223175, 0.11576040834188461], [-0.044143956154584885, -0.11420228332281113], [0.029685117304325104, -0.11056333780288696], [-0.00787060521543026, -0.06218511611223221], [-0.0748816430568695, -0.036210548132658005], [-0.08889313787221909, 0.08770229667425156], [-0.11591243743896484, -0.08759395033121109], [-0.06905367970466614, 0.06707658618688583], [0.07361026853322983, 0.0750790536403656], [0.07917267829179764, 0.09086718410253525], [0.04868443310260773, -0.04377710446715355], [-0.04588263854384422, -0.014761514030396938], [-0.06879861652851105, 0.08910562098026276], [-0.06583136320114136, -0.02289549447596073], [0.030396411195397377, 0.05291884019970894], [0.03651415929198265, 0.03417852893471718], [-0.04243048280477524, -0.14096778631210327], [0.09863468259572983, -0.1113501489162445], [-0.019718054682016373, 0.011943421326577663], [0.055191200226545334, -0.11744986474514008], [-0.0672210156917572, 0.059255003929138184], [-0.08726038783788681, -0.005348507780581713], [0.10328714549541473, -0.007110713981091976], [-0.07217288017272949, 0.07802776992321014], [-0.1040627658367157, -0.026660874485969543], [-0.0988980382680893, 0.10877465456724167], [-0.11240190267562866, 0.08079423755407333], [-0.00870378129184246, 0.028176113963127136], [-0.1215696856379509, 0.13412676751613617], [-0.019020073115825653, 0.031710077077150345], [-0.05535276234149933, -0.1418357789516449]], [[-0.08417710661888123, -0.08169412612915039], [0.0006290727760642767, -0.02186761237680912], [0.04037371650338173, -0.012540207244455814], [0.13375738263130188, 0.053875990211963654], [-0.0642450675368309, -0.06357785314321518], [-0.12573353946208954, -0.05040646716952324], [-0.10985269397497177, -0.026784416288137436], [0.08004650473594666, -0.04084865376353264], [0.09605003148317337, 0.02025340311229229], [-0.08229932934045792, 0.08178210258483887], [-0.049295179545879364, -0.021169083192944527], [0.12282959371805191, 0.08444152772426605], [-0.03185684233903885, -0.10699490457773209], [0.11887834966182709, 0.10477467626333237], [0.07391300052404404, -0.04563793167471886], [-0.06794846802949905, 0.07618485391139984], [0.12239564210176468, 0.09319037199020386], [0.11373427510261536, -0.02442023903131485], [0.08848165720701218, -0.07172302156686783], [0.05690862238407135, 0.03911905735731125], [-0.10418808460235596, -0.07297928631305695], [0.050015889108181, 0.05267332121729851], [-0.04648709297180176, -0.027978701516985893], [-0.12494879215955734, 0.012282948940992355], [0.02075318992137909, 0.03351551666855812], [-0.027241632342338562, -0.10795053094625473], [-0.09230505675077438, -0.047497060149908066], [0.03732997179031372, -0.052597526460886], [0.0163160040974617, -0.0749797448515892], [-0.05756666511297226, 0.07298459857702255], [-0.08695188164710999, 0.00826293509453535], [-0.0654386505484581, 0.015622048638761044]], [[-0.11551769822835922, 0.07930510491132736], [0.06875026971101761, 0.12875215709209442], [0.07726828753948212, 0.07617814838886261], [-0.02487102709710598, -0.08875398337841034], [-0.05930166691541672, 0.10251299291849136], [-0.08581843972206116, 0.04937108978629112], [0.008396723307669163, -0.055783841758966446], [0.05382022261619568, 0.042162563651800156], [0.03502523526549339, 0.04084169864654541], [-0.06461542844772339, -0.08642403781414032], [-0.044854603707790375, -0.12188634276390076], [0.03434687852859497, 0.010064737871289253], [0.01878288947045803, -0.045798398554325104], [-0.024947158992290497, 0.09860169142484665], [0.08774859458208084, 0.04230000078678131], [0.11154545098543167, -0.07045909762382507], [-0.09451023489236832, 0.05005303770303726], [0.0617792084813118, -0.0642751082777977], [0.06853646785020828, -0.1087457537651062], [0.0463717021048069, 0.018524115905165672], [-0.06883429735898972, 0.010736599564552307], [-0.029373498633503914, -0.018712390214204788], [-0.06428057700395584, -0.10332894325256348], [0.010878057219088078, -0.030806807801127434], [0.1264115869998932, 0.023914886638522148], [-0.007143184542655945, -0.06513407826423645], [-0.004291373770684004, 0.005585907958447933], [-0.030111774802207947, 0.005552386399358511], [-0.07034251093864441, 0.09523512423038483], [0.09533140808343887, 0.009496841579675674], [0.0365462526679039, 0.07422825694084167], [0.033940382301807404, -0.12514334917068481]], [[-0.11559060961008072, -0.014755095355212688], [0.06757134944200516, -0.12275584042072296], [0.0983162447810173, 0.11598727107048035], [0.029787590727210045, 0.08786661177873611], [0.11224671453237534, 0.10228446871042252], [-0.08968853950500488, 0.06134605407714844], [-0.040283627808094025, -0.041807565838098526], [-0.09250400960445404, -0.0121846878901124], [0.08376418054103851, -0.02764151804149151], [-0.032621316611766815, -0.10665491223335266], [0.1233052909374237, 0.030489852651953697], [0.046174630522727966, 0.02963695116341114], [0.11985168606042862, 0.01539501640945673], [0.04548812657594681, 0.09765523672103882], [0.0012075826525688171, 0.08605287969112396], [0.03160684183239937, 0.0805266723036766], [0.04826042056083679, 0.0193673986941576], [0.004523627460002899, 0.044418610632419586], [0.07126888632774353, 0.029871245846152306], [-0.08228574693202972, 0.08472025394439697], [-0.019751550629734993, -0.05970213562250137], [-0.07767049223184586, -0.019100788980722427], [-0.1091674342751503, -0.11855841428041458], [-0.10835044831037521, 0.05397796258330345], [0.023471152409911156, 0.023038111627101898], [-0.00559967290610075, -0.08543559908866882], [-0.053826600313186646, -0.08564747869968414], [-0.04764151573181152, 0.0041714925318956375], [0.023295754566788673, -0.12075980007648468], [0.07127267122268677, -0.013224848546087742], [-0.006834813393652439, -0.05469629168510437], [0.06844927370548248, -0.025905674323439598]], [[-0.014998456463217735, -0.06596961617469788], [-0.12312814593315125, -0.05431133136153221], [0.12281164526939392, 0.010323254391551018], [-0.12619750201702118, -0.030298763886094093], [-0.08020232617855072, 0.002508087083697319], [-0.09546002000570297, -0.00384497526101768], [-0.012333234772086143, -0.08537615090608597], [-0.11023037135601044, 0.03892764076590538], [-0.10178550332784653, 0.11551541090011597], [-0.011856150813400745, -0.06627407670021057], [0.09973596781492233, 0.10989551991224289], [0.10793554782867432, -0.06589051336050034], [4.175556750851683e-05, -0.10704988241195679], [0.05313168093562126, -0.026282301172614098], [0.0909329503774643, 0.08810026198625565], [-0.045043494552373886, 0.037592802196741104], [-0.07716203480958939, 0.04939424619078636], [-0.005932506173849106, 0.040327515453100204], [-0.07471343874931335, 0.06733044236898422], [0.08840211480855942, -0.06268322467803955], [0.11380355805158615, -0.0058369264006614685], [0.014515412040054798, -0.0323554165661335], [-0.03638772293925285, -0.12792950868606567], [0.06419788300991058, -0.014949481002986431], [0.03259357437491417, -0.014761896803975105], [-0.03475838154554367, -0.06944048404693604], [0.06423336267471313, -0.11492066830396652], [0.09426242858171463, 0.03352295607328415], [0.0645323321223259, -0.05991242453455925], [0.00960284098982811, -0.04112078994512558], [-0.059477586299180984, 0.007425388786941767], [0.12207888066768646, 0.10696080327033997]], [[0.10867999494075775, 0.0689026266336441], [-0.12407783418893814, -0.10663636773824692], [0.07726267725229263, 0.048442330211400986], [0.0926397293806076, 0.09622710198163986], [0.09827534109354019, -0.019618313759565353], [-0.08688962459564209, 0.031001217663288116], [-0.13170063495635986, -0.01950191520154476], [0.01949121057987213, 0.12058717757463455], [0.04505640268325806, 0.015075248666107655], [-0.0247796680778265, 0.04274633154273033], [0.0666075348854065, 0.08667918294668198], [-0.008668323047459126, -0.0675899088382721], [0.12295721471309662, 0.11464523524045944], [-0.08378508687019348, 0.09545697271823883], [-0.014933607541024685, 0.10120651125907898], [-0.11044449359178543, -0.050481412559747696], [-0.013315643183887005, -0.04840470850467682], [0.05848797410726547, 0.045352671295404434], [-0.07489301264286041, -0.09488193690776825], [0.02550358511507511, -0.017321772873401642], [0.06253530085086823, 0.04471186175942421], [0.07820440828800201, 0.013176940381526947], [-0.012599154375493526, 0.05210163816809654], [0.10887016355991364, 0.024565638974308968], [-0.037740569561719894, 0.07912372052669525], [0.08665990084409714, 0.07263156026601791], [-0.09463240951299667, -0.0763329416513443], [0.002446352271363139, -0.05390661209821701], [-0.07741323858499527, -0.002902445150539279], [-0.0623495951294899, -0.05093180388212204], [0.07102464139461517, -0.04060117155313492], [0.06276670098304749, 0.03307507187128067]], [[-0.03409696742892265, -0.09326839447021484], [0.10811444371938705, 0.059340327978134155], [0.05749841406941414, 0.019100438803434372], [0.07534191012382507, -0.09483133256435394], [0.0029074414633214474, -0.06608745455741882], [0.003637375310063362, 0.008702714927494526], [0.11043570190668106, -0.053332749754190445], [0.02894563600420952, -0.08417171984910965], [-0.01703127846121788, -0.10057132691144943], [-0.09846998751163483, 0.10297051072120667], [0.06770139932632446, -0.02707912027835846], [-0.11261285841464996, -0.13724224269390106], [0.017022542655467987, 0.017035679891705513], [0.07119344919919968, 0.04689770191907883], [0.10222823917865753, 0.045499272644519806], [-0.0195698793977499, 0.002347230212762952], [0.06236712262034416, 0.009402593597769737], [-0.12315457314252853, -0.0840819701552391], [-0.0965060219168663, -0.122012197971344], [-0.07229241728782654, 0.04750995710492134], [-0.07454140484333038, -0.01809762418270111], [-0.02797260880470276, 0.010612649843096733], [0.06465036422014236, -0.08173427730798721], [-0.054501477628946304, 0.05991230905056], [-0.07048074901103973, -0.010048509575426579], [-0.013536634854972363, 0.11511790007352829], [0.04746194928884506, 0.07572628557682037], [-0.10850934684276581, -0.02404388040304184], [0.026143373921513557, -0.004072713200002909], [0.055462006479501724, -0.08372600376605988], [0.033498942852020264, -0.031806331127882004], [-0.13336697220802307, -0.09883972257375717]], [[0.012417761608958244, 0.013578593730926514], [0.045385923236608505, 0.09473469853401184], [-0.019019389525055885, 0.06801959127187729], [-0.07069782167673111, 0.12249638885259628], [-0.025674447417259216, 0.07811673730611801], [-0.059731267392635345, 0.013233838602900505], [-0.028750820085406303, -0.031877338886260986], [0.11535848677158356, 0.05502815172076225], [0.12687617540359497, 0.040176015347242355], [0.06396216154098511, 0.09513393044471741], [-0.08581681549549103, 0.0505232997238636], [0.015370501205325127, -0.02023918367922306], [-0.027016323059797287, -0.0005156428087502718], [-0.05067106708884239, 0.09726305305957794], [0.02838239073753357, -0.1141362115740776], [0.011072047986090183, -0.10385899990797043], [-0.10150408744812012, 0.1170317679643631], [0.008999551646411419, 0.07418901473283768], [0.11356756091117859, -0.019174346700310707], [0.022630102932453156, 0.07660847157239914], [-0.04890076816082001, 0.0914294421672821], [0.0676281601190567, -0.08156287670135498], [0.07003426551818848, 0.10475878417491913], [-0.07867610454559326, -0.04481144994497299], [-0.025049667805433273, 0.004406345542520285], [0.09772833436727524, 0.08654160797595978], [-0.029005425050854683, -0.056220367550849915], [0.08999177813529968, 0.09690720587968826], [-0.1246626228094101, -0.0908128023147583], [0.08451205492019653, 0.061809834092855453], [-0.0725676566362381, -0.13257277011871338], [-0.10571829974651337, -0.03249748796224594]]], "conv2.bias": [-0.09872447699308395, 0.018273284658789635, 0.09856010973453522, 0.10937745124101639, -0.0977766215801239, -0.06890937685966492, 0.08369126915931702, 0.06762009859085083, -0.01224474422633648, 0.10597949475049973, -0.05434203892946243, -0.05539872124791145, 0.03395964205265045, -0.09645204246044159, 0.02938453108072281, 0.062247321009635925, 0.022310996428132057, -0.05652301013469696, -0.08287852257490158, 0.060598742216825485, 0.04308389127254486, -0.06807515025138855, 0.013347855769097805, -0.1080414280295372, -0.05749354511499405, -0.06943055987358093, 0.05812431126832962, -0.06783942133188248, -0.09416083246469498, -0.07865867763757706, 0.0013465123483911157, 0.11484134197235107, -0.10594553500413895, 0.07772509008646011, -0.008101101033389568, 0.04607324302196503, -0.040589962154626846, -0.016900192946195602, -0.07557983696460724, 0.10085972398519516, 0.08374456316232681, 0.09179870784282684, 0.07596433907747269, 0.11950359493494034, -0.10059211403131485, 0.12399141490459442, -0.11367988586425781, 0.014324667863547802, -0.040565960109233856, -0.11412559449672699, -0.10981789976358414, -0.11862450838088989, -0.09601831436157227, -0.025942157953977585, 0.12057989090681076, 0.05225900933146477, -0.02641691453754902, 0.10644601285457611, -0.09556207805871964, -0.09260424226522446, -0.09938520938158035, 0.0003576749877538532, 0.005491700489073992, -0.07702513784170151], "batchnorm2.weight": [1.0328420400619507, 1.0283138751983643, 1.013446569442749, 1.009084939956665, 1.013566493988037, 1.0535556077957153, 1.0485421419143677, 1.0040854215621948, 1.0339157581329346, 1.021733045578003, 1.0184524059295654, 1.0328510999679565, 1.0349516868591309, 1.0110036134719849, 1.0447076559066772, 0.9982722401618958, 1.0124926567077637, 0.9905001521110535, 1.0022392272949219, 1.0121012926101685, 1.0492784976959229, 1.0401562452316284, 1.0217362642288208, 1.0356392860412598, 1.0381451845169067, 1.0023444890975952, 1.0277934074401855, 1.0457271337509155, 1.0650626420974731, 1.0292489528656006, 1.0218026638031006, 1.0149099826812744, 1.0189390182495117, 1.0094921588897705, 0.9950618743896484, 1.0224822759628296, 1.0038350820541382, 0.9918687343597412, 1.0379937887191772, 1.0275506973266602, 0.9973104596138, 1.027764916419983, 1.0538396835327148, 1.0384052991867065, 1.0410186052322388, 1.0192326307296753, 1.0159258842468262, 1.0372847318649292, 1.0128506422042847, 1.0036613941192627, 1.039977788925171, 0.9992294907569885, 0.9959582686424255, 1.0204670429229736, 1.0589128732681274, 1.028449535369873, 1.0293022394180298, 1.049258828163147, 1.014617681503296, 1.0513982772827148, 1.0129834413528442, 1.0029597282409668, 1.0167183876037598, 1.0310065746307373], "batchnorm2.bias": [-0.02468053624033928, -0.015662234276533127, -0.025391528382897377, -0.015123290941119194, -0.020573757588863373, -0.027731532230973244, -0.022536350414156914, -0.028628351166844368, -0.022246653214097023, -0.019047856330871582, -0.0239143967628479, -0.02531892992556095, -0.02343936450779438, -0.022191205993294716, -0.023174338042736053, -0.02422212064266205, -0.017808454111218452, -0.02662099525332451, -0.031198767945170403, -0.0176978912204504, -0.019670885056257248, -0.020673900842666626, -0.028738195076584816, 