{"conv1.weight": [[[-0.5254981517791748, -0.21754592657089233]], [[0.6840394735336304, -0.04290677234530449]], [[-0.2089124619960785, 0.6909985542297363]], [[0.7000560164451599, 0.43002304434776306]], [[-0.006948386784642935, 0.059122368693351746]], [[0.34476935863494873, -0.23262657225131989]], [[0.09584607928991318, 0.7641564607620239]], [[0.520926296710968, -0.0006165419472381473]], [[-0.6745618581771851, -0.5577074289321899]], [[-0.5659819841384888, 0.050449442118406296]], [[0.32310014963150024, 0.8445935249328613]], [[0.7538481950759888, -0.7783501148223877]], [[-0.819183886051178, -0.29112473130226135]], [[0.03746575489640236, 0.10078925639390945]], [[0.8002188205718994, -0.4889487326145172]], [[-0.5633441209793091, 0.24949468672275543]], [[0.3412604331970215, -0.02837188169360161]], [[0.7318915128707886, 0.5614238977432251]], [[-0.5557039976119995, -0.56539386510849]], [[-0.027850445359945297, 0.6498360633850098]], [[-0.4996238648891449, -0.35584500432014465]], [[-0.47214916348457336, 0.05590229853987694]], [[0.31607481837272644, -0.014381553046405315]], [[0.5010249614715576, -0.8001682162284851]], [[-0.5777239799499512, 0.7426339387893677]], [[0.47321268916130066, 0.005435791332274675]], [[0.7544786930084229, 0.16680362820625305]], [[-0.3548026382923126, 0.393282026052475]], [[-0.49436691403388977, 0.42257076501846313]], [[-0.1227586418390274, -0.3734859824180603]], [[-0.008696768432855606, -0.6119670271873474]], [[-0.7754164934158325, -0.1033843457698822]]], "conv1.bias": [0.35631710290908813, 0.15717753767967224, -0.6241867542266846, 0.5677686929702759, 0.44038960337638855, 0.3165898621082306, -0.1671675741672516, 0.24668918550014496, -0.13744530081748962, 0.5553973913192749, 0.45405304431915283, -0.6015107035636902, 0.5218386650085449, 0.037415582686662674, 0.6304829120635986, 0.5898557901382446, -0.3856763541698456, -0.2548522353172302, 0.16520929336547852, 0.05367773398756981, 0.17653237283229828, 0.25529399514198303, -0.3897203505039215, 0.6065089106559753, 0.19525235891342163, -0.2992495894432068, -0.3020671308040619, 0.15715771913528442, 0.7242334485054016, 0.3715999126434326, 0.2268117368221283, 0.654421329498291], "batchnorm1.weight": [1.0, 1.0, 1.0, 1.0, 1.0, 1.0, 1.0, 1.0, 1.0, 1.0, 1.0, 1.0, 1.0, 1.0, 1.0, 1.0, 1.0, 1.0, 1.0, 1.0, 1.0, 1.0, 1.0, 1.0, 1.0, 1.0, 1.0, 1.0, 1.0, 1.0, 1.0, 1.0], "batchnorm1.bias": [0.0, 0.0, 0.0, 0.0, 0.0, 0.0, 0.0, 0.0, 0.0, 0.0, 0.0, 0.0, 0.0, 0.0, 0.0, 0.0, 0.0, 0.0, 0.0, 0.0, 0.0, 0.0, 0.0, 0.0, 0.0, 0.0, 0.0, 0.0, 0.0, 0.0, 0.0, 0.0], "batchnorm1.running_mean": [0.0, 0.0, 0.0, 0.0, 0.0, 0.0, 0.0, 0.0, 0.0, 0.0, 0.0, 0.0, 0.0, 0.0, 0.0, 0.0, 0.0, 0.0, 0.0, 0.0, 0.0, 0.0, 0.0, 0.0, 0.0, 0.0, 0.0, 0.0, 0.0, 0.0, 0.0, 0.0], "batchnorm1.running_var": [1.0, 1.0, 1.0, 1.0, 1.0, 1.0, 1.0, 1.0, 1.0, 1.0, 1.0, 1.0, 1.0, 1.0, 1.0, 1.0, 1.0, 1.0, 1.0, 1.0, 1.0, 1.0, 1.0, 1.0, 1.0, 1.0, 1.0, 1.0, 1.0, 1.0, 1.0, 1.0], "batchnorm1.num_batches_tracked": 0, "conv2.weight": [[[0.08737748116254807, 0.03246457129716873], [-0.17649951577186584, 0.0027191273402422667], [-0.0297215785831213, -0.15909969806671143], [-0.018791763111948967, -0.014710895717144012], [0.022224200889468193, 0.01542661339044571], [-0.10114779323339462, 0.12444834411144257], [-0.005469401832669973, -0.17858918011188507], [-0.1340486705303192, 0.12285051494836807], [0.11708097904920578, -0.006250371690839529], [0.0980791375041008, -0.0090957535430789], [0.1125272884964943, -0.0932261273264885], [-0.17036689817905426, 0.15973396599292755], [0.16726678609848022, -0.02629564143717289], [0.11633843928575516, -0.08298136293888092], [-0.07710335403680801, 0.10303588211536407], [-0.07143066078424454, -0.16071754693984985], [-0.14509737491607666, 0.14415913820266724], [-0.03624061495065689, 0.02957356534898281], [0.03056246228516102, -0.05243841931223869], [0.08556191623210907, 0.010704743675887585], [-0.0068353512324392796, 0.0467299222946167], [0.15345291793346405, -0.14436067640781403], [0.024823490530252457, 0.008893720805644989], [-0.09708712249994278, 0.12389600276947021], [-0.04229755699634552, -0.17203466594219208], [-0.15709610283374786, -0.008306833915412426], [-0.02748197317123413, 0.16441652178764343], [0.07077579200267792, 0.04485618323087692], [0.06725739687681198, 0.03727700188755989], [0.021695049479603767, -0.05647565796971321], [0.011648610234260559, 0.14270693063735962], [0.06166105717420578, -0.1694791316986084]], [[0.025085994973778725, -0.07047373801469803], [0.011648131534457207, -0.01489083282649517], [0.06692206114530563, 0.1157069280743599], [0.002334252232685685, 0.07382450252771378], [0.058327142149209976, 0.031105298548936844], [-0.059564270079135895, -0.093459852039814], [-0.09719241410493851, 0.003508192952722311], [-0.08088849484920502, 0.11566350609064102], [-0.07794232666492462, -0.10291941463947296], [-0.0560014434158802, 0.014880572445690632], [-0.046316757798194885, 0.07363191992044449], [0.06102745980024338, 0.041195955127477646], [-0.0802861899137497, 0.014180353842675686], [-0.0655670166015625, -0.04123948514461517], [0.09843190014362335, 0.08004672080278397], [-0.04631917551159859, 0.0019387812353670597], [0.1318260282278061, 0.04471974074840546], [0.15811660885810852, 0.10019055008888245], [0.03354750573635101, -0.12065023183822632], [0.09200361371040344, -0.04147667437791824], [-0.03293156623840332, -0.031150447204709053], [0.10002007335424423, -0.028649192303419113], [-0.05639083310961723, 0.08032532781362534], [0.04950699955224991, -0.13055013120174408], [-0.032056353986263275, 0.070656418800354], [-0.030435927212238312, -0.008521949872374535], [0.021159015595912933, -0.039300743490457535], [0.04805365949869156, 0.10896684229373932], [-0.10510488599538803, 0.015176737681031227], [-0.13931560516357422, -0.11583742499351501], [-0.13526202738285065, -0.06434915959835052], [0.0030200444161891937, 0.01600143499672413]], [[0.021387822926044464, 0.13095493614673615], [-0.15472733974456787, 0.026343107223510742], [0.03238913044333458, 0.05326738581061363], [-0.1443771868944168, 0.0646863728761673], [0.12354819476604462, -0.05320412293076515], [-0.1282610446214676, 0.038724977523088455], [-0.0863245278596878, -0.11751536279916763], [-0.08845629543066025, 0.08868449926376343], [0.062283460050821304, -0.03906017541885376], [0.09313223510980606, -0.06356674432754517], [0.017363686114549637, -0.12376692146062851], [-0.029877489432692528, 0.16075488924980164], [-0.03086245059967041, 0.13328689336776733], [-0.039791226387023926, -0.029078690335154533], [-0.12088637053966522, 0.10227081924676895], [-0.01605970598757267, -0.12814827263355255], [0.061505027115345, -0.07402460277080536], [0.06843936443328857, -0.10908374935388565], [0.13281571865081787, 0.16085997223854065], [0.13169115781784058, -0.167301207780838], [-0.0944216176867485, 0.023956825956702232], [0.08611178398132324, -0.041614022105932236], [-0.030217254534363747, 0.013773844577372074], [-0.10834250599145889, 0.13585694134235382], [-0.02816254086792469, 0.04143074154853821], [-0.13149359822273254, -0.021879013627767563], [-0.12064479291439056, -0.008535459637641907], [-0.04503666236996651, 0.009388802573084831], [-0.013630925677716732, 0.04951529949903488], [-0.10400155186653137, 0.018527774140238762], [0.035410087555646896, 0.05440134555101395], [0.1472826451063156, 0.09165962785482407]], [[-0.13390536606311798, -0.1495213806629181], [0.04435867816209793, -0.0017204390605911613], [0.09532953053712845, -0.04782465472817421], [0.020677145570516586, 0.05162891745567322], [0.12071696668863297, 0.05292706564068794], [0.054031021893024445, 0.13798289000988007], [-0.012979121878743172, 0.055176328867673874], [0.1023312658071518, 0.08560720831155777], [-0.07360365986824036, -0.0580347441136837], [0.06069187447428703, -0.1361963301897049], [0.11780156940221786, 0.07596535980701447], [-0.0782586857676506, -0.04729258269071579], [-0.16043919324874878, -0.1045503243803978], [0.06845011562108994, 0.02440722845494747], [-0.08438756316900253, -0.062080759555101395], [-0.1046973466873169, 0.09440569579601288], [-0.10698158293962479, 0.06377897411584854], [-0.0032175935339182615, 0.08243431895971298], [-0.07666576653718948, -0.09013887494802475], [-0.051962919533252716, -0.014009281061589718], [-0.005461318884044886, -0.11815018951892853], [-0.02571040578186512, -0.1353236883878708], [0.008779706433415413, 0.005199423059821129], [-0.019818564876914024, 0.0905204564332962], [0.11988423764705658, -0.12446384876966476], [-0.04958189278841019, -0.0129848662763834], [0.03321680426597595, 0.08129347860813141], [-0.06531330198049545, 0.023708229884505272], [0.0036401841789484024, -0.10846198350191116], [0.08021864295005798, -0.08422865718603134], [0.08066980540752411, 0.014217785559594631], [0.041701436042785645, -0.04410966485738754]], [[0.12036779522895813, -0.07493840157985687], [-0.16863104701042175, 0.00013113343447912484], [0.04633016511797905, 0.07447100430727005], [-0.04352876916527748, 0.047916777431964874], [0.018405083566904068, -0.05357019603252411], [-0.09167107194662094, -0.09742680937051773], [-0.04663966968655586, -0.029798606410622597], [0.0733000859618187, 0.09497754275798798], [0.05303557962179184, 0.039903540164232254], [0.10098881274461746, -0.029582370072603226], [-0.13556517660617828, 0.019516313448548317], [0.01180711854249239, -0.10610087960958481], [0.05143970251083374, -0.004916444420814514], [0.1003270074725151, 0.1097218468785286], [0.04941512271761894, -0.11251196265220642], [0.10956829786300659, 0.07519814372062683], [-0.018168462440371513, -0.049633778631687164], [-0.12963898479938507, 0.05425131693482399], [0.14722315967082977, -0.09458614885807037], [0.1061830148100853, -0.016792036592960358], [-0.01102452538907528, -0.036765240132808685], [-0.014340194873511791, 0.09474627673625946], [-0.03885229676961899, -0.08965805917978287], [-0.10326728224754333, 0.03722352534532547], [0.06099668890237808, 0.014106453396379948], [-0.014329332858324051, 0.04756028205156326], [-0.14798080921173096, -0.026264099404215813], [0.008628210052847862, 0.0913485661149025], [0.025698909536004066, 0.11564425379037857], [-0.11202505975961685, 0.0024649598635733128], [-0.013779165223240852, -0.06354343891143799], [0.12962211668491364, -0.011868846602737904]], [[-0.01941548101603985, -0.11365964263677597], [0.10911176353693008, 0.08708397299051285], [0.1377357691526413, 0.04667946696281433], [0.03665594384074211, -0.053564295172691345], [-0.04815652593970299, 0.016566656529903412], [-0.10418661683797836, 0.06843506544828415], [-0.07703793048858643, -0.06766361743211746], [0.11821545660495758, -0.0443057157099247], [-0.04636121168732643, -0.016747212037444115], [0.022651121020317078, 0.032898902893066406], [0.12047893553972244, -0.15931539237499237], [0.06890087574720383, -0.030228840187191963], [-0.007459282409399748, 0.08091584593057632], [0.01063655037432909, 0.026297055184841156], [0.13980506360530853, 0.13043032586574554], [-0.05873197689652443, -0.14247678220272064], [0.002124172868207097, -0.06826933473348618], [0.08857627213001251, 0.0042823744006454945], [-0.12762755155563354, 0.06838466972112656], [0.00642819982022047, -0.1395140141248703], [-0.04459815472364426, 0.05064551904797554], [-0.1262078881263733, 0.03592450171709061], [-0.08418190479278564, 0.05925464630126953], [-0.0400056317448616, 0.07657043635845184], [-0.02985512651503086, -0.0731872171163559], [0.08257827907800674, -0.07997620850801468], [0.16832412779331207, 0.06307969987392426], [-0.12430430948734283, 0.0740320235490799], [-0.1230797991156578, -0.10231763124465942], [-0.0011189760407432914, -0.038961805403232574], [-0.02859606221318245, 0.054664261639118195], [-0.022730184718966484, -0.11429095268249512]], [[0.028917593881487846, 0.047087714076042175], [0.0531783364713192, 0.110520139336586], [0.07096334546804428, 0.0038361656479537487], [0.03608328849077225, 0.10051614791154861], [-0.08409082144498825, -0.09990063309669495], [0.05786820128560066, 0.02443533204495907], [0.08705522865056992, 0.0633445754647255], [-0.01843508891761303, 0.06114592403173447], [-0.04729972779750824, -0.13528287410736084], [-0.09109140932559967, -0.0380464605987072], [0.09689473360776901, 0.15931041538715363], [-0.06761705875396729, -0.11595075577497482], [0.022890662774443626, -0.04455804452300072], [-0.024390876293182373, 0.04251183941960335], [-0.06355475634336472, 0.05072285979986191], [0.09636615961790085, 0.025155838578939438], [0.09474692493677139, -0.07334405928850174], [-0.011218536645174026, -0.02159910276532173], [-0.041265878826379776, -0.12949199974536896], [0.050377216190099716, 0.026284394785761833], [-0.12071266025304794, -0.004699457436800003], [-0.03761696815490723, -0.08423230051994324], [-0.04275251552462578, 0.06919551640748978], [0.028286555781960487, 0.07775390893220901], [0.09186059981584549, 0.10694301128387451], [-0.05174664035439491, 0.09665714204311371], [-0.037770871073007584, -0.04108607396483421], [0.11422864347696304, 0.07319287955760956], [-0.03190179169178009, -0.014650439843535423], [0.041107650846242905, -0.07068488746881485], [-0.034265484660863876, -0.009047363884747028], [-0.01781921088695526, 0.015387740917503834]], [[0.0020835078321397305, -0.004101862665265799], [0.09209398180246353, 0.021412743255496025], [-0.029555464163422585, -0.006755279377102852], [-0.06036297604441643, 0.13588376343250275], [0.012787408195436, -0.056235529482364655], [-0.05556074157357216, -0.0534866601228714], [0.16731512546539307, -0.010281447321176529], [0.0862576812505722, 0.022185832262039185], [-0.0840182974934578, -0.11908672004938126], [0.047328654676675797, -0.003854280337691307], [0.04027236998081207, 0.008036002516746521], [-0.05737742781639099, 0.10155896097421646], [-0.09889224916696548, -0.13305126130580902], [-0.04714540019631386, -0.04725223407149315], [-0.018795613199472427, -0.03242011368274689], [-0.11011331528425217, 0.07097508758306503], [0.025470180436968803, 0.050476763397455215], [0.1398547887802124, 0.06769862025976181], [-0.021469248458743095, 0.0057639204896986485], [0.1524752527475357, 0.04022790864109993], [0.061740364879369736, 0.028218431398272514], [-0.026724111288785934, 0.03301067277789116], [0.036226287484169006, -0.06302317976951599], [0.06591974943876266, 0.13977889716625214], [-0.06906180083751678, -0.10060998797416687], [0.08303394168615341, 0.04777248576283455], [0.08709632605314255, 0.08348757028579712], [-0.09979058802127838, 0.03280330076813698], [0.001485159038566053, -0.12136045098304749], [-0.0814235582947731, -0.10258848965167999], [-0.0028097822796553373, 0.005047802347689867], [-0.01051315013319254, 0.00902091059833765]], [[-0.13869823515415192, 0.06448650360107422], [0.02020440436899662, -0.03534192591905594], [0.03003239445388317, 0.12375126779079437], [0.054827041923999786, 0.10235913842916489], [-0.07256864756345749, 0.021539058536291122], [-0.050254110246896744, -0.08725853264331818], [0.11119434982538223, 0.15141721069812775], [0.019111182540655136, 0.03923383727669716], [-0.13718099892139435, -0.1171703040599823], [0.06299695372581482, 0.0019621483515948057], [-0.0031273269560188055, -0.05791812762618065], [-0.04226410388946533, -0.08044347167015076], [-0.0034364552702754736, -0.07206985354423523], [0.07460654526948929, 0.07159452885389328], [0.08344504982233047, 0.11778894066810608], [-0.07467224448919296, -0.12420893460512161], [0.09019514173269272, 0.06589999049901962], [0.11341162770986557, -0.07904636114835739], [-0.0987374410033226, -0.022018734365701675], [-0.02437109686434269, 0.0030896845273673534], [-0.003028344362974167, 0.06774930655956268], [-0.08142352849245071, -0.06585212796926498], [0.03323352336883545, 0.08393236994743347], [0.00114677962847054, -0.026639331132173538], [-0.05848230794072151, -0.012466293759644032], [0.12746433913707733, 0.0345102921128273], [-0.03849789872765541, 0.07170561701059341], [0.03966961428523064, 0.10031463205814362], [-0.10841014236211777, 0.0009149712859652936], [0.05139123275876045, -0.02964458242058754], [-0.032718073576688766, 0.010991386137902737], [0.008850198239088058, -0.08660304546356201]], [[-0.10024235397577286, 0.014664548449218273], [-0.10534556955099106, -0.1062961220741272], [-0.12255509942770004, 0.01978595182299614], [-0.13708214461803436, 0.08525890856981277], [-0.004044752102345228, 0.0886538028717041], [-0.10668308287858963, 0.10069293528795242], [0.009120271541178226, 0.037155959755182266], [0.009254839271306992, 0.08664878457784653], [0.07286085933446884, 0.03839220106601715], [0.04492736980319023, -0.0030465146992355585], [-0.07206534594297409, 0.0313335619866848], [-0.05293569341301918, -0.08983362466096878], [-0.06740137189626694, 0.08448219299316406], [-0.07650846987962723, -0.11071141064167023], [-0.057946525514125824, -0.008093707263469696], [0.09075582027435303, -0.04183612018823624], [-0.07820859551429749, 0.04819748178124428], [0.07352688908576965, -0.14633050560951233], [0.020045973360538483, -0.059871163219213486], [0.018929170444607735, -0.1584656685590744], [-0.06173645332455635, 0.10304055362939835], [0.12810994684696198, -0.014300862327218056], [-0.04278864711523056, -0.04870042949914932], [0.09125250577926636, 0.026383493095636368], [-0.12626038491725922, -0.08593152463436127], [-0.07108338177204132, -0.11005046963691711], [-0.1288621425628662, -0.02066972851753235], [-0.08536205440759659, 0.05538610368967056], [-0.08519917726516724, -0.07184663414955139], [0.07469423860311508, 0.09351713210344315], [0.05724605545401573, 0.12019127607345581], [0.016529282554984093, -0.11237504333257675]], [[-0.015202592127025127, -0.144529327750206], [0.09045252948999405, -0.06112327799201012], [0.0018455146346241236, -0.030074521899223328], [-0.0554240345954895, 0.09949976950883865], [0.10964443534612656, -0.017468171194195747], [-0.10961896926164627, 0.07567782700061798], [0.06219051778316498, -0.09068236500024796], [0.1083720400929451, 0.012827370315790176], [0.019548004493117332, 0.0022610367741435766], [-0.03219965100288391, -0.003003572579473257], [0.1737324446439743, 0.004551328718662262], [-0.141752228140831, 0.07274288684129715], [-0.07398658245801926, 0.04564856365323067], [0.06397943198680878, 0.04198731482028961], [-0.1434246003627777, -0.0683557465672493], [-0.05492021515965462, -0.14691521227359772], [0.05711732804775238, 0.049507927149534225], [0.1071794182062149, 0.09642389416694641], [-0.059071604162454605, -0.037411171942949295], [0.04417761042714119, 0.09376528859138489], [-0.06274163722991943, -0.15068860352039337], [0.12246979027986526, -0.018746310845017433], [-0.03868852183222771, -0.06662873923778534], [-0.012267130427062511, 0.1187809631228447], [-0.00834321603178978, -0.10663234442472458], [-0.06604832410812378, 0.11107995361089706], [0.10545871406793594, 0.1481046974658966], [0.03523525223135948, -0.015012322925031185], [0.14518259465694427, -0.047040905803442], [-0.08362317830324173, -0.13408266007900238], [-0.1570533663034439, 0.015644054859876633], [-0.0729861855506897, -0.134979248046875]], [[-0.04964381456375122, 0.0339178629219532], [-0.0816602110862732, 0.03468753769993782], [0.11137475818395615, 0.08003458380699158], [0.06942740082740784, 0.15803784132003784], [0.11082451790571213, 0.062132030725479126], [-0.1282060295343399, -0.08743825554847717], [0.027481749653816223, 0.10252142697572708], [-0.08345881849527359, -0.04166708514094353], [0.009707817807793617, -0.026485005393624306], [0.09460219740867615, -0.05713541433215141], [0.09286783635616302, 0.15578758716583252], [0.03680542856454849, 0.08924555778503418], [0.112538643181324, -0.04586324840784073], [-0.11419018357992172, 0.07680926471948624], [0.007058021146804094, 0.07364174723625183], [0.07565072178840637, -0.1488756388425827], [-0.06015859916806221, 0.03807985410094261], [0.12345366925001144, 0.15243329107761383], [-0.05921616777777672, -0.11992395669221878], [0.1536702662706375, 0.00911168847233057], [-0.09859591722488403, -0.18301285803318024], [-0.0717112123966217, -0.16507203876972198], [-0.14184129238128662, 0.02379709854722023], [-0.18330582976341248, 0.11311588436365128], [0.057913124561309814, -0.03218001872301102], [-0.10495917499065399, -0.05141555145382881], [-0.11549203842878342, 0.026677008718252182], [-0.04063630476593971, -0.06228281185030937], [0.053754791617393494, -0.05615224689245224], [-0.010011105798184872, 0.03903312236070633], [0.03665250539779663, -0.14230488240718842], [0.06250250339508057, -0.004097482655197382]], [[0.07418009638786316, -0.027512326836586], [-0.09500438719987869, 0.026430796831846237], [-0.0035544384736567736, 0.047533754259347916], [0.10461995750665665, 0.16431643068790436], [0.06307470798492432, -0.08963777124881744], [-0.039510104805231094, 0.07053489238023758], [-0.056369028985500336, 0.10240551084280014], [0.017531724646687508, -0.06019210442900658], [-0.06831544637680054, -0.15684373676776886], [0.059899408370256424, -0.06400132179260254], [0.11253679543733597, 0.09174514561891556], [0.06987135857343674, -0.14826567471027374], [-0.08773940056562424, -0.018237197771668434], [0.04446826130151749, -0.02931087836623192], [0.055146727710962296, -0.043712131679058075], [-0.01739220693707466, -0.1197214424610138], [-0.06101899966597557, -0.050914693623781204], [-0.028169255703687668, 0.15800437331199646], [-0.1571243405342102, 0.021601080894470215], [-0.04541601985692978, -0.049411382526159286], [-0.05093761160969734, -0.004348160699009895], [0.007449324242770672, -0.002687568310648203], [0.08987436443567276, -0.0480874739587307], [0.08798465877771378, -0.12365113943815231], [0.10085991770029068, 0.03493725508451462], [-0.09120044857263565, 0.11810600012540817], [0.125528022646904, -0.018329337239265442], [0.09644699841737747, 0.013456391170620918], [0.09222102910280228, -0.0982956513762474], [-0.0772833451628685, -0.14689119160175323], [-0.10376837104558945, 0.04475311189889908], [-0.015784569084644318, -0.06280037015676498]], [[-0.09043987840414047, -0.079094298183918], [0.1303643435239792, -0.16449928283691406], [0.009899458847939968, 0.13430848717689514], [0.10330728441476822, -0.09022163599729538], [-0.0016801579622551799, 0.05293570086359978], [0.11486999690532684, -0.05609225481748581], [-0.059235844761133194, 0.08489183336496353], [-0.07835051417350769, -0.12734836339950562], [-0.07729809731245041, -0.005764325149357319], [-0.027081336826086044, -0.01986580342054367], [0.0503900982439518, -0.02029760181903839], [0.15161775052547455, -0.20567765831947327], [-0.08322791755199432, 0.13195255398750305], [-0.09348861128091812, -0.102842316031456], [-0.005349033046513796, -0.14961914718151093], [0.019884927198290825, 0.16195179522037506], [0.06864629685878754, -0.03128352016210556], [-0.08373776823282242, -0.09378468990325928], [0.018986953422427177, -0.041617024689912796], [-0.05634972080588341, 0.08692549914121628], [0.1091974750161171, 0.02779160812497139], [-0.15475061535835266, 0.1690792590379715], [0.021151484921574593, 0.012006319127976894], [0.06978321820497513, -0.13792216777801514], [-0.13367126882076263, 0.03881796821951866], [0.11936787515878677, -0.16125638782978058], [0.1183498278260231, 0.05282848700881004], [0.04105691239237785, -0.03843756020069122], [-0.17971257865428925, 0.10621030628681183], [0.14648647606372833, 0.03345409035682678], [0.16239595413208008, 0.002659090328961611], [0.06890468299388885, -0.03685759752988815]], [[0.059518396854400635, -0.024480920284986496], [-0.02860116958618164, -0.14371956884860992], [-0.16712747514247894, -0.03429235890507698], [-0.06333430856466293, -0.06806734949350357], [0.08350598067045212, 0.12543940544128418], [-0.08490206301212311, 0.07848714292049408], [-0.11617390066385269, 0.06866633892059326], [0.005114685278385878, -0.048947155475616455], [0.14942924678325653, 0.11867455393075943], [0.02923031523823738, 0.10832982510328293], [-0.10861638188362122, 0.09306517243385315], [0.10480833053588867, -0.012466338463127613], [0.07190822809934616, 0.05479862540960312], [-0.032134879380464554, 0.051290541887283325], [0.16303808987140656, -0.15770316123962402], [-0.13271844387054443, 0.11257438361644745], [-0.05021198093891144, -0.05224575102329254], [-0.1809282749891281, -0.0023435584735125303], [0.12997911870479584, 0.013839204795658588], [-0.07184239476919174, -0.020451702177524567], [0.04301490634679794, 0.11135520040988922], [-0.035685114562511444, -0.05041612312197685], [-0.025564242154359818, 0.06661564111709595], [0.1003248319029808, -0.10210774093866348], [0.008541479706764221, 0.07500346750020981], [0.08382128924131393, -0.10519255697727203], [-0.09702878445386887, -0.07391320914030075], [-0.04120452329516411, 0.10880899429321289], [0.0388958565890789, -0.037124887108802795], [0.057291071861982346, -0.056881383061409], [0.09948081523180008, -0.004073378164321184], [-0.07846104353666306, 0.07638492435216904]], [[-0.03221835196018219, -0.14632265269756317], [-0.04549791291356087, 0.06564360111951828], [0.15585434436798096, 0.032578885555267334], [0.022286968305706978, 0.11829061061143875], [-0.06860299408435822, 0.01241416297852993], [-0.05447937548160553, 0.0999407023191452], [0.013653217814862728, 0.023247096687555313], [0.015856921672821045, 0.031455449759960175], [-0.024958906695246696, 0.01602003537118435], [0.07731185853481293, -0.09618215262889862], [0.13858884572982788, -0.042086709290742874], [-0.18987415730953217, 0.16385424137115479], [0.10175121575593948, -0.09930495917797089], [-0.07761014997959137, 0.10420488566160202], [-0.09116465598344803, 0.13436028361320496], [0.1649177074432373, -0.0393109992146492], [0.0774218887090683, 0.1331600844860077], [-0.09788448363542557, -0.06479047983884811], [-2.231645157735329e-05, -0.16048474609851837], [-0.06435748189687729, -0.14102952182292938], [-0.12397737056016922, 0.0240507610142231], [0.11622796207666397, -0.12487438321113586], [0.0991620123386383, 0.07432954013347626], [-0.12268982827663422, 0.0020843560341745615], [0.04302287846803665, -0.044759660959243774], [-0.1303744614124298, -0.04666977748274803], [-0.06582938879728317, 0.05623418092727661], [0.011554704047739506, 0.042766597121953964], [0.11712133139371872, -0.026765286922454834], [-0.04810222238302231, -0.09085866808891296], [-0.16928592324256897, 0.07825899124145508], [-0.04300406947731972, 0.047511886805295944]], [[-0.13494549691677094, -0.07728800922632217], [0.0872606411576271, 0.16539856791496277], [0.1266724020242691, -0.14317815005779266], [0.1501372903585434, 0.09056749194860458], [0.0010955772595480084, -0.07928397506475449], [-0.12533986568450928, 0.04943380877375603], [0.004400948528200388, -0.034748777747154236], [-0.076218381524086, -0.01016288623213768], [0.058868810534477234, -0.03593241050839424], [-0.07782716304063797, -0.059248555451631546], [0.15495367348194122, -0.028709812089800835], [0.04921722039580345, 0.10468395799398422], [-0.04299747571349144, -0.15153107047080994], [0.013130533508956432, 0.03742953762412071], [-0.08772596716880798, 0.05467204749584198], [-0.07537247985601425, -0.122750423848629], [-0.08755584806203842, 0.08785618841648102], [0.05096467211842537, 0.08648485690355301], [-0.1536741405725479, -0.04204757511615753], [-0.008687454275786877, 0.036353133618831635], [-0.033543407917022705, -0.05401279404759407], [0.10112736374139786, -0.05617208033800125], [-0.080110102891922, -0.05338878929615021], [-0.0377061627805233, 0.04460453987121582], [0.08197060227394104, -0.04801327735185623], [0.04569536820054054, 0.1185888722538948], [0.15092015266418457, 0.17144867777824402], [0.15172144770622253, -0.12816350162029266], [-0.0030156008433550596, 0.012968816794455051], [-0.12353353947401047, -0.0510585643351078], [0.06578509509563446, 0.12491952627897263], [0.009413328021764755, -0.14132851362228394]], [[-0.09288158267736435, -0.09173545241355896], [0.023328730836510658, 0.11929008364677429], [0.1475490778684616, -0.08735357969999313], [0.04599640145897865, -0.0790257379412651], [-0.1048111692070961, 0.09552855789661407], [0.06269333511590958, -0.03300590440630913], [0.15156219899654388, 0.12798632681369781], [-0.08321141451597214, 0.07962141931056976], [-0.09317180514335632, -0.12053549289703369], [0.010055674239993095, -0.11522922664880753], [0.10246583819389343, 0.011230145581066608], [0.07695955783128738, -0.11644073575735092], [-0.13581645488739014, -0.021360602229833603], [-0.10068247467279434, -0.05204690247774124], [-0.05724887177348137, -0.04581303521990776], [0.010205354541540146, 0.043297749012708664], [-0.08012930303812027, 0.06603631377220154], [0.13279613852500916, 0.15661920607089996], [-0.021505694836378098, 0.04041488468647003], [0.08150496333837509, -0.028294293209910393], [0.08610491454601288, -0.04257754608988762], [-0.004707384388893843, -0.07929538935422897], [0.09609251469373703, -0.06190040335059166], [0.00013308602501638234, -0.01584406942129135], [0.027661046013236046, 0.06492099910974503], [-0.11152976751327515, -0.06383509188890457], [-0.08131035417318344, 0.0751577764749527], [-0.06573174893856049, -0.04710293188691139], [0.029588764533400536, -0.017804699018597603], [-0.12400859594345093, 0.04591876268386841], [-0.07194246351718903, -0.14664438366889954], [0.07743293792009354, -0.04166034981608391]], [[0.15188761055469513, -0.03010103851556778], [0.0006308361771516502, 0.09049084782600403], [0.11536118388175964, 0.05781835317611694], [-0.16440792381763458, 0.15164054930210114], [-0.06578938663005829, 0.08921603113412857], [-0.12824933230876923, 0.05529182404279709], [-0.020419366657733917, 0.01785522885620594], [-0.13154645264148712, -0.01533056516200304], [-0.02009405940771103, -0.09910956770181656], [-0.008762679994106293, -0.09197317063808441], [0.07231370359659195, -0.034945521503686905], [-0.17805923521518707, 0.015188836492598057], [0.1557236611843109, -0.009711946360766888], [0.04558682441711426, -0.06671910732984543], [-0.17639295756816864, 0.057918746024370193], [0.0004549325385596603, 0.026184555143117905], [0.060110896825790405, -0.022642914205789566], [-0.06928715109825134, 0.006271746475249529], [-0.014435372315347195, 0.10267791897058487], [-0.04944198951125145, -0.013087796047329903], [0.04788552597165108, -0.04855634272098541], [0.16093993186950684, -0.0745222419500351], [0.0041664778254926205, 0.044634345918893814], [-0.14787279069423676, 0.12683214247226715], [0.15806280076503754, 0.03818897902965546], [-0.09364436566829681, 0.07980172336101532], [-0.05898970365524292, 0.01878548040986061], [-0.04027900844812393, -0.01971898414194584], [0.11131765693426132, -0.008620662614703178], [0.06051097810268402, 0.0141567662358284], [-0.10220616310834885, -0.008725563064217567], [0.17611542344093323, -0.04771782085299492]], [[0.06052757427096367, 0.11194102466106415], [0.0976247638463974, -0.12392345070838928], [-0.12443426996469498, 0.13421593606472015], [0.07876180857419968, -0.009882476180791855], [-0.12121978402137756, 0.0502767451107502], [0.10661974549293518, 0.08955708891153336], [0.005990571342408657, 0.12483833730220795], [0.08686280250549316, -0.027342798188328743], [0.04965977370738983, 0.12191672623157501], [0.12841592729091644, 0.15409383177757263], [-0.17634671926498413, 0.09960117936134338], [0.007277052849531174, -0.022521832957863808], [0.13210873305797577, 0.14688822627067566], [-0.04484238475561142, 0.008597125299274921], [-0.09437769651412964, -0.052280113101005554], [-0.00710707250982523, 0.15604089200496674], [0.03611626476049423, 0.03727411851286888], [-0.047929588705301285, -0.10938017815351486], [-0.04255615919828415, 0.030783185735344887], [-0.15584440529346466, 0.13153068721294403], [0.07712981104850769, -0.06633017957210541], [0.03890375420451164, 0.024328045547008514], [0.0057423836551606655, -0.031761717051267624], [0.03899295628070831, -0.13889038562774658], [0.07984934747219086, 0.12373857945203781], [-0.0418136827647686, 0.03350749984383583], [-0.15641644597053528, -0.061825547367334366], [0.02944282256066799, -0.011089655570685863], [0.04841986298561096, -0.08068746328353882], [-0.05632982775568962, -0.04111279174685478], [0.1470661461353302, -0.03154967725276947], [0.11554942280054092, 0.058060016483068466]], [[-0.10451658070087433, -0.15236911177635193], [0.03805289790034294, -0.022152084857225418], [-0.0324888750910759, -0.07582797855138779], [0.10375113785266876, -0.00590349780395627], [-0.10663337260484695, -0.018720807507634163], [-0.07230567187070847, 0.020108232274651527], [0.060437336564064026, 0.12466500699520111], [-0.10565311461687088, 0.04595556855201721], [0.05510517954826355, 0.032264795154333115], [0.08879002183675766, -0.1424182504415512], [-0.06678176671266556, 0.012112564407289028], [-0.1310286968946457, 0.14206522703170776], [-0.020138664171099663, -0.16434675455093384], [0.0882260724902153, 0.02451660856604576], [-0.01150475163012743, 0.05268976464867592], [-0.09749176353216171, -0.13431915640830994], [0.09509531408548355, -0.08485051989555359], [0.15932206809520721, -0.026680687442421913], [-0.09153671562671661, -0.11652980744838715], [0.08554574847221375, 0.061644501984119415], [-0.09085061401128769, -0.09787361323833466], [0.060770511627197266, -0.013938842341303825], [0.12184379249811172, 0.040707655251026154], [-0.13995866477489471, -0.0820879191160202], [0.048467133194208145, 0.02767265774309635], [-0.10549075901508331, 0.12334154546260834], [-0.033182673156261444, 0.1486932784318924], [0.13886705040931702, -0.05339641496539116], [-0.04502222314476967, 0.10266712307929993], [-0.040354739874601364, -0.04233810678124428], [-0.08280128985643387, -0.12086225301027298], [0.038363177329301834, -0.044945959001779556]], [[0.10968638956546783, -0.004046767950057983], [0.0993487685918808, -0.012833714485168457], [-0.03490520268678665, -0.05717914178967476], [0.038855861872434616, 0.07372816652059555], [-0.0632142499089241, -0.07547104358673096], [0.010923943482339382, 0.025952588766813278], [0.13732336461544037, -0.12095626443624496], [0.03490184247493744, -0.06298212707042694], [0.03128324821591377, 0.03917465731501579], [0.10468874126672745, 0.027158387005329132], [0.03249519318342209, 0.047516100108623505], [0.04881778359413147, 0.17317357659339905], [0.12014009058475494, -0.060121238231658936], [0.0931292250752449, -0.11016707867383957], [-0.11037832498550415, -0.059012170881032944], [0.06503419578075409, -0.0023496113717556], [-0.002143995836377144, 0.08819777518510818], [0.12516699731349945, 0.0501578263938427], [-0.1121356263756752, -0.08262602239847183], [-0.005105027463287115, 0.041165392845869064], [-0.1389300674200058, 0.029934478923678398], [-0.02838955819606781, -0.116980642080307], [0.038799386471509933, 0.040398284792900085], [-0.13467352092266083, 0.05872677266597748], [0.04875759407877922, -0.13708189129829407], [0.07219961285591125, -0.08433344960212708], [-0.08042953908443451, 0.08311793953180313], [0.12292197346687317, 0.04615253210067749], [-0.0904485359787941, -0.16362440586090088], [-0.13145186007022858, 0.10512705147266388], [0.021980924531817436, 0.045066654682159424], [0.03180037811398506, 0.023577993735671043]], [[-0.03623468801379204, -0.06355650722980499], [0.05805055424571037, 0.16836297512054443], [-0.002925632055848837, -0.022671159356832504], [-0.04680108651518822, -0.014842753298580647], [0.077382393181324, -0.08245519548654556], [-0.028697850182652473, 0.13521119952201843], [0.053719185292720795, 0.006146371364593506], [0.08393055945634842, 0.03452621027827263], [-0.15355931222438812, -0.013857700861990452], [-0.07331530004739761, 0.054050859063863754], [0.005366700701415539, -0.013333478011190891], [-0.16927683353424072, 0.1305011361837387], [-0.07731050997972488, -0.033692989498376846], [0.027441684156656265, -0.06321917474269867], [-0.11569076776504517, 0.14695702493190765], [0.026318904012441635, -0.1583423912525177], [0.09711878001689911, 0.09187696129083633], [0.024989528581500053, 0.10515034198760986], [0.001875355956144631, -0.11514506489038467], [0.18140965700149536, -0.024267319589853287], [0.08957821130752563, -0.03329598158597946], [0.1262182593345642, 0.02219865843653679], [-0.0697723925113678, -0.028207864612340927], [-0.16034086048603058, 0.012216778472065926], [0.07833463698625565, 0.02518373727798462], [0.060301851481199265, 0.0848507359623909], [-0.04866310954093933, -0.025824720039963722], [0.16571441292762756, 0.011276704259216785], [-0.0338929146528244, -0.04165535792708397], [-0.01416919194161892, 0.08370395749807358], [0.023117022588849068, 0.06998219341039658], [-0.03366795554757118, -0.08392278105020523]], [[-0.12629567086696625, 0.09337825328111649], [0.005035127513110638, -0.11468348652124405], [-0.0728844702243805, 0.18645958602428436], [0.1399768590927124, -0.02184632420539856], [0.09508655965328217, -0.05002580210566521], [-0.06910392642021179, -0.057356782257556915], [-0.15602728724479675, 0.1712135374546051], [0.06417682766914368, -0.12550969421863556], [0.006235204171389341, -0.13457055389881134], [0.015392128378152847, -0.06349378079175949], [0.03697053715586662, 0.11258513480424881], [0.004068441689014435, -0.08892910182476044], [0.08610481023788452, -0.07893218845129013], [0.033382169902324677, 0.0580693744122982], [0.13244986534118652, -0.15711884200572968], [0.026977382600307465, 0.07977862656116486], [-0.07691749930381775, -0.09181573987007141], [0.01788659207522869, 0.08572658151388168], [-0.049732089042663574, -0.0471971221268177], [0.04116739332675934, 0.04192322492599487], [-0.060106515884399414, -0.03523373603820801], [-0.021865108981728554, 0.0029942630790174007], [-0.023391637951135635, -0.0639791265130043], [0.05201881006360054, -0.0790291577577591], [-0.062123045325279236, 0.052079375833272934], [0.146538645029068, -0.1136249303817749], [0.16247546672821045, -0.038057323545217514], [-0.1194232627749443, 0.024699218571186066], [-0.12353531271219254, 0.020722616463899612], [0.12806321680545807, -0.1444275677204132], [0.14023928344249725, 0.021438321098685265], [-0.1267489492893219, -0.0275860708206892]], [[-0.04131196439266205, 0.08926611393690109], [-0.06510823965072632, -0.17337322235107422], [-0.10042914748191833, 0.13315360248088837], [-0.05473586544394493, -0.02138884924352169], [0.09041814506053925, 0.059358011931180954], [0.04568248614668846, -0.030879542231559753], [-0.13825464248657227, 0.03527951240539551], [-0.013436970300972462, 0.0764104500412941], [0.07513339817523956, 0.1720622181892395], [-0.04612693563103676, -0.025346236303448677], [-0.11306829750537872, 0.02598574012517929], [0.19147740304470062, -0.16975396871566772], [-0.10347867012023926, 0.053227510303258896], [-0.0006182595388963819, 0.03429216146469116], [0.08519712835550308, -0.012745979242026806], [0.07406611740589142, 0.04797809198498726], [0.06249137967824936, 0.0697263851761818], [-0.06843828409910202, -0.07441768050193787], [0.11946070194244385, 0.05120459571480751], [-0.0573689229786396, 0.12050888687372208], [0.0426691435277462, 0.04060481861233711], [0.07022463530302048, 0.005702784284949303], [-0.07948914915323257, -0.1589326113462448], [-0.0073176659643650055, 0.012538102455437183], [-0.12278357148170471, -0.054129548370838165], [0.07354506850242615, 0.06427869945764542], [0.04124092310667038, -0.007129434030503035], [-0.10414573550224304, 0.09880770742893219], [-0.0646485760807991, 0.011304662562906742], [-0.04788454249501228, 0.1346731334924698], [0.1324177384376526, 0.006782914977520704], [-0.02161218412220478, 0.14458449184894562]], [[-0.038718339055776596, -0.06672557443380356], [-0.06620803475379944, -0.016455553472042084], [0.11350832134485245, -0.09856660664081573], [-0.07527424395084381, -0.048947133123874664], [-0.02356017380952835, -0.02237739972770214], [-0.022423533722758293, 0.15437908470630646], [0.10184573382139206, -0.12794725596904755], [-0.11602646857500076, 0.16033543646335602], [0.07887522131204605, -0.0376729778945446], [0.10295466333627701, -0.155189648270607], [0.17517684400081635, -0.030840590596199036], [-0.13031160831451416, 0.09680787473917007], [-0.05692847818136215, -0.11271553486585617], [-0.04596196115016937, -0.09425433725118637], [0.008382060565054417, 0.003488281974568963], [-0.006136673502624035, 0.027125000953674316], [-0.01819510944187641, 0.083528071641922], [0.08999475091695786, -0.021057182922959328], [-0.0537714809179306, 0.061332155019044876], [0.13107356429100037, -0.014222669415175915], [-0.08661427348852158, -0.07441507279872894], [0.03254855424165726, -0.11978969722986221], [-0.04100426658987999, 0.07799309492111206], [-0.0418965183198452, 0.10034463554620743], [0.11156517267227173, -0.13674290478229523], [0.04355717822909355, 0.05661735683679581], [-0.11350330710411072, 0.09772980958223343], [0.12520645558834076, -0.1283920854330063], [0.09300795942544937, 0.041276585310697556], [0.027744172140955925, -0.1065339744091034], [-0.014865134842693806, 0.08186556398868561], [-0.059614527970552444, -0.14723855257034302]], [[0.03659866750240326, -0.1094326376914978], [0.0970078557729721, -0.027956899255514145], [0.07077731937170029, 0.09337753057479858], [-0.037726107984781265, 0.051689084619283676], [-0.04727395623922348, -0.06195992976427078], [0.0578785315155983, -0.016614165157079697], [0.098275326192379, 0.08300773799419403], [-0.0934942439198494, 0.014765309169888496], [-0.021672356873750687, -0.026551365852355957], [0.13200178742408752, -0.1547832041978836], [0.08847988396883011, -0.08624061197042465], [-0.1495903730392456, 0.15190353989601135], [-0.10252253711223602, -0.08104393631219864], [0.09443812817335129, 0.05491708219051361], [-0.01295567862689495, -0.07156021147966385], [-0.06867299228906631, -0.1555718183517456], [0.04577925056219101, -0.010049398988485336], [0.06061064451932907, 0.18737298250198364], [0.03666197136044502, -0.04661104828119278], [0.09034228324890137, 0.04336570203304291], [-0.10546055436134338, -0.020809782668948174], [0.08099254220724106, -0.05638420581817627], [-0.04920683056116104, 0.1493709534406662], [-0.009828116744756699, 0.07534892857074738], [0.07600664347410202, -0.026277707889676094], [-0.10111591964960098, 0.12230970710515976], [-0.03590681031346321, 0.12949442863464355], [0.1374896615743637, -0.08435563743114471], [0.12830738723278046, -0.015096820890903473], [-0.03238290548324585, 0.10040437430143356], [-0.03983675688505173, -0.08292138576507568], [-0.0504489541053772, 0.05960045009851456]], [[-0.050784386694431305, -0.13392609357833862], [0.0769554153084755, 0.12991414964199066], [0.03980989009141922, 0.12409044057130814], [0.06465191394090652, 0.09549812227487564], [-0.014608887955546379, 0.09524998068809509], [0.07071048766374588, 0.034687090665102005], [-0.000845263828523457, 0.13180983066558838], [-0.06266142427921295, 0.06923919171094894], [-0.029693173244595528, -0.01775197498500347], [-0.016647905111312866, 0.034358199685811996], [0.08023599535226822, 0.08064361661672592], [-0.006714372429996729, 0.07520066201686859], [0.032537754625082016, -0.030853375792503357], [-0.04438892379403114, -0.10100599378347397], [-0.10673536360263824, 0.0004964683321304619], [-0.0878082811832428, 0.05725623667240143], [-0.04692225530743599, 0.05636918172240257], [0.1696607917547226, -0.031030816957354546], [-0.022674191743135452, 0.02581036649644375], [-0.03594963625073433, 0.14386701583862305], [-0.05659744143486023, 0.01622888259589672], [0.011976120062172413, -0.03182589262723923], [0.08979853242635727, 0.07528229802846909], [0.08994186669588089, -0.04003145918250084], [0.07722780853509903, 0.07050096988677979], [-0.05224686861038208, 0.04608526825904846], [-0.0032180773559957743, 0.01757173426449299], [0.0028000976890325546, -0.0015118602896109223], [-0.09585417062044144, -0.08485512435436249], [-0.14663545787334442, 0.06346064805984497], [-0.15231086313724518, -0.14355741441249847], [0.001984559465199709, 0.0215974859893322]], [[-0.13251818716526031, -0.09781257063150406], [-0.040105439722537994, 0.14029894769191742], [0.05901211127638817, -0.04649629071354866], [0.1689121276140213, 0.016248255968093872], [0.10018956661224365, -0.05723448470234871], [0.013872969895601273, -0.0488688163459301], [0.1792026162147522, 0.013944585807621479], [0.010180800221860409, 0.030536318197846413], [0.005285705905407667, -0.09348654747009277], [0.027198027819395065, -0.03549924120306969], [0.05085604265332222, 0.1328606903553009], [-0.045491188764572144, 0.11431562155485153], [0.00017652733367867768, -0.13659432530403137], [-0.01188609004020691, 0.047861453145742416], [0.06517623364925385, 0.09738883376121521], [-0.08281594514846802, -0.08940733224153519], [0.022982627153396606, 0.0023297572042793036], [0.17560707032680511, 0.14432212710380554], [-0.052851367741823196, -0.15115578472614288], [0.1463763266801834, -0.014832044020295143], [-0.1458863466978073, 0.05286168307065964], [0.03349975496530533, -0.07179808616638184], [0.12970496714115143, -0.06670872867107391], [0.023967616260051727, -0.07703159004449844], [0.10053355991840363, 0.01736452803015709], [0.13011367619037628, -0.00742029445245862], [0.015872245654463768, 0.08598733693361282], [-0.03405119478702545, -0.07177574932575226], [0.02498888038098812, -0.07991190254688263], [-0.09091802686452866, -0.13012249767780304], [0.07480670511722565, 0.015796571969985962], [-0.11487334966659546, 0.06566871702671051]], [[0.10125087946653366, 0.08253223448991776], [-0.06512588262557983, 0.13358406722545624], [0.040078677237033844, -0.16673347353935242], [-0.07588152587413788, -0.1121680960059166], [-0.014611626975238323, -0.1320597231388092], [0.030947642400860786, 0.09441157430410385], [-0.056684933602809906, -0.1125156506896019], [0.04675861448049545, -0.020386962220072746], [0.06401581317186356, 0.007492191158235073], [0.06090620532631874, 0.062280990183353424], [-0.01725900173187256, -0.14348125457763672], [0.016524653881788254, 0.02353564277291298], [-0.04866192117333412, -0.07899091392755508], [-0.10105058550834656, 0.10780205577611923], [-0.07208079844713211, 0.16581794619560242], [-0.06160390004515648, -0.03705015406012535], [0.09277305006980896, 0.10415764153003693], [0.02951975166797638, -0.10112575441598892], [-0.06097690388560295, 0.08950766175985336], [0.07413914799690247, -0.11171427369117737], [-0.007864504121243954, 0.12538135051727295], [0.007181300316005945, 0.02057725004851818], [0.039035119116306305, 0.11958993971347809], [-0.01745145209133625, 0.14930595457553864], [0.0714937150478363, -0.12584352493286133], [0.06851856410503387, 0.11320120841264725], [0.07496538758277893, 0.0011115457164123654], [-0.08740022778511047, -0.018818683922290802], [-0.005300198215991259, -0.1532953679561615], [-0.0937916487455368, 0.11517573148012161], [0.0010348502546548843, -0.011714966967701912], [0.025615286082029343, 0.09612596780061722]], [[-0.014865750446915627, 0.030055779963731766], [-0.046805448830127716, -0.15754984319210052], [-0.05244417488574982, -0.032420046627521515], [-0.05030602589249611, -0.05649295821785927], [0.10898540169000626, -0.06573894619941711], [0.0694500207901001, 0.01539796032011509], [0.043515291064977646, -0.12600138783454895], [0.06730644404888153, -0.05029958859086037], [0.008411170914769173, 0.09608033299446106], [0.11154045909643173, -0.030967220664024353], [-0.1682652086019516, -0.04248620197176933], [0.11889824271202087, 0.01263420656323433], [0.0772523432970047, 0.17369519174098969], [-0.08511508256196976, 0.03449828922748566], [0.12377693504095078, -0.07156752049922943], [0.09111873805522919, -0.0007945224060676992], [-0.08990618586540222, -0.06518388539552689], [-0.11910766363143921, -0.19053412973880768], [0.014268810860812664, 0.00789685919880867], [0.043467603623867035, 0.002531185746192932], [-0.00824068859219551, 0.07211516052484512], [0.04468056932091713, 0.10300847887992859], [-0.0842306837439537, -0.12487660348415375], [-0.03816256299614906, -0.03397323563694954], [0.0053831227123737335, 0.08708187192678452], [0.02210584282875061, 0.015928976237773895], [-0.02144901640713215, -0.18998177349567413], [0.020354462787508965, 0.04518723860383034], [-0.058548543602228165, 0.05610104277729988], [-0.08523812890052795, 0.0005398500943556428], [-0.07226770371198654, 0.02837451547384262], [-0.06381511688232422, 0.030277656391263008]], [[0.05890296399593353, -0.08760745078325272], [0.05265858769416809, 0.0011847226414829493], [0.06745026260614395, -0.022404372692108154], [0.05423344671726227, 0.02600543014705181], [-0.04901757463812828, 0.12197346240282059], [0.002605653600767255, -0.10353238135576248], [0.08263793587684631, 0.16873274743556976], [-0.09280245751142502, -0.0948944166302681], [0.03360709920525551, -0.15080365538597107], [-0.12683451175689697, -0.10423515737056732], [-0.08367837220430374, 0.08122587949037552], [0.027214957401156425, 0.017476128414273262], [-0.14426949620246887, 0.029555462300777435], [0.11565059423446655, -0.10774367302656174], [0.11799247562885284, -0.04213178530335426], [-0.14528760313987732, 0.042758774012327194], [-0.0467882938683033, -0.01764495298266411], [0.09777653217315674, 0.14283815026283264], [-0.08717115223407745, 0.012100763618946075], [0.12532898783683777, -0.009477770887315273], [0.0867755338549614, -0.09919263422489166], [0.0373874306678772, 0.04668746888637543], [0.02240600995719433, -0.005054275970906019], [4.5272299757925794e-05, 0.034786347299814224], [-0.09525959938764572, 0.043143536895513535], [-0.004813562147319317, -0.09918911755084991], [0.16360025107860565, -0.09463027864694595], [0.0226498581469059, 0.12785640358924866], [-0.020659590139985085, 0.06577771157026291], [0.049841415137052536, -0.09566377103328705], [-0.10236140340566635, 0.0520838163793087], [0.04413174092769623, 0.023535024374723434]], [[0.0058124978095293045, -0.14071817696094513], [-0.017746705561876297, 0.1242961585521698], [0.06845643371343613, -0.135952889919281], [-0.06309971958398819, -0.07817824929952621], [-0.0798599123954773, 0.08230183273553848], [-0.04369785636663437, 0.09491784125566483], [0.14722876250743866, -0.1123957559466362], [0.09456398338079453, 0.15809206664562225], [-0.045948103070259094, -0.1268380731344223], [0.11926765739917755, -0.04603862389922142], [0.13449972867965698, 0.04079582542181015], [-0.18603292107582092, 0.17074927687644958], [-0.004052048083394766, -0.15938715636730194], [0.012453735806047916, 0.028781041502952576], [-0.16654221713542938, 0.024554375559091568], [0.05920898914337158, -0.14196990430355072], [0.0011579040437936783, -0.0022873037960380316], [0.10660051554441452, -0.05463230982422829], [0.03993336856365204, -0.1131259948015213], [0.1207670271396637, -0.030227383598685265], [0.11361512541770935, 0.03117598406970501], [0.042393121868371964, -0.005471232812851667], [-0.10712339729070663, 0.083254873752594], [-0.10977476835250854, 0.08212865144014359], [-0.06414192914962769, -0.16718286275863647], [-0.05848938226699829, 0.02488984912633896], [0.04327395558357239, 0.09440595656633377], [-0.0667588859796524, -0.09247937798500061], [0.1300623118877411, -0.14199461042881012], [0.01696302555501461, 0.12867769598960876], [-0.050949521362781525, -0.08062946796417236], [-0.07504091411828995, -0.0374421551823616]], [[-0.0856996476650238, -0.009812491945922375], [0.0894336849451065, -0.18934263288974762], [-0.17281734943389893, 0.0444311760365963], [0.096009261906147, -0.050467249006032944], [-0.0991843193769455, -0.11029641330242157], [0.1205315887928009, -0.05660085752606392], [-0.05504400655627251, -0.008180574513971806], [0.13882562518119812, -0.02196560613811016], [0.11613764613866806, 0.16605845093727112], [0.08507261425256729, 0.02055865339934826], [0.0026420527137815952, -0.10744713991880417], [-0.015065274201333523, -0.11655987799167633], [0.002826239448040724, 0.04936749115586281], [-0.011128933168947697, -0.10088615119457245], [0.12516580522060394, -0.07373041659593582], [-0.06230548024177551, 0.14583149552345276], [-0.04868068918585777, 0.04628248140215874], [-0.03318909555673599, -0.12640877068042755], [0.13852351903915405, 0.02249596267938614], [-0.021619925275444984, 0.009158046916127205], [-0.034305378794670105, 0.055270276963710785], [0.009630597196519375, -0.023228364065289497], [0.0775778740644455, -0.0699690654873848], [-0.00742028234526515, -0.07017581164836884], [-0.1823309361934662, 0.10438600927591324], [0.09241031110286713, -0.06770781427621841], [0.05078164115548134, -0.10050301998853683], [-0.17264306545257568, 0.04187493026256561], [-0.08674292266368866, 0.16882264614105225], [0.026850398629903793, 0.010396010242402554], [0.03033512458205223, 0.08224048465490341], [0.023025810718536377, -0.005927122663706541]], [[-0.06532713025808334, -0.0640963762998581], [-0.04480770602822304, -0.1481335461139679], [-0.17537924647331238, -0.038135312497615814], [-0.01977963000535965, 0.019296959042549133], [-0.09310148656368256, 0.019369052723050117], [-0.03725023195147514, -0.06343390047550201], [-0.008388678543269634, 0.02705324813723564], [0.1506100445985794, -0.10246030986309052], [0.1063198670744896, 0.11665141582489014], [-0.02975837141275406, 0.12207391113042831], [0.06498217582702637, -0.025038085877895355], [0.1347552090883255, -0.1935802400112152], [0.059457845985889435, 0.14793086051940918], [-0.09710142761468887, 0.11304399371147156], [0.06956363469362259, 0.004374940413981676], [-0.07525020837783813, -0.0456489734351635], [-0.04202548786997795, -0.04613540321588516], [0.09203475713729858, -0.027068784460425377], [0.038736969232559204, 0.13900737464427948], [-0.18343068659305573, 0.03296732157468796], [-0.07744245231151581, 0.001661684364080429], [-0.15164826810359955, 0.061451591551303864], [-0.054472729563713074, -0.15029628574848175], [0.18611711263656616, -0.12720003724098206], [-0.1607339233160019, 0.06000005826354027], [0.10117388516664505, -0.06738638132810593], [0.018902689218521118, 0.01796751655638218], [-0.09495388716459274, 0.06044812500476837], [-0.07571560144424438, 0.1320262849330902], [0.11177141219377518, 0.06765134632587433], [-0.005215204320847988, -0.11146135628223419], [0.03719423711299896, 0.13259612023830414]], [[0.05528455600142479, -0.019183551892638206], [-0.14626283943653107, -0.04806464910507202], [0.15683898329734802, 0.018082568421959877], [-0.08851666003465652, 0.007812344003468752], [0.12647874653339386, -0.10588587075471878], [-0.15204571187496185, 0.11614828556776047], [-0.05587899312376976, -0.12391162663698196], [0.07804396748542786, 0.045479509979486465], [0.0015508094802498817, -0.0054288869723677635], [0.05189484357833862, -0.11870655417442322], [0.11817267537117004, -0.13800537586212158], [-0.03995274752378464, 0.16027817130088806], [0.1065928190946579, 0.028705770149827003], [-0.019546009600162506, -0.10635309666395187], [-0.137489914894104, 0.10400078445672989], [0.011517595499753952, -0.08440276980400085], [-0.09664025902748108, 0.09960608184337616], [0.06869155913591385, 0.020591216161847115], [-0.015432809479534626, 0.09271825850009918], [0.11160193383693695, -0.06910605728626251], [-0.11845383793115616, 0.07609795778989792], [0.10163618624210358, 0.07995379716157913], [0.06444372981786728, 0.022261472418904305], [-0.137251079082489, 0.13233588635921478], [0.029604211449623108, -0.06467103213071823], [-0.0806020125746727, -0.04403731971979141], [0.026339197531342506, 0.149754136800766], [0.0011884525883942842, -0.058755069971084595], [-0.05261911079287529, 0.02597120776772499], [-0.1268220692873001, 0.08580806106328964], [-0.08324874192476273, 0.14138831198215485], [-0.07660019397735596, 0.060339681804180145]], [[-0.07578416168689728, -0.11877120286226273], [-0.03606191650032997, -0.04473428800702095], [0.17686054110527039, -0.0016796884592622519], [0.0998002290725708, 0.05394903942942619], [-0.005249102599918842, -0.10915257036685944], [-0.03315842151641846, -0.02734941616654396], [0.1327972114086151, -0.12019675970077515], [0.09857679158449173, 0.02707846835255623], [-0.11439839005470276, -0.061418160796165466], [0.0815570279955864, -0.014875412918627262], [0.0266239233314991, 0.12398934364318848], [-0.06959936022758484, 0.1501399278640747], [-0.14739909768104553, 0.07058198004961014], [-0.03383537381887436, -0.10457534343004227], [-0.006564090494066477, 0.13860012590885162], [-0.11083490401506424, 0.01697399839758873], [-0.06121842935681343, -0.08595646917819977], [-0.032909195870161057, -0.049880024045705795], [0.020518261939287186, -0.12602262198925018], [0.10914815217256546, -0.02900514006614685], [-0.10907825827598572, -0.021601546555757523], [0.06853245198726654, -0.01449816208332777], [-0.048930563032627106, 0.029504798352718353], [0.07047435641288757, 0.14079539477825165], [-0.017750075086951256, -0.0778074637055397], [0.06027888506650925, 0.12666268646717072], [0.166762113571167, 0.10222084820270538], [-0.007490628864616156, 0.01882084831595421], [0.08621111512184143, 0.023935597389936447], [0.0069975340738892555, -0.020916925743222237], [-0.001239192672073841, -0.08201982080936432], [-0.01881752908229828, -0.15304403007030487]], [[-0.014715408906340599, 0.0872516930103302], [0.06492955982685089, -0.05552183836698532], [0.15454068779945374, 0.08365324139595032], [0.1387409120798111, 0.1331709623336792], [0.04532421752810478, 0.0668712705373764], [-0.07701488584280014, 0.026393847540020943], [0.1764458417892456, 0.07580382376909256], [0.0943351536989212, 0.03784938529133797], [0.009240422397851944, -0.0939648374915123], [-0.022303685545921326, -0.08691488951444626], [0.09756164252758026, 0.13765427470207214], [-0.0887838676571846, 0.09636913985013962], [-0.09256055951118469, -0.16072140634059906], [-0.11612660437822342, 0.05516072362661362], [-0.00181011448148638, -0.03926379606127739], [-0.0370977483689785, -0.06838912516832352], [0.07245302200317383, 0.002884320681914687], [0.1277180016040802, -0.05289485305547714], [0.050778843462467194, 0.020479977130889893], [0.05298155918717384, -0.08896683901548386], [-0.0037781978026032448, -0.08058866113424301], [-0.10960061848163605, 0.001894720015116036], [-0.04387420043349266, 0.10355471074581146], [-0.042580440640449524, 0.12575802206993103], [-0.028823185712099075, -0.10935381799936295], [-0.053522560745477676, 0.05377578362822533], [-0.027943361550569534, 0.037700556218624115], [-0.1013365089893341, -0.113378144800663], [-0.10609027743339539, -0.11686442047357559], [-0.03110659308731556, -0.09119921922683716], [-0.13964882493019104, -0.0032549563329666853], [-0.024829398840665817, -0.014371340163052082]], [[-0.13831867277622223, 0.04097636416554451], [0.04980212822556496, 0.07623490691184998], [0.04922914132475853, 0.08307456970214844], [0.037724532186985016, 0.11558261513710022], [-0.03512931242585182, 0.1047975942492485], [0.099354088306427, -0.0765983834862709], [0.031855855137109756, 0.0159983579069376], [0.03483527526259422, -0.02062441222369671], [-0.0847192034125328, 0.007366708014160395], [0.013603742234408855, -0.08369555324316025], [0.005860559642314911, 0.05199974775314331], [-0.020685629919171333, -0.04635421186685562], [-0.15013320744037628, 0.03302719071507454], [0.09879173338413239, -0.015589085407555103], [0.14199313521385193, -0.09481282532215118], [0.0520242340862751, 0.11111215502023697], [-0.02150188386440277, 0.009918572381138802], [-0.0311763733625412, -0.031284481287002563], [-0.1360030621290207, 0.06236526370048523], [-0.0011968733742833138, 0.031078843399882317], [-0.07989040017127991, -0.07343170791864395], [0.05997436121106148, 0.06696128100156784], [-0.02543613128364086, -0.06801527738571167], [0.08874378353357315, -0.0730903148651123], [0.014576305635273457, 0.018398525193333626], [0.093201644718647, -0.057669442147016525], [-0.04317808896303177, 0.11766023188829422], [-0.06433266401290894, 0.04894915968179703], [-0.1243124008178711, 0.09777297079563141], [-0.057925254106521606, -0.008978730998933315], [0.010094129480421543, 0.014513461850583553], [-0.15225662291049957, -0.10563904792070389]], [[-0.06568680703639984, -0.11823507398366928], [-0.0680718794465065, -0.0061025191098451614], [0.16592828929424286, -0.17878542840480804], [-0.08818315714597702, 0.052314821630716324], [0.06612870842218399, 0.007316260598599911], [-0.10973195731639862, 0.06286906450986862], [0.08220124989748001, 0.07520608603954315], [-0.1299012452363968, 0.09184856712818146], [-0.12764370441436768, -0.08069347590208054], [0.058078061789274216, -0.12767577171325684], [0.0689627006649971, 0.07996964454650879], [-0.13836820423603058, -0.03814408928155899], [0.1153625026345253, 0.016660522669553757], [-0.09757094830274582, -0.07075127959251404], [-0.01903359591960907, -0.01278506126254797], [0.07433123141527176, -0.0994289293885231], [0.05198880657553673, 0.004280311521142721], [0.06260443478822708, 0.10865633934736252], [-0.12336903065443039, -0.04240722209215164], [0.1137586385011673, -0.15481320023536682], [0.10355424880981445, 0.08299966156482697], [0.15801547467708588, 0.0754975751042366], [-0.0798410177230835, -0.019703974947333336], [-0.10469741374254227, 0.17355430126190186], [0.157915398478508, -0.15129736065864563], [-0.03238740563392639, 0.13890498876571655], [-0.10641434043645859, 0.16734395921230316], [0.08272002637386322, -0.009824828244745731], [-0.03617223724722862, -0.15997593104839325], [-0.13381746411323547, -0.02826285921037197], [-0.01942918822169304, 0.15249572694301605], [-0.049484819173812866, -0.004453724250197411]], [[0.05875013396143913, 0.0652393102645874], [0.04778631776571274, 0.09358642995357513], [-0.0466073602437973, -0.050306182354688644], [0.059912875294685364, -0.11237314343452454], [-0.054917603731155396, 0.011256839148700237], [-0.10572696477174759, -0.11553943157196045], [-0.10895643383264542, 0.020260702818632126], [-0.07474513351917267, 0.09943532943725586], [0.12240643054246902, -0.040284089744091034], [0.06670214235782623, 0.08920647948980331], [0.059973832219839096, -0.0037621604278683662], [0.039409786462783813, 0.044929128140211105], [-0.04367729276418686, 0.02643384225666523], [-0.06671853363513947, -0.018505284562706947], [-0.12088197469711304, -0.13642452657222748], [0.1140175610780716, -0.11081749200820923], [-0.1186065599322319, 0.013813383877277374], [-0.02466559410095215, -0.08804768323898315], [0.003802610794082284, -0.058632202446460724], [-0.01399994920939207, -0.12560735642910004], [6.088120426284149e-05, 0.07371891289949417], [0.0935281291604042, 0.08348263800144196], [0.006662740837782621, 0.08561424911022186], [0.12337201833724976, 0.01427874993532896], [0.014535066671669483, -0.009330644272267818], [-0.12222378700971603, -0.12344582378864288], [-0.11482088267803192, -0.10737680643796921], [0.0025238001253455877, -0.06256585568189621], [0.09111586213111877, 0.03492466360330582], [0.13203133642673492, 0.05440930649638176], [-0.019703900441527367, 0.009638573043048382], [0.01567702181637287, 0.11279638856649399]], [[-0.06118355691432953, -0.04269378259778023], [0.048136625438928604, -0.09435644745826721], [-0.10656154900789261, 0.06476081162691116], [-0.11783850193023682, -0.09273535758256912], [0.01931612752377987, -0.051359858363866806], [-0.002186353551223874, -0.08178413659334183], [-0.04187040030956268, 0.055587541311979294], [0.04138632491230965, 0.004261968657374382], [-0.06793858110904694, -0.08676963299512863], [0.08269336819648743, 0.06005483493208885], [-0.024928925558924675, 0.13771073520183563], [0.12863631546497345, -0.14681513607501984], [0.10902568697929382, 0.02920181304216385], [-0.11979410797357559, -0.06466901302337646], [0.08989561349153519, -0.18631511926651], [0.07663927972316742, 0.12575428187847137], [-0.054587092250585556, 0.07879099249839783], [0.018812350928783417, -0.042454998940229416], [-0.0766046866774559, 0.02505568601191044], [-0.04742424562573433, 0.052136048674583435], [0.10578363388776779, 0.0925200805068016], [0.09386174380779266, 0.052808985114097595], [0.02058529667556286, 0.013937095180153847], [-0.030074922367930412, -0.007847266271710396], [-0.0630297064781189, 0.10269017517566681], [-0.03937114402651787, -0.019562136381864548], [0.11781619489192963, -0.12914617359638214], [-0.053334563970565796, 0.08804427087306976], [-0.0475928969681263, 0.06672501564025879], [0.1414879560470581, -0.06002753973007202], [0.00958773959428072, -0.09628058969974518], [0.022299233824014664, 0.08516602963209152]], [[0.13460242748260498, 0.03522185981273651], [0.0007120515801943839, -0.15885686874389648], [-0.06747349351644516, -0.03486623615026474], [-0.04553234577178955, -0.03517357259988785], [-0.04654307663440704, -0.04491342231631279], [-0.07736567407846451, 0.03368419036269188], [-0.06783459335565567, -0.15126042068004608], [0.08269726485013962, -0.08245150744915009], [0.07689923048019409, -0.01139854732900858], [-0.007287203799933195, 0.11288706213235855], [0.04814120754599571, -0.13694779574871063], [0.12127070873975754, 0.037357717752456665], [0.10912186652421951, 0.1500505805015564], [-0.049603115767240524, 0.09883802384138107], [0.1347217708826065, -0.13681459426879883], [-0.14314880967140198, -0.07477369159460068], [0.09615533798933029, 0.06677115708589554], [-0.021384548395872116, -0.16660574078559875], [-0.08085176348686218, 0.12838903069496155], [0.025697223842144012, -0.06418262422084808], [0.010023199021816254, 0.06628153473138809], [0.09189116209745407, 0.1154305711388588], [0.08921273797750473, 0.03894347324967384], [0.09675206243991852, -0.12667204439640045], [0.029836056753993034, 0.09298846125602722], [0.012952524237334728, -0.06888815015554428], [0.057767804712057114, -0.07383594661951065], [-0.06795016676187515, 0.04260856285691261], [0.03183835744857788, -0.002992456080392003], [0.1328229159116745, 0.027867648750543594], [0.15757697820663452, 0.10970377922058105], [0.08998679369688034, 0.014187227003276348]], [[-0.05050395429134369, -0.0403442345559597], [-0.13827048242092133, -0.002776076551526785], [0.028101051226258278, 0.08756984770298004], [-0.12396549433469772, 0.06291355937719345], [0.08752049505710602, -0.11615856736898422], [-0.047853708267211914, 0.029416950419545174], [-0.06743291765451431, 0.15495942533016205], [0.06510981172323227, 0.08591898530721664], [-0.03856828063726425, -0.001087368931621313], [0.07858025282621384, 0.06518734246492386], [-0.0654216781258583, 0.07016398757696152], [-0.13676653802394867, -0.11470028758049011], [0.06790986657142639, -0.12418927252292633], [0.014784046448767185, 0.04862605035305023], [-0.02102545276284218, -0.01827455498278141], [0.04709826782345772, -0.08693603426218033], [0.018693285062909126, 0.10852550715208054], [0.08701956272125244, 0.18210548162460327], [0.03588024154305458, -0.14707431197166443], [0.05184187367558479, 0.12770245969295502], [0.0033355806954205036, 0.03388974070549011], [-0.11288432776927948, 0.06230871379375458], [0.017526846379041672, 0.12178336083889008], [0.004090334754437208, -0.1387646198272705], [0.041587844491004944, 0.10195715725421906], [0.10597427934408188, 0.08052916079759598], [-0.11394104361534119, -0.010709404945373535], [-0.013050680048763752, 0.005491381511092186], [-0.026896771043539047, -0.03736181557178497], [0.0614192932844162, -0.05944989249110222], [-0.12005527317523956, -0.042901020497083664], [0.05256855487823486, -0.11577905714511871]], [[-0.06814389675855637, 0.1040058508515358], [0.08411817252635956, -0.11607220023870468], [-0.18024373054504395, 0.12694866955280304], [-0.015618528239428997, -0.047143708914518356], [-0.05401293560862541, -0.03910704702138901], [0.03502003848552704, -0.07831466943025589], [-0.04718564450740814, -0.06253718584775925], [-0.06132015213370323, -0.15722157061100006], [0.13745371997356415, 0.18567335605621338], [0.006304371170699596, 0.05204283073544502], [-0.1165512353181839, -0.05988392233848572], [0.10259221494197845, -0.17725318670272827], [0.01128765381872654, 0.14254477620124817], [-0.03531913831830025, 0.07290015369653702], [0.03988458216190338, -0.08866891264915466], [0.027652470394968987, -0.011203146539628506], [0.011914710514247417, 0.0368565134704113], [-0.051908690482378006, 0.019391050562262535], [0.14430122077465057, 0.13952870666980743], [0.015545675531029701, -0.09754157066345215], [0.1229148879647255, -0.04001661762595177], [0.0485280379652977, -0.05670752748847008], [-0.09924735873937607, 0.061261244118213654], [0.037198085337877274, -0.08541019260883331], [-0.14009475708007812, 0.047415245324373245], [0.015797603875398636, -0.009097644127905369], [-0.022296836599707603, -0.11254062503576279], [-0.11951493471860886, 0.15609073638916016], [-0.062376704066991806, 0.0568556971848011], [0.001209009438753128, -0.09779522567987442], [0.12249020487070084, -0.0702843964099884], [0.04359005391597748, -0.0458662323653698]], [[-0.05700511112809181, -0.08588108420372009], [-0.07190155982971191, 0.11701555550098419], [-0.014676191844046116, -0.06571410596370697], [0.042072683572769165, -0.02918889746069908], [-0.03001537173986435, 0.06720659136772156], [0.00976764690130949, 0.054280899465084076], [0.06619943678379059, -0.17469073832035065], [0.10411377251148224, 0.011392952874302864], [0.14827680587768555, 0.10271372646093369], [-0.06255516409873962, -0.026378408074378967], [-0.12198099493980408, -0.11065761744976044], [0.09471651911735535, 0.1311236470937729], [0.11900293827056885, 0.14373530447483063], [-0.09483619034290314, 0.01799916848540306], [0.03006165102124214, 0.04443878307938576], [0.04288920760154724, 0.009850980713963509], [0.09116844087839127, 0.11889667809009552], [-0.011026870459318161, -0.07452129572629929], [0.1088024452328682, 0.07868301868438721], [-0.023861538618803024, 0.07079367339611053], [0.0726187601685524, 0.07174990326166153], [-0.0723382905125618, 0.10931313782930374], [0.05639336258172989, 0.020585576072335243], [-0.0024287060368806124, 0.11324194818735123], [0.09963948279619217, -0.09977488964796066], [-0.08915909379720688, -0.09356758743524551], [-0.06480560451745987, -0.0711732879281044], [0.03754892200231552, 0.07476947456598282], [0.07612983882427216, -0.0996129959821701], [0.11827659606933594, 0.002888111863285303], [-0.08258713781833649, 0.07281850278377533], [-0.052203308790922165, -0.023456860333681107]], [[0.03923913091421127, -0.09331142157316208], [-0.1483418345451355, 0.04990561306476593], [0.12355545163154602, -0.05889492854475975], [-0.0709313377737999, 0.018494339659810066], [-0.0821424275636673, 0.07072489708662033], [-0.11775967478752136, -0.10349266231060028], [0.018908394500613213, 0.05932462960481644], [-0.035869140177965164, -0.017835261300206184], [0.10362393409013748, 0.10468772798776627], [0.06425797939300537, 0.008561300113797188], [-0.1006002128124237, 0.04207957908511162], [-0.1763293296098709, -0.02699810080230236], [0.16732579469680786, -0.09093010425567627], [-0.017957454547286034, 0.06360569596290588], [-0.154723659157753, 0.05138406530022621], [0.14736409485340118, 0.09420618414878845], [-0.1627351939678192, -0.04942150413990021], [0.037526607513427734, -0.06282148510217667], [0.0499543659389019, 0.11693837493658066], [0.11973349750041962, 0.00812161061912775], [0.08097018301486969, -0.02687324769794941], [-0.03134182095527649, -0.02977209910750389], [0.017031416296958923, 0.10710324347019196], [-0.02554348297417164, 0.007503539323806763], [-0.010854299180209637, -0.15247459709644318], [-0.07333477586507797, -0.09307625889778137], [-0.05822036787867546, 0.0034647544380277395], [-0.0071702213026583195, 0.042709916830062866], [0.003808120731264353, -0.12297205626964569], [-0.06539621949195862, -0.038484394550323486], [0.010657656006515026, -0.03375527635216713], [0.08532033860683441, -0.13205918669700623]], [[-0.0018674927996471524, 0.07331594079732895], [-0.06419147551059723, 0.0208558589220047], [0.011374635621905327, -0.024135367944836617], [0.1348305344581604, -0.11967873573303223], [0.08991169929504395, 0.06755226850509644], [0.08619856834411621, -0.032070938497781754], [0.08466163277626038, 0.020198257640004158], [0.15201157331466675, 0.044630274176597595], [0.011584688909351826, 0.10835826396942139], [-0.10756105929613113, 0.04349463805556297], [-0.03166591748595238, -0.037348221987485886], [0.02908189781010151, -0.015270395204424858], [-0.15563513338565826, -0.0771457701921463], [0.0188805740326643, -0.07221345603466034], [0.0977245345711708, 0.07701347768306732], [0.00017824694805312902, 0.008941389620304108], [0.15627647936344147, -0.08162012696266174], [0.16158942878246307, 0.03681747242808342], [-0.14187045395374298, 0.0929892510175705], [-0.12483306229114532, -0.09376588463783264], [-0.005044133868068457, 0.12044791132211685], [-0.10875730961561203, -0.07113230228424072], [0.029362069442868233, 0.05720067396759987], [0.10342638939619064, -0.1034412682056427], [-0.09662986546754837, -0.11613593995571136], [0.10799942910671234, -0.07089529186487198], [0.01820443570613861, 0.08849363029003143], [0.007805913221091032, 0.11178548634052277], [0.04502566158771515, 0.015599222853779793], [-0.08861249685287476, 0.09935908764600754], [0.09179869294166565, 0.12344951182603836], [-0.10152824223041534, 0.044933296740055084]], [[0.05982125550508499, -0.1275598108768463], [-0.04881665110588074, 0.1459471881389618], [0.10417769104242325, 0.04844364896416664], [0.10391569882631302, 0.16789579391479492], [0.10735538601875305, -0.06554168462753296], [0.01302998885512352, 0.02864215336740017], [0.14192938804626465, 0.018043745309114456], [0.07819262146949768, 0.1447691172361374], [0.060423459857702255, -0.17664524912834167], [0.0095621757209301, -0.01308780163526535], [0.1083485558629036, 0.10689263790845871], [0.005839253310114145, -0.08430951088666916], [-0.06460143625736237, -0.08247710764408112], [-0.061755672097206116, -0.0453210212290287], [-0.10986387729644775, 0.08499274402856827], [0.06463347375392914, -0.005446550901979208], [-0.008890911005437374, 0.06513110548257828], [-0.013186403550207615, 0.12617962062358856], [-0.055393036454916, 0.0047529577277600765], [-0.027935469523072243, 0.09512731432914734], [-0.024236878380179405, 0.06404417753219604], [0.04789378121495247, -0.06430783122777939], [0.08971597999334335, 0.036927126348018646], [0.06538140028715134, -0.031213445588946342], [-0.07889965921640396, 0.008200972341001034], [0.09396219998598099, 0.14182469248771667], [0.06689637899398804, 0.010624389164149761], [-0.09090111404657364, 0.06818173825740814], [-0.05437459424138069, 0.08582925796508789], [-0.037081506103277206, 0.005360126029700041], [-0.1348656862974167, 0.05540524795651436], [0.009854353964328766, -0.01886565610766411]], [[-0.020015660673379898, -0.0259263776242733], [0.07184290140867233, 0.028933508321642876], [-0.11111196130514145, 0.16567479074001312], [0.013927949592471123, 0.0560951828956604], [-0.05073551461100578, -0.051292575895786285], [0.08736556768417358, 0.017952630296349525], [0.11939077079296112, 0.002799903741106391], [0.06901641190052032, 0.036851897835731506], [-0.1059228777885437, 0.0822690799832344], [-0.13313494622707367, -0.1179027184844017], [0.1030661091208458, 0.070274218916893], [0.13648511469364166, -0.13873659074306488], [0.014953982084989548, 0.0072892275638878345], [-0.0875982791185379, 0.13200652599334717], [-0.05330243706703186, -0.14711876213550568], [-0.13723288476467133, 0.1431933045387268], [0.030160993337631226, -0.08942542970180511], [-0.04972051829099655, -0.04271796718239784], [-0.15176433324813843, -0.12904708087444305], [0.04885233938694, 0.024961231276392937], [-0.12374717742204666, 0.03736891224980354], [-0.12436307221651077, 0.07770359516143799], [-0.054364465177059174, -0.10932547599077225], [-0.07770190387964249, -0.03616996482014656], [-0.025345414876937866, 0.08180557191371918], [0.05849134176969528, 0.09900855273008347], [0.08958320319652557, -0.05379774793982506], [0.022861145436763763, 0.13665857911109924], [-0.12968896329402924, 0.10667980462312698], [-0.044008370488882065, -0.04113292694091797], [0.08043354749679565, -0.15468767285346985], [-0.07009360194206238, -0.0369899719953537]], [[0.03655460476875305, 0.08427655696868896], [0.057844508439302444, 0.02848498336970806], [-0.04856382682919502, -0.14829739928245544], [-0.03945238143205643, 0.03938346728682518], [0.07174894958734512, -0.06289095431566238], [-0.054911598563194275, 0.04284929111599922], [-0.044634345918893814, -0.14392925798892975], [0.015246241353452206, -0.009097046218812466], [-0.15092898905277252, -0.10875877737998962], [-0.08964893221855164, -0.14236369729042053], [0.0527336485683918, 0.042777061462402344], [-0.13583272695541382, 0.1318608671426773], [0.01367994211614132, -0.13549943268299103], [0.03569240868091583, -0.10663174837827682], [0.05820542573928833, 0.08691803365945816], [-0.04669921472668648, -0.1548958271741867], [-0.05934625118970871, 0.1317932903766632], [0.164444699883461, 0.1748458445072174], [-0.035618752241134644, 0.0659434124827385], [0.002393161179497838, 0.007364784833043814], [-0.1607767641544342, 0.06913456320762634], [-0.05409371480345726, 0.031411927193403244], [0.07820283621549606, 0.03142903745174408], [0.009129740297794342, 0.027753835543990135], [-0.02375112473964691, 0.00946828257292509], [0.10920400172472, 0.06242258474230766], [0.14542636275291443, 0.15634846687316895], [-0.012685469351708889, -0.11529651284217834], [0.09516751021146774, -0.13316017389297485], [-0.10042310506105423, 0.08400248736143112], [0.05262962728738785, 0.07927589118480682], [0.05906229466199875, -0.1299736499786377]], [[0.050856512039899826, 0.04316726326942444], [-0.06758426129817963, -0.12520097196102142], [-0.05450216308236122, 0.09308884292840958], [-0.14158934354782104, 0.0033487481996417046], [0.1244126632809639, -0.045064058154821396], [0.12525150179862976, -0.06905388087034225], [-0.15549397468566895, -0.13676241040229797], [-0.1246672198176384, 0.06057807058095932], [0.09631464630365372, 0.01820266805589199], [0.02666432596743107, 0.004983649123460054], [-0.15312516689300537, -0.12327954173088074], [0.1175808385014534, -0.10078824311494827], [0.15058012306690216, -0.008854049257934093], [0.031142404302954674, -0.006534171756356955], [-0.06587055325508118, -0.07388442754745483], [0.0018759275553748012, 0.09858812391757965], [0.033172398805618286, -0.1390848308801651], [-0.12526831030845642, -0.1295362412929535], [0.1005774661898613, 0.13399283587932587], [-0.03958842158317566, 0.04062708839774132], [0.14566299319267273, 0.05091143399477005], [-0.002736795926466584, 0.13556647300720215], [0.03523103520274162, -0.0915413349866867], [0.10309899598360062, -0.14361584186553955], [-0.046395234763622284, 0.02937682531774044], [-0.06652312725782394, -0.033104058355093], [0.025209130719304085, 0.02049722895026207], [-0.1062593013048172, -0.06892713159322739], [0.03955146670341492, 0.0890357494354248], [0.10232915729284286, 0.0722370594739914], [-0.05005575343966484, -0.07136121392250061], [0.0525987483561039, 0.06537637114524841]], [[0.013484555296599865, 0.06365174800157547], [0.010682889260351658, 0.1728784739971161], [0.1308978646993637, -0.12961328029632568], [0.06617733091115952, 0.12738101184368134], [-0.04620568826794624, 0.11196815222501755], [-0.07570143043994904, 0.03414452075958252], [0.04607578366994858, -0.0976598784327507], [0.08938123285770416, 0.05981174111366272], [-0.0963355079293251, -0.11400352418422699], [-0.046521976590156555, -0.05406723916530609], [-0.02257874608039856, -0.09744388610124588], [-0.020305413752794266, 0.1826678216457367], [-0.04841719567775726, -0.14937573671340942], [0.12514543533325195, 0.009564422070980072], [-0.05475541576743126, 0.09883479028940201], [0.007083337754011154, 0.0546780526638031], [-0.0004512537852860987, -0.02463025040924549], [0.06861548870801926, 0.054511018097400665], [0.05708619952201843, -0.08658269047737122], [0.08835300803184509, 0.05504607781767845], [0.07892169058322906, 0.04540952667593956], [0.010671393014490604, -0.1077171042561531], [0.07507307827472687, 0.0396747887134552], [0.023897569626569748, -0.004189780447632074], [0.136540487408638, -0.005974048748612404], [0.02763674594461918, 0.0446898490190506], [0.1330394148826599, 0.1406005620956421], [0.03546261787414551, 0.03653557598590851], [0.15091946721076965, 0.0019829387310892344], [-0.13206402957439423, 0.10516922175884247], [-0.017760291695594788, -0.0051361327059566975], [-0.007520569022744894, -0.04799883812665939]], [[-0.11569016426801682, -0.10707549750804901], [0.010388007387518883, 0.15489459037780762], [0.11129085719585419, -0.09757399559020996], [0.09213104099035263, 0.15896667540073395], [0.054226670414209366, -0.04642602428793907], [0.09954153001308441, -0.005383264273405075], [0.08487699925899506, 0.10668312013149261], [-0.07625879347324371, 0.0843106359243393], [-0.1091930940747261, 0.06406719982624054], [0.08717936277389526, -0.010217774659395218], [0.018498551100492477, 0.04494120180606842], [-0.1828220635652542, 0.14754816889762878], [-0.10253813117742538, -0.1664271056652069], [-0.021108578890562057, 0.05563831701874733], [-0.14484873414039612, -0.0406525582075119], [0.14750419557094574, -0.07876791805028915], [-0.0494399219751358, 0.12398984283208847], [0.0163821280002594, 0.09528748691082001], [-0.012673985213041306, -0.06043878197669983], [0.12587635219097137, -0.09057626128196716], [-0.10831063985824585, -0.06371654570102692], [-0.028075331822037697, 0.07958347350358963], [0.034696776419878006, -0.02043571136891842], [-0.07214149832725525, -0.017410442233085632], [0.17273811995983124, -0.16530057787895203], [-0.029432054609060287, 0.11091230809688568], [-0.09573465585708618, 0.02409677393734455], [0.030954021960496902, -0.0734608992934227], [0.0691528469324112, -0.09865235537290573], [0.03594404086470604, 0.11230812966823578], [-0.11869169026613235, 0.06777194887399673], [-0.03432333841919899, 0.025934938341379166]], [[-0.11650977283716202, 0.07392643392086029], [0.0248914435505867, 0.07536579668521881], [-0.08846506476402283, 0.053407493978738785], [-0.07510540634393692, 0.0024804878048598766], [0.10186805576086044, -0.0970366969704628], [0.05059844255447388, -0.09446822851896286], [-0.010754119604825974, 0.039643544703722], [0.008050858043134212, 0.08876416087150574], [-0.1487511545419693, 0.06356953084468842], [0.0790320485830307, -0.1310938596725464], [-0.058545567095279694, 0.11723479628562927], [-0.08115963637828827, -0.07191243767738342], [-0.16481603682041168, -0.021301621571183205], [0.0039054695516824722, -0.06042219698429108], [0.05646651238203049, -0.11836191266775131], [0.04921684041619301, -0.0648576095700264], [0.12288952618837357, -0.01730259135365486], [0.09297870099544525, 0.1643223911523819], [-0.05438468977808952, -0.02257496677339077], [-0.00037035279092378914, -0.04081694781780243], [-0.1526246964931488, -0.13100725412368774], [-0.0015052373055368662, -0.010039584711194038], [0.13481983542442322, -0.10506118834018707], [0.0012177240569144487, -0.1422221064567566], [-0.03303110972046852, -0.02142844721674919], [0.14292746782302856, -0.010188226588070393], [0.16136498749256134, 0.05337211489677429], [-0.1231921911239624, -0.05570461228489876], [0.09301123768091202, -0.006665167398750782], [-0.0953512191772461, -0.11739513278007507], [-0.03660418093204498, 0.036725983023643494], [0.035303108394145966, -0.03879499062895775]], [[-0.027697965502738953, -0.09802684187889099], [0.11627206951379776, -0.032184939831495285], [0.03359976038336754, 0.03870026767253876], [0.0574953593313694, 0.12399038672447205], [-0.05140502378344536, -0.09815523028373718], [-0.020376592874526978, 0.045763157308101654], [0.03354436159133911, 0.1389608085155487], [-0.10335209965705872, 0.06787586957216263], [-0.08213132619857788, -0.14692848920822144], [0.02079164795577526, -0.0544983334839344], [-0.09690772742033005, -0.07824371755123138], [0.06814797967672348, 0.03496482968330383], [0.10304570943117142, 0.07785548269748688], [-0.12151221930980682, -0.026522988453507423], [-0.10450372844934464, -0.04054519161581993], [-0.08402616530656815, -0.12994052469730377], [-0.004994224291294813, 0.13291998207569122], [-0.025003422051668167, 0.09346534311771393], [0.03691403195261955, -0.07795822620391846], [0.005260676611214876, 0.1021689623594284], [-0.09185905009508133, -0.07644473761320114], [0.01531509030610323, 0.08695033192634583], [-0.04015514999628067, -0.09469705075025558], [-0.09100285172462463, -0.003209684742614627], [-0.057292256504297256, 0.11956335604190826], [-0.05188355967402458, 0.039411988109350204], [0.07761646062135696, 0.1441250443458557], [0.12258590012788773, -0.06923015415668488], [-0.10516966879367828, 0.04511663690209389], [-0.04390082508325577, -0.02418568544089794], [-0.040832631289958954, -0.11019710451364517], [0.056306786835193634, -0.08520819991827011]], [[-0.06658799946308136, -0.0005733127472922206], [-0.11189289391040802, 0.07870239019393921], [0.08603303134441376, -0.11289161443710327], [0.0921473354101181, -0.04044243320822716], [-0.02725076489150524, 0.033653292804956436], [-0.03979485481977463, -0.06216585263609886], [0.16615621745586395, -0.1414564698934555], [0.03955593705177307, 0.09688156843185425], [-0.07662511616945267, -0.06148174777626991], [-0.012566513381898403, -0.021314676851034164], [0.055656224489212036, 0.006314904894679785], [-0.028622131794691086, 0.08558961749076843], [-0.069293312728405, -0.01595243439078331], [-0.029570408165454865, 0.053618352860212326], [-0.020594492554664612, 0.12677180767059326], [0.0991709902882576, 0.0670965164899826], [-0.054076697677373886, -0.0789918527007103], [0.15742555260658264, -0.019546642899513245], [0.017595067620277405, 0.06108618527650833], [0.05380534753203392, -0.0003508568916004151], [-0.08346366137266159, -0.11428552120923996], [0.10011773556470871, -0.03144898638129234], [0.12015361338853836, 0.08695568144321442], [-0.03982754796743393, 0.11962854862213135], [-0.04471150413155556, -0.018156763166189194], [0.0006681210361421108, 0.10874123871326447], [-0.015123855322599411, 0.01688045635819435], [-0.01574927382171154, 0.008042250759899616], [-0.05396230146288872, -0.10108286142349243], [-0.01428502518683672, 0.09756828844547272], [-0.026912860572338104, -0.0711083859205246], [-0.1351797878742218, -0.053018271923065186]], [[-0.10814672708511353, -0.15214428305625916], [0.09046836197376251, 0.08544819056987762], [0.007188013754785061, 0.00536764319986105], [0.04370635375380516, 0.1255313605070114], [-0.061691004782915115, -0.006650433875620365], [0.09419800341129303, -0.025708965957164764], [0.1490289717912674, 0.12760405242443085], [0.12331163138151169, 0.010589530691504478], [-0.08456648141145706, -0.04691045731306076], [-0.11253288388252258, 0.08305846899747849], [0.011061656288802624, 0.15490074455738068], [-0.03602001443505287, -0.07720031589269638], [-0.12193778157234192, 0.00943544041365385], [-0.034948039799928665, -0.08024977147579193], [-0.03408467769622803, 0.1547645479440689], [-0.00787185039371252, -0.10229083150625229], [-0.06910926848649979, 0.054543301463127136], [0.09100957214832306, -0.031916242092847824], [-0.03805433213710785, 0.0663006603717804], [0.01216106116771698, -0.07844077795743942], [0.04779825732111931, -0.16069042682647705], [-0.012849082238972187, -0.1504012942314148], [0.06152630224823952, 0.15085811913013458], [-0.034027423709630966, -0.07466055452823639], [0.1325327455997467, 0.06867776066064835], [0.09458116441965103, 0.05401109158992767], [0.029861319810152054, 0.15143024921417236], [0.0181403998285532, -0.07096807658672333], [-0.0005261999904178083, 0.00204030005261302], [-0.0630723088979721, -0.04095471277832985], [-0.08685427904129028, -0.024145569652318954], [-0.08799698203802109, -0.12356261909008026]], [[0.024606361985206604, 0.09837226569652557], [0.11975417286157608, -0.15405963361263275], [-0.11428298056125641, 0.12633873522281647], [-0.05580642446875572, 0.02903997153043747], [-0.054826293140649796, 0.026605850085616112], [-0.08658559620380402, -0.023799104616045952], [0.021651579067111015, 0.07000647485256195], [-0.02025962434709072, -0.1582779586315155], [-0.04578189179301262, 0.07404197752475739], [0.016986623406410217, -0.07933279126882553], [-0.046133898198604584, -0.09501966834068298], [0.12480972707271576, -0.05774778872728348], [-0.030861254781484604, -0.08924378454685211], [0.01798984594643116, 0.03562137857079506], [0.12882518768310547, -0.05955898016691208], [0.06275171041488647, 0.13167917728424072], [0.13185422122478485, 0.018938912078738213], [0.10835089534521103, -0.11881718784570694], [0.04351991415023804, -0.01998971961438656], [-0.04607602581381798, 0.029013529419898987], [-0.07888124883174896, 0.03758270666003227], [-0.09489718824625015, 0.1318054348230362], [0.025774722918868065, 0.06971768289804459], [0.14151787757873535, -0.1312556117773056], [-0.126401886343956, 0.11927513778209686], [0.09778191894292831, -0.13728195428848267], [0.057177964597940445, -0.12843967974185944], [0.02032904326915741, 0.14026181399822235], [-0.10649815946817398, -0.03266013413667679], [0.13204650580883026, -0.13030321896076202], [0.14761073887348175, -0.0008387881680391729], [-0.0518302284181118, 0.008147574961185455]], [[-0.05286172777414322, 0.1460227072238922], [0.0787302702665329, 0.04956038296222687], [-0.015313069336116314, 0.1620970219373703], [-0.0675741583108902, -0.0782604068517685], [0.05466042831540108, -0.0823274627327919], [-0.0016592183383181691, -0.062457550317049026], [0.05138836428523064, 0.03088688850402832], [-0.08706114441156387, 0.06992153823375702], [0.03413092717528343, 0.08012814819812775], [-0.13369609415531158, 0.006208499427884817], [-0.1248597502708435, -0.021798381581902504], [0.0645298957824707, -0.12403368949890137], [0.02400946617126465, 0.1361197531223297], [-0.02779223769903183, -0.01940205693244934], [0.14884372055530548, -0.1297013759613037], [-0.08878106623888016, 0.11245372146368027], [-0.016765782609581947, 0.05684814602136612], [0.08162900805473328, 0.09154115617275238], [0.08127351850271225, 0.06796546280384064], [0.0015836501261219382, 0.027981912717223167], [0.004290367476642132, -0.09508112818002701], [0.06375512480735779, 0.08029962331056595], [0.027477214112877846, -0.03781703859567642], [0.16324684023857117, -0.13064125180244446], [0.023142660036683083, -0.040740035474300385], [0.04093046113848686, -0.028921760618686676], [-0.07724982500076294, -0.13174356520175934], [-0.02323654480278492, -0.07138136774301529], [-0.12254320085048676, 0.16614460945129395], [0.09073009341955185, -0.06536441296339035], [0.13020601868629456, -0.15199856460094452], [0.03004886396229267, 0.04395398125052452]], [[0.005884693935513496, 0.07966776937246323], [0.05672502890229225, -0.14030519127845764], [-0.1466038078069687, 0.03449065238237381], [-0.1057109609246254, 0.049524590373039246], [0.08149942755699158, -0.10860180109739304], [-0.012953173369169235, -0.09851553291082382], [-0.05462552234530449, -0.052923791110515594], [0.014063658192753792, 0.014246118254959583], [0.10005249828100204, 0.1226663887500763], [0.022681236267089844, -0.026020027697086334], [0.02349662035703659, 0.10059811174869537], [0.11767841130495071, -0.1822960525751114], [-0.07184289395809174, 0.16918623447418213], [0.04083088040351868, -0.10450726002454758], [0.14677539467811584, 0.06403367221355438], [-0.10719519853591919, -0.06845256686210632], [0.027895161882042885, -0.12861894071102142], [-0.14524482190608978, -0.1508907973766327], [0.031160613521933556, -0.06027986481785774], [-0.16271325945854187, 0.10916244238615036], [0.04178465157747269, -0.035452451556921005], [-0.12160129100084305, -0.06249238923192024], [0.07669495791196823, 0.016498705372214317], [0.10007300972938538, -0.09887143969535828], [-0.06119633838534355, -0.013622761704027653], [0.03389155864715576, -0.012195772491395473], [0.014777720905840397, -0.06291411072015762], [-0.05768503248691559, 0.030473563820123672], [0.05310499668121338, 0.1531561315059662], [-0.06856463849544525, -0.04435431957244873], [-0.05245886743068695, 0.09041748940944672], [0.02949475310742855, 0.11805986613035202]], [[0.07336145639419556, 0.15838317573070526], [0.09079383313655853, -0.16353072226047516], [-0.10217203944921494, -0.08760320395231247], [-0.11042662709951401, 0.00830328930169344], [0.05074265971779823, -0.08439865708351135], [0.05143951252102852, -0.08182503283023834], [0.0628853365778923, 0.015235303901135921], [-0.1321648210287094, -0.05455655977129936], [0.009664186276495457, 0.18153242766857147], [-0.006832210347056389, -0.04583939164876938], [-0.08668098598718643, -0.1475234180688858], [0.044248513877391815, 0.07212446630001068], [-0.07591553032398224, -0.005629773251712322], [0.07571711391210556, -0.10479236394166946], [0.09404995292425156, -0.056067146360874176], [0.1224273070693016, 0.10282309353351593], [-0.026513712480664253, -0.1324630081653595], [0.03741373121738434, -0.12483015656471252], [0.050002988427877426, 0.0573008768260479], [-0.10949211567640305, -0.12229938805103302], [0.05017866939306259, 0.10292123258113861], [0.03494737297296524, 0.10228101164102554], [0.020791780203580856, 0.09555695950984955], [-0.07530631124973297, 0.06991400569677353], [-0.03644520789384842, -0.0314142145216465], [-0.11914338916540146, -0.07160405069589615], [0.054222892969846725, -0.1135186105966568], [-0.09193707257509232, 0.008217749185860157], [-0.044051699340343475, 0.0022900893818587065], [0.09981108456850052, -0.018603870645165443], [0.10865506529808044, -0.06724625825881958], [0.09211332350969315, -0.0038104515988379717]], [[-0.07452529668807983, -0.08856862783432007], [0.013124088756740093, -0.1318373829126358], [-0.184192955493927, 0.04937996715307236], [0.025294575840234756, 0.060723841190338135], [0.06687495112419128, -0.008543118834495544], [-0.00775790074840188, -0.017589783295989037], [-0.012208547443151474, 0.0180913507938385], [-0.10642919689416885, -0.09650782495737076], [0.08551176637411118, 0.10014688968658447], [-0.08465556800365448, -0.09027843177318573], [-0.021754959598183632, -0.15372678637504578], [-0.02667529694736004, -0.15304917097091675], [-0.03221558406949043, -0.018546568229794502], [0.10483286529779434, -0.11521194130182266], [0.05849774554371834, 0.055354099720716476], [-0.056457098573446274, 0.02052280306816101], [0.0602274015545845, -0.034566592425107956], [-0.14006249606609344, -0.06304308772087097], [0.03986538201570511, 0.05131802335381508], [-0.15675897896289825, -0.07488885521888733], [0.04379560053348541, -0.08176002651453018], [0.07982858270406723, 0.06822503358125687], [-0.0487113893032074, -0.05705980956554413], [0.11947489529848099, 0.02806299366056919], [-0.09757574647665024, -0.054563719779253006], [0.06426605582237244, 0.01917218044400215], [0.11422319710254669, 0.01519262045621872], [-0.04720056429505348, 0.0015021206345409155], [-0.07788480818271637, 0.091880664229393], [0.11117570102214813, 0.013807008042931557], [-0.0060501545667648315, 0.03127749636769295], [-0.0001247349428012967, 0.10705433040857315]], [[-0.029903439804911613, -0.11773227155208588], [0.08917555958032608, -0.0475757010281086], [-0.06167326495051384, 0.1567913144826889], [0.03407617658376694, 0.12077363580465317], [0.033862680196762085, 0.04706511273980141], [-0.01911947689950466, -0.09151588380336761], [0.08682548254728317, 0.02758750505745411], [0.08809146285057068, -0.09981557726860046], [-0.11549977958202362, -0.025035059079527855], [0.03479170799255371, 0.06343068182468414], [-0.08138757944107056, -0.032416753470897675], [0.1607811003923416, -0.06054244935512543], [-0.1049414649605751, -0.026483144611120224], [0.0036924483720213175, -0.07964415848255157], [0.12381697446107864, 0.08923237025737762], [-0.14539025723934174, 0.05857780948281288], [-0.01525955181568861, 0.07262633740901947], [0.10802770406007767, 0.0808349996805191], [-0.12047086656093597, -0.015070630237460136], [0.04849625751376152, 0.10155382007360458], [0.04688640683889389, 0.010524478740990162], [0.0336654968559742, -0.09698264300823212], [0.12070929259061813, -0.11693234741687775], [0.00927415955811739, -0.123829685151577], [0.055666424334049225, 0.08908938616514206], [0.06727470457553864, 0.12732096016407013], [0.16881804168224335, 0.005116734188050032], [-0.05536261945962906, 0.04210631549358368], [-0.042918864637613297, 0.13478675484657288], [-0.07064968347549438, -0.05913562700152397], [-0.10386913269758224, -0.14456044137477875], [0.013718463480472565, -0.08157990127801895]]], "conv2.bias": [-0.04462027922272682, 0.11194484680891037, -0.10039524734020233, 0.026289990171790123, -0.016149697825312614, -0.043479498475790024, -0.060878854244947433, -0.0340832956135273, -0.08931495994329453, 0.09094572067260742, 0.000500926049426198, 0.0656660944223404, 0.042148686945438385, -0.08376893401145935, 0.03547701984643936, -0.06774552911520004, -0.04881013557314873, -0.015991926193237305, 0.009383544325828552, -0.09476062655448914, 0.11922849714756012, -0.030706951394677162, 0.11742328852415085, -0.057760126888751984, 0.12072540074586868, -0.09349730610847473, -0.03442645072937012, 0.089901402592659, 0.020178718492388725, 0.08033405989408493, 0.022119570523500443, -0.0561814084649086, 0.0983683317899704, 0.0625099241733551, 0.07182229310274124, 0.0830182135105133, -0.013803831301629543, 0.11821674555540085, -0.0379481203854084, -0.045781269669532776, -0.10369459539651871, 0.048523206263780594, 0.057611074298620224, -0.05456436797976494, 0.012114198878407478, -0.03890489414334297, -0.019690366461873055, -0.05391775816679001, 0.07196018099784851, 0.052870433777570724, -0.02870406024158001, -0.0730007216334343, -0.11139114946126938, -0.0285259410738945, -0.0939781442284584, -0.05335872247815132, -0.0670272633433342, -0.05025508999824524, -0.061105869710445404, -0.08162439614534378, -0.0013232078636065125, -0.009310804307460785, -0.061350807547569275, 0.02422192692756653], "batchnorm2.weight": [1.0, 1.0, 1.0, 1.0, 1.0, 1.0, 1.0, 1.0, 1.0, 1.0, 1.0, 1.0, 1.0, 1.0, 1.0, 1.0, 1.0, 1.0, 1.0, 1.0, 1.0, 1.0, 1.0, 1.0, 1.0, 1.0, 1.0, 1.0, 1.0, 1.0, 1.0, 1.0, 1.0, 1.0, 1.0, 1.0, 1.0, 1.0, 1.0, 1.0, 1.0, 1.0, 1.0, 1.0, 1.0, 1.0, 1.0, 1.0, 1.0, 1.0, 1.0, 1.0, 1.0, 1.0, 1.0, 1.0, 1.0, 1.0, 1.0, 1.0, 1.0, 1.0, 1.0, 1.0], "batchnorm2.bias": [0.0, 0.0, 0.0, 0.0, 0.0, 0.0, 0.0, 0.0, 0.0, 0.0, 0.0, 0.0, 0.0, 0.0, 0.0, 0.0, 0.0, 0.0, 0.0, 0.0, 0.0, 0.0, 0.0, 0.0, 0.0, 0.0, 0.0, 0.0, 0.0, 0.0, 0.0, 0.0, 0.0, 0.0, 0.0, 0.0, 0.0, 0.0, 0.0, 0.0, 0.0, 0.0, 0.0, 0.0, 0.0, 0.0, 0.0, 0.0, 0.0, 0.0, 0.0, 0.0, 0.0, 0.0, 0.0, 0.0, 0.0, 0.0, 0.0, 0.0, 0.0, 0.0, 0.0, 0.0], "batchnorm2.running_mean": [0.0, 0.0, 0.0, 0.0, 0.0, 0.0, 0.0, 0.0, 0.0, 0.0, 0.0, 0.0, 0.0, 0.0, 0.0, 0.0, 0.0, 0.0, 0.0, 0.0, 0.0, 0.0, 0.0, 0.0, 0.0, 0.0, 0.0, 0.0, 0.0, 0.0, 0.0, 0.0, 0.0, 0.0, 0.0, 0.0, 0.0, 0.0, 0.0, 0.0, 0.0, 0.0, 0.0, 0.0, 0.0, 0.0, 0.0, 0.0, 0.0, 0.0, 0.0, 0.0, 0.0, 0.0, 0.0, 0.0, 0.0, 0.0, 0.0, 0.0, 0.0, 0.0, 0.0, 0.0], "batchnorm2.running_var": [1.0, 1.0, 1.0, 1.0, 1.0, 1.0, 1.0, 1.0, 1.0, 1.0, 1.0, 1.0, 1.0, 1.0, 1.0, 1.0, 1.0, 1.0, 1.0, 1.0, 1.0, 1.0, 1.0, 1.0, 1.0, 1.0, 1.0, 1.0, 1.0, 1.0, 1.0, 1.0, 1.0, 1.0, 1.0, 1.0, 1.0, 1.0, 1.0, 1.0, 1.0, 1.0, 1.0, 1.0, 1.0, 1.0, 1.0, 1.0, 1.0, 1.0, 1.0, 1.0, 1.0, 1.0, 1.0, 1.0, 1.0, 1.0, 1.0, 1.0, 1.0, 1.0, 1.0, 1.0], "batchnorm2.num_batches_tracked": 0, "fc1.weight": [[0.007229061331599951, -0.024976911023259163, 0.0501728393137455, -0.02858320064842701, 0.028260359540581703, 0.0031254177447408438, -0.003900309093296528, 0.014530648477375507, 0.008151610381901264, 0.024218447506427765, -0.019353633746504784, 0.023074019700288773, -0.040620431303977966, 0.009610028937458992, -0.012712527066469193, 0.005861436948180199, 0.019849762320518494, 0.0066114142537117004, 0.0032139956019818783, 0.0004147662839386612, -0.004684885963797569, -0.0051850671879947186, 0.026422329246997833, -0.023744460195302963, 0.007474592886865139, -0.020940164104104042, 0.015282084234058857, -0.0006109796231612563, 0.0019663115963339806, -0.012613200582563877, -0.018773050978779793, -0.010123859159648418, -0.017065027728676796, -0.013171679340302944, 0.00666714645922184, 0.011926008388400078, 0.010226469486951828, -0.01936172880232334, -0.012361965142190456, -0.004256344400346279, -0.0012312921462580562, 0.0018861403223127127, 0.006140554789453745, 0.0053759124130010605, -0.0076395790092647076, -0.01879251003265381, 0.007141271140426397, -0.00701663363724947, 0.016920849680900574, 0.010202364064753056, -0.012164064683020115, -0.01260951068252325, -0.010839229449629784, -0.021420037373900414, -0.0022385960910469294, 0.0027039581909775734, 0.0009953329572454095, -0.03083113208413124, 0.038242973387241364, 0.007884214632213116, 