{"conv1.weight": [[[0.4281862676143646, -0.5578516721725464]], [[-0.4416084289550781, 0.4386245012283325]], [[-0.3399273157119751, 0.05917093902826309]], [[0.10704788565635681, -0.32367321848869324]], [[-0.6605230569839478, 0.02166074328124523]], [[0.04689989984035492, 0.4989170432090759]], [[-0.4166924059391022, -0.3294162154197693]], [[-0.48120221495628357, 0.15728576481342316]], [[-0.17850415408611298, 0.43646660447120667]], [[0.5379837155342102, -0.28957799077033997]], [[0.6461326479911804, 0.3202504515647888]], [[-0.5986336469650269, -0.30271244049072266]], [[-0.4946891963481903, 0.36431261897087097]], [[-0.6322950124740601, -0.5176975131034851]], [[-0.3273116946220398, -0.3682684600353241]], [[0.23167671263217926, -0.5847458243370056]], [[-0.6510018706321716, -0.09835511445999146]], [[0.07964875549077988, 0.280958354473114]], [[-0.4772861897945404, 0.06836556643247604]], [[-0.16348399221897125, -0.3986271619796753]], [[-0.31578925251960754, -0.6372690200805664]], [[-0.6375756859779358, 0.46597620844841003]], [[0.19625063240528107, -0.5030514597892761]], [[-0.4407472610473633, 0.33357563614845276]], [[0.26598167419433594, -0.5898838639259338]], [[0.15805917978286743, 0.1212751641869545]], [[-0.09168510138988495, -0.5541406273841858]], [[0.5528100728988647, -0.6121048331260681]], [[-0.5174897909164429, 0.3390606641769409]], [[0.10093613713979721, -0.5378853678703308]], [[-0.7050057649612427, 0.21440951526165009]], [[0.3213219940662384, -0.631176769733429]]], "conv1.bias": [-0.34092918038368225, -0.033312346786260605, -0.43332576751708984, 0.09122586995363235, 0.46355584263801575, 0.02102483995258808, -0.2820316553115845, -0.6157673597335815, 0.36656174063682556, -0.26356473565101624, -0.3842160701751709, -0.5447531938552856, 0.5112268924713135, -0.6120944619178772, 0.6109036207199097, 0.48903271555900574, 0.51402747631073, -0.6095378398895264, -0.6598833203315735, -0.14418353140354156, -0.32864540815353394, -0.02256333827972412, 0.11011163890361786, -0.3093113303184509, -0.34827378392219543, -0.32526740431785583, -0.29623597860336304, 0.19461213052272797, -0.19078046083450317, 0.07558543235063553, -0.4142814576625824, -0.052957650274038315], "conv2.weight": [[[0.012451931834220886, 0.05005425587296486], [-0.07393383234739304, 0.0011281004408374429], [-0.08291689306497574, 0.023040978237986565], [0.05723562464118004, 0.05100298672914505], [0.0983249768614769, -0.06844936311244965], [-0.04615147039294243, -0.11868422478437424], [-0.204999640583992, -0.05390966683626175], [0.0597648099064827, 0.03838875889778137], [0.1272270232439041, 0.013866696506738663], [-0.1248176246881485, -0.006746415514498949], [-0.060538437217473984, -0.06444047391414642], [-0.1107117235660553, -0.008187211118638515], [-0.05592938885092735, 0.013146104291081429], [-0.018775153905153275, -0.10818297415971756], [-0.09334629774093628, -0.09490443766117096], [0.07361659407615662, 0.08587835729122162], [-0.007305243518203497, -0.003187393769621849], [-0.011281955987215042, 0.10306965559720993], [0.08965550363063812, -0.0805571898818016], [-0.17712180316448212, 0.010187526233494282], [-0.1651161164045334, -0.15208667516708374], [-0.10415174812078476, -0.14373697340488434], [0.08179172873497009, 0.01765035279095173], [0.03663579747080803, -0.1311705857515335], [-0.07670186460018158, -0.07901428639888763], [-0.056108467280864716, 0.117299385368824], [-0.1688670963048935, -0.01695980504155159], [-0.0028495732694864273, 0.06078703701496124], [-0.04858411103487015, -0.0589347742497921], [-0.08874952793121338, -0.028648190200328827], [0.07214033603668213, -0.1711674928665161], [-0.1774938702583313, 0.10364051163196564]], [[0.03310104086995125, 0.05923626199364662], [-0.06254900991916656, -0.10416726768016815], [-0.10708778351545334, -0.09211846441030502], [-0.0844280943274498, -0.04850185289978981], [0.07859507203102112, -0.12152156233787537], [0.08355991542339325, -0.0255899615585804], [-0.14500898122787476, -0.04712187498807907], [0.01885703206062317, -0.04493485763669014], [0.07733926177024841, -0.07244863361120224], [0.047677844762802124, 0.05398419499397278], [-0.07295683026313782, 0.02711629308760166], [-0.02227688580751419, -0.008349109441041946], [-0.005845917854458094, 0.09299387782812119], [-0.08259294182062149, -0.05066590756177902], [0.07375890761613846, -0.06595554947853088], [-0.11487188190221786, 0.08451759815216064], [0.026098547503352165, 0.01919657550752163], [-0.030906155705451965, 0.016915177926421165], [0.0892159715294838, -0.13481605052947998], [-0.0805121585726738, 0.050948210060596466], [-0.1240808442234993, -0.038015253841876984], [0.029945701360702515, -0.15664388239383698], [0.03401173651218414, 0.06045418977737427], [0.051847655326128006, -0.132321298122406], [0.026514200493693352, -0.09757670760154724], [0.14581096172332764, 0.16464370489120483], [-0.10518521815538406, -0.05884275585412979], [-0.15410001575946808, 0.10343629866838455], [0.07480917125940323, -0.06928959488868713], [-0.058249231427907944, 0.015234624035656452], [0.06102004647254944, 0.032577164471149445], [-0.15165327489376068, 0.12533937394618988]], [[0.08091844618320465, -0.005753723438829184], [-0.10127963125705719, -0.08088279515504837], [-0.07764412462711334, 0.06996295601129532], [0.08917954564094543, 0.058663420379161835], [0.014812142588198185, -0.09707092493772507], [-0.0025742410216480494, 0.04324770346283913], [-0.029003607109189034, 0.0834067165851593], [-0.10750562697649002, -0.02410333789885044], [-0.04262883961200714, -0.0882883295416832], [0.008052841760218143, -0.03617848455905914], [0.11882475018501282, -0.06155625730752945], [-0.06003638729453087, 0.05161342769861221], [-0.05739850550889969, 0.03985857963562012], [0.1092223972082138, 0.027642404660582542], [-0.017307646572589874, 0.054775871336460114], [-0.034635383635759354, 0.12491883337497711], [0.02650848962366581, 0.04833594337105751], [-0.08978090435266495, 0.027089769020676613], [0.08670154958963394, -0.09678125381469727], [-0.06188035383820534, 0.026193665340542793], [-0.020410878583788872, -0.056394416838884354], [-0.010779816657304764, -0.13235853612422943], [0.08871075510978699, 0.13209351897239685], [0.01634085550904274, -0.14354436099529266], [0.012170244939625263, -0.02136896550655365], [0.05636215582489967, -0.18683035671710968], [0.03867921233177185, 0.02891811914741993], [0.12578952312469482, -0.11246470361948013], [0.014656362123787403, -0.05024184659123421], [0.06717429310083389, 0.1313081830739975], [-0.011396009474992752, -0.06875334680080414], [0.10239695012569427, -0.014720735140144825]], [[-0.12250406295061111, -0.15541033446788788], [0.002968359971418977, 0.133248969912529], [0.07490970939397812, 0.11107442528009415], [0.10260733217000961, 0.05872775614261627], [0.06730570644140244, 0.016625816002488136], [0.02234981581568718, 0.12854336202144623], [0.09703275561332703, 0.0465603843331337], [-0.08674299716949463, 0.012551541440188885], [-0.13794094324111938, -0.10002388060092926], [-0.01705499179661274, 0.04118756577372551], [-0.0517212450504303, -0.14029432833194733], [-0.048008184880018234, -0.007005295716226101], [-0.11539144068956375, 0.12444715201854706], [0.015859108418226242, -0.07637567073106766], [0.012529547326266766, -0.04278057441115379], [0.07999782264232635, -0.08313722908496857], [-0.03643982484936714, 0.05039272457361221], [-0.1351737231016159, -0.030884793028235435], [0.045513179153203964, 0.10897710919380188], [0.002330833114683628, -0.05855803191661835], [-0.019493144005537033, -0.015670448541641235], [0.07673285156488419, -0.008717719465494156], [0.061677370220422745, -0.015338209457695484], [0.04117204621434212, -0.11508574336767197], [0.08114694058895111, -0.08030293881893158], [0.10037588328123093, -0.11229963600635529], [-0.014753387309610844, -0.09247370809316635], [-0.019121410325169563, -0.14321774244308472], [-0.038082368671894073, -0.054810069501399994], [-0.006798775400966406, -0.14071553945541382], [-0.050923705101013184, 0.04665151238441467], [-0.04679432138800621, -0.17274580895900726]], [[0.061609260737895966, 0.021146493032574654], [0.056598372757434845, -0.00523490272462368], [0.054549869149923325, -0.055014047771692276], [0.021258559077978134, -0.12487691640853882], [-0.1089097335934639, 0.09115969389677048], [-0.054550591856241226, -0.016414949670433998], [-0.15822158753871918, -0.16025613248348236], [-0.03652724251151085, -0.04895145818591118], [0.0006595101440325379, 0.12952710688114166], [0.10898248106241226, 0.0008570930222049356], [-0.012060590088367462, 0.15258671343326569], [-0.084053635597229, -0.17012503743171692], [0.0936071053147316, 0.10711847990751266], [-0.10945456475019455, -0.14131630957126617], [-0.1428793966770172, 0.009310305118560791], [0.08218231797218323, 0.10692089796066284], [0.026730474084615707, -0.10838712006807327], [-0.029303183779120445, 0.013843084685504436], [-0.14075414836406708, -0.12811262905597687], [-0.08641547709703445, 0.06393849104642868], [-0.15758852660655975, -0.11049073189496994], [0.09588397294282913, -0.11234738677740097], [0.023456720635294914, 0.10091884434223175], [-0.07147691398859024, -0.1317112147808075], [0.00890167523175478, 0.0836690366268158], [0.1755460500717163, -0.032355666160583496], [-0.009781092405319214, -0.03707848861813545], [0.029288459569215775, -0.051176972687244415], [-0.026847274973988533, -0.06034564599394798], [-0.14285185933113098, -0.14924190938472748], [-0.11734570562839508, -0.05937692150473595], [-0.031820617616176605, -0.01491486094892025]], [[-0.1740630716085434, -0.11678615212440491], [-0.01849322021007538, -0.06763787567615509], [0.02910822443664074, 0.046349767595529556], [-0.10610346496105194, -0.012287504971027374], [0.036136895418167114, 0.07873361557722092], [-0.0569363534450531, -0.09721609950065613], [-0.09570929408073425, -0.12528279423713684], [0.001526661217212677, -0.0017759084003046155], [0.0932333841919899, 0.030950309708714485], [-0.1381630301475525, 0.08363112807273865], [0.030254002660512924, -0.10215479135513306], [0.07282354682683945, -0.108194500207901], [0.09600376337766647, -0.13809998333454132], [-0.02720450796186924, -0.1178230345249176], [-0.10174542665481567, 0.06715001910924911], [0.10341188311576843, -0.05642053484916687], [-0.10481465607881546, 0.0013530885335057974], [-0.02925773710012436, -0.0008760687778703868], [-0.13820122182369232, 0.07966126501560211], [-0.09042411297559738, 0.06636284291744232], [-0.030537066981196404, 0.026403043419122696], [-0.02627418003976345, -0.025138454511761665], [0.07391374558210373, 0.0432385616004467], [0.08057825267314911, -0.08329784125089645], [-0.11132947355508804, 0.10146710276603699], [0.023394159972667694, 0.10540468245744705], [0.06413038074970245, -0.09945269674062729], [-0.150705948472023, 0.06281449645757675], [-0.0958688035607338, -0.10239022970199585], [0.08825717866420746, 0.11154799163341522], [-0.1241418868303299, -0.0776318684220314], [0.02383858524262905, 0.04646331071853638]], [[-0.14436140656471252, -0.04572116583585739], [0.10681074857711792, 0.04105838015675545], [0.10237231850624084, -0.050360262393951416], [-0.04445252567529678, 0.02727348729968071], [-0.040744535624980927, -0.06580141186714172], [0.12068352848291397, 0.01458662934601307], [0.055421169847249985, -0.11890840530395508], [0.10866431146860123, 0.03446219488978386], [0.06992903351783752, -0.011150076985359192], [-0.07817158102989197, 0.0416245311498642], [-0.07784942537546158, 0.09887716174125671], [0.04965286701917648, -0.07834887504577637], [0.09655263274908066, 0.03838929533958435], [-0.1363181173801422, 0.020710414275527], [-0.1128351241350174, 0.024696627631783485], [-0.0666622519493103, 0.01746460236608982], [-0.025274252519011497, -0.045446425676345825], [-0.10140358656644821, -0.03134606033563614], [-0.07296773791313171, 0.06068377196788788], [-0.0778709203004837, -0.031621795147657394], [-0.06416735798120499, -0.12643705308437347], [0.05848102271556854, -0.05800405144691467], [0.05240689963102341, -0.07902982831001282], [0.0500183030962944, -0.013730542734265327], [-0.1528824269771576, -0.015463683754205704], [0.14651024341583252, 0.05696169659495354], [-0.08947639167308807, 0.07803984731435776], [-0.055496808141469955, -0.018497787415981293], [0.07660192251205444, -0.11191952228546143], [-0.03364573419094086, 0.02758628875017166], [0.08377816528081894, -0.14274704456329346], [-0.1224595382809639, 0.025502022355794907]], [[0.0022593089379370213, -0.15701308846473694], [-0.1165962889790535, 0.10354113578796387], [-0.13549841940402985, -0.05193542689085007], [-0.10608357191085815, -0.05343792214989662], [-0.015994662418961525, -0.0008550152415409684], [-0.08670175075531006, 0.15775327384471893], [-0.14814166724681854, -0.022359831258654594], [-0.1360175609588623, -0.030002038925886154], [0.019144093617796898, -0.059130143374204636], [0.11743907630443573, 0.08447513729333878], [0.03639915585517883, 0.07112190872430801], [-0.10106417536735535, -0.1811804324388504], [0.01109638623893261, -0.00766564579680562], [-0.0446413978934288, -0.14102843403816223], [0.08870205283164978, -0.1158849373459816], [-0.10455416887998581, -0.08327648043632507], [-0.010167292319238186, 0.029177460819482803], [0.1199173554778099, 0.067878358066082], [0.007480050437152386, -0.09765805304050446], [-0.08087980002164841, -0.04641535133123398], [-0.2046629637479782, -0.21443474292755127], [-0.09613464027643204, 0.10926599055528641], [-0.09522468596696854, -0.05683191865682602], [-0.12461263686418533, 0.09958615899085999], [-0.03258189186453819, -0.030221467837691307], [-0.05243874713778496, 0.10660266131162643], [-0.12529845535755157, -0.10917416960000992], [-0.07581621408462524, -0.12439915537834167], [-0.033149778842926025, -0.014681254513561726], [-0.07244431972503662, 0.015330386348068714], [-0.03494883328676224, 0.05255110561847687], [-0.040554460138082504, -0.05511045083403587]], [[-0.12999333441257477, 0.015940090641379356], [0.028268937021493912, -0.0026768359821289778], [0.09936798363924026, -0.019932255148887634], [-0.09204015880823135, 0.06006298586726189], [0.09846886992454529, 0.018953723832964897], [-0.06588995456695557, -0.0732610821723938], [-0.06141992658376694, -0.13337813317775726], [0.13756974041461945, -0.04373236373066902], [-0.07430623471736908, 0.043016254901885986], [-0.02327660843729973, 0.07365282624959946], [0.062241774052381516, 0.004053516313433647], [0.10462244600057602, -0.054239943623542786], [0.10672009736299515, 0.03501107543706894], [0.04739540442824364, -0.12316644936800003], [0.09467471390962601, 0.001744021661579609], [-0.12472732365131378, 0.1134326234459877], [0.02964542619884014, -0.08886273205280304], [0.11518388241529465, -0.03074774332344532], [-0.0648573562502861, -0.009755026549100876], [-0.06707362085580826, 0.06145636364817619], [0.04827660694718361, -0.04286029189825058], [0.12134850770235062, -0.01860564947128296], [-0.12037509679794312, 0.11554066836833954], [0.022489415481686592, 0.04207788035273552], [-0.11158930510282516, 0.08058343827724457], [0.02597750723361969, 0.12048117071390152], [-0.11982665210962296, 0.013474944047629833], [-0.08648166805505753, -0.0402405820786953], [0.1360897421836853, -0.03991705924272537], [-0.029728394001722336, -0.02194502390921116], [0.11781247705221176, -0.04467932507395744], [0.018908007070422173, 0.12377606332302094]], [[-0.04909670352935791, -0.04147364944219589], [0.01922280341386795, -0.17728763818740845], [-0.09227315336465836, -0.057480450719594955], [-0.14371183514595032, -0.04331417381763458], [0.05769095942378044, -0.11191499978303909], [0.1207830011844635, -0.07798393070697784], [-0.1483452320098877, -0.0785413458943367], [0.0011548142647370696, -0.030521096661686897], [0.05889030545949936, -0.09703800827264786], [-0.030357562005519867, 0.09946443140506744], [-0.06428654491901398, 0.025832947343587875], [0.02876773290336132, 0.06212195008993149], [-0.023356277495622635, 0.05915483087301254], [-0.036608364433050156, -0.13719210028648376], [0.07620901614427567, -0.10255084931850433], [-0.07671772688627243, 0.11573921144008636], [-0.12946359813213348, 0.04431901499629021], [0.009533231146633625, -0.09270165860652924], [-0.08760910481214523, 0.049156736582517624], [-0.034247562289237976, 0.08115831762552261], [0.0584392286837101, -0.11071465164422989], [-0.10106658190488815, -0.155105322599411], [-0.06523026525974274, 0.13349999487400055], [0.08996287733316422, -0.001286934595555067], [-0.16810666024684906, -0.03199981153011322], [0.024565398693084717, 0.032690610736608505], [-0.11246208846569061, -0.017410213127732277], [0.04527156800031662, 0.08461619168519974], [0.12427456676959991, -0.11376751214265823], [0.033703550696372986, 0.11983148753643036], [0.013361881487071514, -0.04464040696620941], [-0.14023013412952423, 0.13225091993808746]], [[-0.0683046281337738, -0.06924118846654892], [-0.0320809967815876, -0.004902297630906105], [0.044825226068496704, -0.09055549651384354], [-0.05499035865068436, -0.11065959930419922], [0.08210808783769608, -0.005101860035210848], [0.08664149045944214, 0.06684589385986328], [-0.009977772831916809, 0.0660455971956253], [-0.0623948760330677, -0.09441249072551727], [-0.08019039034843445, 0.08173683285713196], [-0.1463080197572708, 0.10229434072971344], [-0.12240426987409592, 0.05982447415590286], [-0.15673141181468964, -0.08729758113622665], [0.02261931076645851, -0.009092094376683235], [-0.1647842824459076, 0.06042827293276787], [0.09401383250951767, -0.028270991519093513], [-0.03392454609274864, 0.059752631932497025], [-0.03594764694571495, -0.1302942931652069], [-0.09502032399177551, -0.1057126596570015], [-0.016093900427222252, -0.08771537244319916], [-0.14009957015514374, 0.05059563368558884], [-0.07441598176956177, -0.1400592178106308], [0.03546137362718582, -0.15922830998897552], [-0.12585145235061646, 0.016183266416192055], [0.09245127439498901, -0.12856784462928772], [-0.11214199662208557, -0.07262882590293884], [0.127685084939003, 0.03874756395816803], [0.031665947288274765, 0.08828025311231613], [0.07835216820240021, 0.07498644292354584], [0.10870350152254105, 0.022111132740974426], [0.06788676232099533, 0.02679048478603363], [-0.09330969303846359, -0.021843573078513145], [0.018459277227520943, 0.11043870449066162]], [[0.09719813615083694, -0.13239945471286774], [0.07124999165534973, -0.1443948596715927], [-0.03972915560007095, 0.028658688068389893], [0.05996989086270332, -0.083464115858078], [-0.07970481365919113, 0.03015543706715107], [0.11598388105630875, 0.06415192037820816], [-0.11541315913200378, -0.15929938852787018], [-0.161643847823143, 0.019383875653147697], [0.11745265871286392, 0.07080274075269699], [0.0489138625562191, 0.07004369795322418], [0.06758996844291687, 0.13352859020233154], [-0.18542224168777466, -0.07043858617544174], [0.012621548026800156, 0.036321286112070084], [-0.1371031403541565, -0.06065797433257103], [-0.08387886732816696, -0.0991649329662323], [-0.0003859033458866179, 0.1045982614159584], [-0.08226494491100311, 0.021705469116568565], [-0.04916748031973839, 0.10877089202404022], [-0.09577891230583191, -0.08788064122200012], [-0.11925805360078812, -0.12624025344848633], [-0.16947852075099945, -0.12424082309007645], [0.021801944822072983, -0.12640298902988434], [-0.08017203211784363, 0.030078960582613945], [0.005263246595859528, 0.043675702065229416], [-0.0038628512993454933, -0.023981327190995216], [0.12115450948476791, 0.12227044999599457], [-0.13888156414031982, -0.1852882355451584], [0.04361330345273018, -0.10945891588926315], [0.05554170534014702, -0.01861848123371601], [-0.12412543594837189, -0.08313535898923874], [-0.03255325183272362, 0.02970709092915058], [0.011230692267417908, 0.04736484959721565]], [[-0.12264574319124222, -0.06219569593667984], [-0.16872988641262054, 0.09759382903575897], [-0.149619460105896, 0.026456795632839203], [0.040479835122823715, 0.03106263279914856], [0.0027160418685525656, 0.004808763042092323], [0.12572498619556427, 0.11909910291433334], [0.03099280782043934, -0.20574069023132324], [-0.07668870687484741, 0.0886479988694191], [-0.07529901713132858, 0.1406613439321518], [-0.10612751543521881, -0.14688549935817719], [-0.002180291572585702, 0.06764031946659088], [-0.17018167674541473, -0.017811689525842667], [-0.10979114472866058, 0.06089796870946884], [-0.09848525375127792, -0.0011621300363913178], [-0.11162587255239487, -0.09773426502943039], [0.08621159940958023, -0.0706556960940361], [-0.040642399340867996, -0.042628366500139236], [0.010639184154570103, -0.03148278966546059], [-0.07947002351284027, -0.07219395786523819], [-0.17425379157066345, -0.05514782667160034], [0.027789579704403877, -0.19990751147270203], [-0.14487911760807037, 0.07777169346809387], [-0.0694277435541153, 0.06556649506092072], [-0.08694460242986679, -0.013996504247188568], [-0.054821714758872986, -0.07087299227714539], [0.10940340906381607, -0.027414627373218536], [-0.1465049833059311, -0.053469955921173096], [0.07419970631599426, 0.004755809903144836], [-0.019319484010338783, -0.10483328998088837], [-0.12163323909044266, -0.0978853851556778], [0.014880997128784657, -0.02570764720439911], [0.06261720508337021, -0.08519263565540314]], [[-0.09146147221326828, -0.04526755213737488], [-0.0483570322394371, -0.052831001579761505], [0.025735968723893166, -0.06496109813451767], [-0.13941548764705658, -0.037638917565345764], [-0.036043163388967514, -0.05054471641778946], [0.03191258758306503, -0.018709540367126465], [-0.10959283262491226, -0.1003500297665596], [0.017270809039473534, -0.09099377691745758], [0.008168178610503674, -0.0794963538646698], [0.08118516951799393, 0.028624912723898888], [0.08234304189682007, -0.06216862425208092], [0.07662554830312729, -0.12541916966438293], [-0.04924391210079193, 0.0024815676733851433], [-0.08013251423835754, 0.07841658592224121], [0.10414759814739227, 0.0784168392419815], [0.07437942177057266, 0.06476286053657532], [0.0073555163107812405, 0.05065208300948143], [0.03502795100212097, 0.05257539078593254], [-0.02364671416580677, -0.07620511949062347], [-0.12000727653503418, -0.08199700713157654], [0.08438533544540405, -0.08119732141494751], [0.03880899026989937, -0.022259417921304703], [-0.14322450757026672, -0.0845954418182373], [0.05244217440485954, -0.05603412538766861], [-0.06157568469643593, 0.07829960435628891], [-0.0911431685090065, 0.001689792494289577], [-0.14631791412830353, -0.058990366756916046], [-0.11187019944190979, 0.023929757997393608], [-0.03797192871570587, 0.04266633465886116], [-0.00569181377068162, -0.10209646075963974], [0.09898611903190613, -0.05157038941979408], [0.07913477718830109, -0.128091961145401]], [[-0.01676904410123825, 0.08676819503307343], [-0.0017068109009414911, -0.1312434822320938], [0.05416076257824898, -0.017738303169608116], [-0.1280275136232376, -0.06778711825609207], [0.06552064418792725, 0.06391756236553192], [0.1486498862504959, 0.010220515541732311], [-0.10817090421915054, -0.1464771330356598], [-0.10445308685302734, -0.05130530893802643], [0.11211194843053818, -0.10470268130302429], [-0.0924413725733757, -0.10100565105676651], [-0.015201466158032417, -0.09246429800987244], [-0.017661048099398613, -0.06418643146753311], [0.05786663666367531, -0.1507132351398468], [0.05726449564099312, -0.004390639252960682], [0.011978470720350742, -0.02960357442498207], [-0.1040283665060997, -0.018496204167604446], [-0.04499142989516258, 0.019235488027334213], [0.08686339855194092, 0.06464076787233353], [-0.006067434325814247, -0.04580213874578476], [-0.09047135710716248, -0.08435086160898209], [-0.07959683984518051, -0.048029541969299316], [0.02313655987381935, -0.10503305494785309], [-0.11419352144002914, -0.05290019139647484], [-0.0032757273875176907, -0.03217815235257149], [-0.07075389474630356, 0.055659759789705276], [0.0703340694308281, 0.1332278996706009], [0.03731870651245117, 0.0970550924539566], [-0.08686653524637222, -0.03941984474658966], [-0.05550653487443924, -0.07216046005487442], [-0.11420338600873947, -0.07488472759723663], [-0.10471446812152863, -0.04333875700831413], [-0.04252258688211441, -0.012745761312544346]], [[-0.13085973262786865, -0.11226768046617508], [0.09861042350530624, 0.05604333057999611], [-0.08965517580509186, -0.1258479654788971], [0.10442449152469635, -0.11907541006803513], [-0.026371018961071968, 0.04244435578584671], [-0.048030100762844086, 0.15162986516952515], [-0.0812622532248497, -0.06339371204376221], [0.0566609688103199, -0.060013528913259506], [0.02137029357254505, 0.09867572784423828], [-0.0421939380466938, -0.018288010731339455], [0.0695786252617836, -0.00103531195782125], [0.03784676268696785, -0.07964671403169632], [-0.04286794736981392, -0.01443600282073021], [-0.0850343108177185, -0.05615333467721939], [0.011108094826340675, -0.02684437297284603], [0.08939984440803528, -0.02371043525636196], [-0.03507357835769653, -0.00406687380746007], [0.10031307488679886, -0.028417805209755898], [0.008261154405772686, 0.058284468948841095], [-0.04684535041451454, -0.1765042394399643], [0.06272825598716736, -0.07902313768863678], [-0.1420092135667801, -0.10808075219392776], [-0.07206249237060547, 0.07578463107347488], [0.02377845160663128, -0.0016749342903494835], [-0.15431419014930725, -0.1123027503490448], [-0.010846979916095734, 0.002795770764350891], [-0.17512798309326172, -0.14376387000083923], [0.02893003448843956, 0.01167631521821022], [-0.03530866652727127, -0.014680826105177402], [0.010688718408346176, -0.09341475367546082], [-0.1431441307067871, 0.011793246492743492], [-0.130067840218544, -0.12782339751720428]], [[0.05525275319814682, -0.11970499902963638], [0.022152893245220184, 0.01670142635703087], [-0.02183453179895878, 0.06601893156766891], [0.028825117275118828, 0.04003266245126724], [0.1151997298002243, 0.10839691758155823], [-0.049755580723285675, -0.058295074850320816], [0.03990480676293373, 0.06981877237558365], [0.10214312374591827, -0.10800711065530777], [0.02722545713186264, 0.06386204808950424], [-0.08476018160581589, -0.014184149913489819], [-0.13400410115718842, 0.07362808287143707], [0.007570531684905291, 0.10047952830791473], [0.018342146649956703, -0.1366129219532013], [-0.0770379975438118, 0.10111678391695023], [-0.023193441331386566, 0.12306299060583115], [-0.1222890242934227, -0.07485227286815643], [0.08304052799940109, -0.10428031533956528], [-0.007820738479495049, -0.14325247704982758], [-0.060163307934999466, -0.0014680731110274792], [0.08725614100694656, 0.11710309237241745], [0.01287679560482502, 0.021351493895053864], [-0.0552125982940197, -0.14169107377529144], [0.016169095411896706, 0.008247173391282558], [0.009400460869073868, 0.08869843930006027], [-0.049674272537231445, -0.09898942708969116], [-0.004844799637794495, -0.1274179071187973], [-0.024519294500350952, 0.12726150453090668], [0.09171893447637558, -0.07147158682346344], [-0.10270307213068008, -0.07354199141263962], [0.049693457782268524, -0.06221012771129608], [-0.0668424442410469, 0.06023511663079262], [0.08222485333681107, 0.07695040851831436]], [[0.049874674528837204, -0.03349456563591957], [0.012249995954334736, -0.08923459053039551], [-0.02208932861685753, 0.09133001416921616], [0.05497473105788231, -0.00640863785520196], [0.018113330006599426, 0.028309138491749763], [-0.09022112935781479, -0.14319084584712982], [0.008816985413432121, 0.11482101678848267], [0.0028855432756245136, 0.09039746224880219], [-0.11681939661502838, -0.1030082181096077], [0.10204579681158066, -0.10459205508232117], [-0.12087833136320114, -0.06035210192203522], [-0.06481972336769104, -0.053151849657297134], [-0.09650694578886032, 0.08513984084129333], [0.09964855015277863, 0.008391881361603737], [-0.10489396750926971, 0.11920497566461563], [-0.09490814059972763, 0.11204328387975693], [0.004296928644180298, 0.12415191531181335], [-0.11546603590250015, -0.07920452952384949], [0.07774136960506439, 0.02642560377717018], [-0.009636654518544674, -0.09699676930904388], [0.1088825911283493, -0.06848794966936111], [-0.09073823690414429, 0.14210793375968933], [0.060066841542720795, -0.007557618897408247], [-0.10225188732147217, -0.040045686066150665], [-0.03915949910879135, 0.009554450400173664], [-0.09094999730587006, 0.002536403713747859], [0.060140304267406464, -0.011861376464366913], [0.047019410878419876, 0.09272776544094086], [-0.09825467318296432, 0.13593308627605438], [0.00814020074903965, -0.04764708876609802], [0.022834325209259987, 0.054556336253881454], [0.13678333163261414, -0.0915289968252182]], [[-0.07983580231666565, -0.14608536660671234], [-0.1585458517074585, -0.05829247832298279], [0.03305923193693161, 0.004027791786938906], [0.15700703859329224, 0.03344237059354782], [0.0285235233604908, -0.03718843683600426], [-0.026415258646011353, -0.018103107810020447], [0.01183232944458723, 0.15783581137657166], [-0.05552368983626366, 0.11297321319580078], [-0.04132577404379845, 0.09566028416156769], [0.1453597992658615, -0.041800547391176224], [0.02962544560432434, -0.09487145394086838], [-0.018092291429638863, 0.12838886678218842], [-0.1278725415468216, -0.03018311783671379], [0.12544259428977966, 0.11113211512565613], [0.059548601508140564, 0.14128130674362183], [0.11644714325666428, -0.013238382525742054], [0.023200880736112595, 0.14156098663806915], [-0.12403903156518936, -0.14431793987751007], [0.10512760281562805, 0.09309368580579758], [0.05422007665038109, 0.15457147359848022], [-0.032459478825330734, 0.05593300983309746], [-0.008007507771253586, -0.014664806425571442], [0.007621286902576685, -0.008567637763917446], [0.07987917959690094, -0.02454991452395916], [0.12995749711990356, -0.11600331217050552], [-0.036908768117427826, -0.08581627905368805], [0.09118660539388657, 0.06102176010608673], [0.05828343704342842, 0.07943838089704514], [0.009304978884756565, 0.12195183336734772], [-0.06071450188755989, 0.09318053722381592], [0.08559924364089966, -0.09853304177522659], [0.16723506152629852, -0.07444527745246887]], [[0.011282353661954403, -0.14381060004234314], [-0.09632495045661926, -0.029228057712316513], [-0.16611532866954803, -0.05983647331595421], [0.08328497409820557, 0.002477266127243638], [-0.12437306344509125, 0.07200629264116287], [-0.0828874409198761, -0.03128307685256004], [-0.07629556953907013, 0.09114255011081696], [0.04126278683543205, 0.12049736082553864], [0.02412489615380764, 0.15250009298324585], [0.15626560151576996, 0.03354158252477646], [0.13630437850952148, 0.04871895909309387], [0.07059459388256073, -0.03505829721689224], [0.041487764567136765, 0.12500929832458496], [0.06038519740104675, -0.03114328160881996], [-0.11497204750776291, -0.11568203568458557], [0.007825428619980812, 0.03952748328447342], [-0.09128773212432861, 0.12887132167816162], [0.053697239607572556, 0.04618080332875252], [0.00965649913996458, 0.09546693414449692], [-0.10073067992925644, -0.055057547986507416], [-0.015171859413385391, -0.05873381718993187], [0.011089203879237175, 0.15193113684654236], [-0.02585632912814617, -0.08352403342723846], [-0.12795403599739075, 0.06263413280248642], [0.08624100685119629, -0.12279864400625229], [-0.13127578794956207, -0.07676001638174057], [0.0030977462884038687, -0.16740548610687256], [-0.07650700956583023, -0.09222230315208435], [-0.12335547059774399, -0.040599606931209564], [0.07269932329654694, -0.14528989791870117], [-0.04760941490530968, 0.035882871598005295], [0.117716945707798, -0.18417248129844666]], [[-0.034994348883628845, -0.1059345155954361], [0.06878902018070221, 0.011592976748943329], [-0.09565650671720505, -0.062495552003383636], [-0.08078746497631073, 0.06525183469057083], [0.10054799914360046, -0.1608845740556717], [0.025883615016937256, -0.03704749420285225], [-0.02904985472559929, -0.04965115711092949], [-0.11623648554086685, 0.05740689858794212], [0.006823432631790638, -0.0836743414402008], [-0.04309464246034622, 0.006760553456842899], [-0.07364214211702347, -0.023548241704702377], [-0.0705195963382721, 0.00010979340004269034], [0.10540354251861572, -0.11633915454149246], [-0.1584041565656662, -0.0646887719631195], [0.01675313152372837, 0.10084924846887589], [0.04520774260163307, 0.10298261791467667], [-0.08255773037672043, 0.05381685495376587], [0.014893989078700542, 0.054241687059402466], [0.07312043011188507, -0.07840395718812943], [-0.009083980694413185, -0.06254302710294724], [-0.17108376324176788, -0.12383324652910233], [-0.09266375005245209, -0.05801958590745926], [-0.00787862204015255, 0.059693772345781326], [0.08942878246307373, -0.10010109096765518], [-0.041911281645298004, 0.07128399610519409], [0.11316663026809692, 0.14599139988422394], [-0.1655634343624115, 0.06939677894115448], [-0.05878515914082527, 0.048961155116558075], [0.09960388392210007, 0.013534974306821823], [-0.0682365745306015, -0.10911016166210175], [0.05247432738542557, -0.09460070729255676], [-0.09376779198646545, 0.1243898794054985]], [[-0.1656370460987091, 0.039207275956869125], [0.06189406290650368, 0.0348098948597908], [0.0027022988069802523, -0.03525577485561371], [0.09015333652496338, -0.11304067820310593], [-0.03532819449901581, -0.13054771721363068], [0.09376029670238495, 0.13532911241054535], [-0.014305952936410904, -0.13912738859653473], [0.09863519668579102, -0.01781138963997364], [0.14398735761642456, -0.08969482779502869], [0.016294868662953377, 0.0898873433470726], [-0.06789036095142365, -0.0722932368516922], [-0.10455620288848877, -0.015582559630274773], [0.056854069232940674, -0.01662403531372547], [0.0034406473860144615, -0.0628586858510971], [0.025789763778448105, 0.07027121633291245], [-0.0374927818775177, -0.07711052149534225], [0.005278301425278187, -0.11244798451662064], [-0.016802018508315086, 0.0757395401597023], [-0.09125815331935883, -0.1273752748966217], [-0.12059241533279419, 0.004918742459267378], [-0.05784638971090317, 0.03407961502671242], [0.04843449220061302, 0.0010249054757878184], [-0.08525796234607697, 0.072628453373909], [0.02766369841992855, -0.13714909553527832], [-0.18087515234947205, -0.084510438144207], [0.12837354838848114, 0.08418061584234238], [-0.13964451849460602, -0.0022166252601891756], [0.06133003905415535, 0.031782254576683044], [0.010702626779675484, 0.02540495991706848], [-0.13899192214012146, -0.09710031747817993], [0.06572329252958298, -0.14906032383441925], [-0.11717711389064789, -0.03231632709503174]], [[0.04105474054813385, 0.02604815550148487], [-0.01192447915673256, 0.06680544465780258], [-0.06190968677401543, -0.09114017337560654], [-0.13693292438983917, 0.01815904676914215], [0.09252035617828369, 0.06200391426682472], [-0.03231280297040939, -0.056605976074934006], [-0.042624685913324356, -0.12677353620529175], [-0.13084906339645386, 0.013547510839998722], [-0.09268002957105637, -0.12978817522525787], [-0.1440039426088333, 0.025014081969857216], [-0.12870581448078156, -0.0812927633523941], [-0.08239425718784332, -0.054625410586595535], [0.07340368628501892, 0.011967094615101814], [-0.1247875764966011, -0.06069483980536461], [0.0836562067270279, -0.0762270987033844], [0.01159566082060337, 0.07405092567205429], [0.11084555834531784, -0.07247915863990784], [-0.10901137441396713, -0.08744337409734726], [0.047788891941308975, 0.08443784713745117], [-0.0655488446354866, 0.021403325721621513], [-0.01195759791880846, -0.11697553843259811], [-0.11291136592626572, -0.12474911659955978], [-0.06493812054395676, -0.07153013348579407], [-0.11187907308340073, -0.023172417655587196], [-0.11630813777446747, -0.02314482443034649], [-0.010518309660255909, 0.11462563276290894], [-0.0375087670981884, 0.020139573141932487], [-0.02892989292740822, -0.07912316918373108], [-0.06826379150152206, 0.008468895219266415], [-0.05681009590625763, 0.04079699516296387], [0.03790794312953949, -0.10483484715223312], [-0.08729664236307144, 0.016555553302168846]], [[0.04560697451233864, 0.010941876098513603], [-0.14535698294639587, 0.10768938064575195], [-0.08423182368278503, 0.1250440925359726], [0.04957468807697296, 0.061143696308135986], [-0.06999880820512772, 0.12839506566524506], [-0.021830115467309952, 0.06765539944171906], [-0.10430900752544403, -0.11197518557310104], [-0.02213454246520996, 0.09650323539972305], [0.007300433702766895, -0.07550055533647537], [0.12983079254627228, -0.11580391973257065], [0.020590247586369514, -0.16181427240371704], [-0.1360509991645813, 0.05832413583993912], [-0.09928813576698303, 0.11713499575853348], [-0.0768243744969368, -0.0655134841799736], [-0.04967097193002701, -0.10884492099285126], [0.07034635543823242, -0.06546115130186081], [-0.07960927486419678, -0.05120940878987312], [0.06221931427717209, 0.04918112978339195], [0.0294489786028862, 0.09767007827758789], [0.07839367538690567, 0.06131824851036072], [-0.024282557889819145, -0.03769246116280556], [0.015076910145580769, 0.08556579053401947], [0.02247336506843567, 0.06679106503725052], [-0.15471051633358002, 0.034633833914995193], [-0.05985302850604057, -0.12325325608253479], [-0.025629837065935135, 0.010769769549369812], [-0.05579238012433052, -0.026929311454296112], [0.05475858971476555, -0.0474529042840004], [-0.1270992010831833, -0.03167802840471268], [0.000255372142419219, -0.0986284464597702], [-0.09105418622493744, 0.09071754664182663], [-0.07057018578052521, -0.1749136596918106]], [[-0.03043239749968052, -0.039327722042798996], [0.0796399936079979, 0.10942590981721878], [-0.05107907950878143, 0.04729415103793144], [0.10913827270269394, 0.08858025074005127], [0.12644053995609283, 0.04830086976289749], [-0.17873065173625946, -0.09849963337182999], [0.17163757979869843, 0.14775849878787994], [0.10112638771533966, 0.04525894299149513], [-0.13502691686153412, 0.12272937595844269], [-0.06295046210289001, -0.09679993987083435], [-0.14833787083625793, 0.024211596697568893], [0.07634327560663223, 0.0039644669741392136], [0.07141981273889542, 0.07714279741048813], [0.13139508664608002, 0.007409336511045694], [-0.019495710730552673, 0.005176915321499109], [-0.026944849640130997, 0.008978355675935745], [-0.0692683532834053, 0.15265284478664398], [-0.021743837743997574, 0.080617256462574], [0.058767326176166534, -0.026965025812387466], [0.10235670208930969, 0.08330577611923218], [0.12377391755580902, 0.10592938214540482], [0.03017587773501873, -0.03938873112201691], [0.08702598512172699, 0.0742219015955925], [-0.05648422986268997, 0.11547727137804031], [0.11394768208265305, -0.1504485011100769], [0.0005637998110614717, -0.04476986452937126], [0.15273208916187286, -0.10963108390569687], [-0.07516495883464813, -0.013526597060263157], [-0.0517503097653389, 0.15196794271469116], [-0.06664566695690155, 0.11152254045009613], [0.0007539219805039465, -0.030476728454232216], [0.0023765317164361477, -0.1398310512304306]], [[-0.14876465499401093, 0.05509001761674881], [0.07992058247327805, -0.09805098176002502], [-9.784969734027982e-05, -0.04861699789762497], [-0.013588685542345047, 0.09443455934524536], [0.06872767210006714, 0.05512918159365654], [0.09172284603118896, 0.11416009068489075], [-0.17363393306732178, -0.1707899570465088], [0.03404179960489273, -0.007590554654598236], [-0.0363299734890461, 0.014489657245576382], [-0.011589647270739079, -0.03846467658877373], [0.07698079943656921, 0.15208269655704498], [0.04912485182285309, -0.11951162666082382], [0.12022612243890762, 0.02246183529496193], [-0.13537052273750305, 0.023090055212378502], [-0.028515484184026718, -0.0773361325263977], [-0.0538564994931221, -0.00449108611792326], [-0.02579648233950138, -0.14051765203475952], [-0.09412126988172531, -0.09195099025964737], [-0.08626118302345276, 0.017948085442185402], [-0.06542285531759262, 0.09419605135917664], [0.006388611160218716, 0.07989100366830826], [-0.08370140939950943, -0.1065790206193924], [-0.17556221783161163, -0.05462820082902908], [0.11688029766082764, -0.07725296914577484], [-0.04911677539348602, -0.024173205718398094], [0.031919874250888824, -0.04168403148651123], [-0.013985290192067623, 0.000802651047706604], [-0.023013217374682426, 0.019130373373627663], [0.12488389015197754, -0.17184105515480042], [-0.1456080675125122, 0.07315199077129364], [-0.09970337152481079, -0.0863993912935257], [-0.061926018446683884, 0.11311333626508713]], [[0.06515811383724213, -0.08364436775445938], [-0.13306456804275513, -0.0665227398276329], [0.06838161498308182, -0.07445616275072098], [-0.08557230979204178, 0.11576247960329056], [-0.006559381261467934, -0.005732509773224592], [0.06454568356275558, 0.06153198704123497], [0.02516220323741436, -0.045985426753759384], [0.05259810388088226, -0.1427074372768402], [-0.07341177016496658, -0.09227892011404037], [-0.10062508285045624, -0.170654296875], [0.10802129656076431, -0.017027804628014565], [0.022128060460090637, -0.06472465395927429], [-0.0647333487868309, 0.10964798182249069], [-0.09496066719293594, -0.06776311993598938], [0.09752775728702545, -0.01977100968360901], [0.017721079289913177, 0.002231804421171546], [0.035121627151966095, 0.0346762090921402], [-0.006701584439724684, -0.061416082084178925], [0.08339482545852661, 0.09676007181406021], [0.057512249797582626, 0.08961275964975357], [0.007910259999334812, -0.13343778252601624], [-0.07147156447172165, -0.14235906302928925], [0.01717570424079895, 0.0534350611269474], [-0.04438459873199463, -0.11271198838949203], [0.10175729542970657, -0.05713194981217384], [-0.07171095162630081, 0.10304554551839828], [-0.01529427245259285, 0.038265980780124664], [0.018638882786035538, 0.06546635925769806], [-0.13030539453029633, 0.02259310521185398], [0.05945990979671478, -0.1255478709936142], [0.03932252898812294, 0.05150820314884186], [0.10108661651611328, -0.11680571734905243]], [[-0.01578342914581299, -0.025867117568850517], [-0.031637560576200485, 0.039791375398635864], [-0.05617454648017883, -0.12414418905973434], [0.08950481563806534, 0.04510277882218361], [0.10710685700178146, 0.03938303887844086], [0.13979417085647583, 0.11211352795362473], [0.05658743157982826, -0.04318185895681381], [-0.08526653796434402, -0.021187687292695045], [-0.07186900079250336, -0.11759231984615326], [-0.10641445219516754, -0.08153235167264938], [-0.11889548599720001, 0.1485215574502945], [-0.08465316891670227, -0.10356496274471283], [-0.036677125841379166, -0.10155203938484192], [-0.0006243922980502248, -0.06814815104007721], [-0.019934559240937233, 0.05079920217394829], [-0.09351396560668945, -0.1056327149271965], [-0.030494585633277893, -0.11211708933115005], [-0.06336747854948044, -0.10660570859909058], [0.027296748012304306, -0.04053258150815964], [-0.13970384001731873, -0.029920408502221107], [-0.009084205143153667, -0.0038798009045422077], [0.0864194929599762, -0.0657707080245018], [-0.025436734780669212, -0.07819975912570953], [0.056908972561359406, -0.1677505373954773], [0.041359879076480865, -0.06143524870276451], [-0.01945733092725277, 0.006109605543315411], [-0.10900895297527313, 0.015926877036690712], [-0.1114661693572998, -0.08776514232158661], [-0.04460858181118965, -0.1395082175731659], [-0.10712485760450363, -0.09988608956336975], [0.07529623061418533, -0.060591842979192734], [0.038242340087890625, 0.11286205053329468]], [[0.01786242052912712, -0.06042041629552841], [-0.03630267083644867, -0.11820191890001297], [-0.004972771741449833, 0.03125375136733055], [0.04003298655152321, -0.042264390736818314], [0.1470305621623993, 0.04185541346669197], [-0.13524717092514038, -0.121608667075634], [0.08337754011154175, 0.03809358552098274], [0.08729518949985504, 0.057412322610616684], [-0.0438973568379879, -0.03028065152466297], [-0.12755583226680756, 0.021220499649643898], [-0.1563257873058319, -0.14760160446166992], [-0.07638221234083176, -0.024790994822978973], [0.037804014980793, -0.07688245922327042], [0.12651914358139038, -0.06485847383737564], [0.08718083798885345, -0.06338512897491455], [0.08773286640644073, 0.11764806509017944], [0.09856070578098297, 0.026145072653889656], [-0.12732864916324615, -0.14425857365131378], [-0.06378382444381714, 0.1291949301958084], [0.028972703963518143, -0.03705398365855217], [0.04089456424117088, -0.05398930236697197], [-0.10523416846990585, 0.019232889637351036], [-0.021954912692308426, -0.11927192658185959], [-0.023271014913916588, 0.07950055599212646], [-0.0684172734618187, -0.04211171716451645], [-0.0813748762011528, -0.05204644426703453], [-0.005839078221470118, 0.0763520821928978], [-0.11555279046297073, -0.13788029551506042], [0.06938145309686661, -0.06349164247512817], [0.07762543857097626, 0.06732301414012909], [-0.06829843670129776, -0.012276516295969486], [-0.08251141011714935, -0.14763563871383667]], [[-0.16325199604034424, -0.10006921738386154], [-0.09439034014940262, 0.014278830960392952], [-0.10678455233573914, 0.022772163152694702], [-0.059119753539562225, -0.11322706937789917], [-0.13034981489181519, 0.0714375376701355], [0.11434382945299149, -0.05932466685771942], [0.009504326619207859, -0.10741280764341354], [-0.039964813739061356, -0.0035119636449962854], [0.1433553695678711, -0.1387949138879776], [-0.0783112570643425, 0.13941730558872223], [-0.10682165622711182, 0.06005432456731796], [0.06393512338399887, -0.06853663921356201], [0.08834757655858994, -0.1191445142030716], [-0.04659378156065941, 0.0012932620011270046], [0.04623027890920639, -0.02807140164077282], [0.08641014248132706, 0.10515151172876358], [0.005198016297072172, 0.09064192324876785], [0.10022863745689392, -0.086163729429245], [0.11435802280902863, 0.009910164400935173], [0.021019183099269867, -0.04598485678434372], [-0.11868535727262497, -0.11307062208652496], [-0.0010861074551939964, -0.10501351207494736], [-0.07060150802135468, 0.024854466319084167], [0.06552540510892868, -0.0908515527844429], [-0.06499496847391129, 0.11349624395370483], [0.016468174755573273, 0.13270801305770874], [-0.02514822967350483, 0.02808215469121933], [0.01928842067718506, -0.04106086492538452], [0.13205914199352264, 0.02113519422709942], [-0.12559004127979279, 0.12621086835861206], [0.10431990027427673, -0.05063731223344803], [-0.12777827680110931, 0.025386616587638855]], [[0.13910365104675293, -0.15276405215263367], [-0.022441811859607697, 0.09462936967611313], [0.07082000374794006, 0.055144019424915314], [0.06799449771642685, -0.0719885379076004], [-0.08970586210489273, 0.10076414048671722], [-0.09943706542253494, 0.0536465160548687], [0.04133041948080063, 0.03845442458987236], [-0.10055414587259293, -0.002036122838035226], [-0.09150419384241104, 0.01970328949391842], [-0.0672118291258812, -0.13490256667137146], [-0.14140692353248596, -0.08448624610900879], [0.08353454619646072, -0.10101057589054108], [0.0817183181643486, 0.13196301460266113], [0.0002417975920252502, -0.02774389460682869], [-0.09658917039632797, -0.0934797003865242], [0.010346779599785805, -0.1506844162940979], [-0.06576923280954361, -0.08166541159152985], [0.04621873423457146, -0.00593522796407342], [-0.06614501029253006, 0.1250159591436386], [0.04175536334514618, -0.1646508425474167], [0.06423866003751755, -0.06534210592508316], [-0.13612200319766998, 0.12704817950725555], [0.058414705097675323, 0.027252402156591415], [0.036056999117136, 0.04548041522502899], [-0.07343956083059311, -0.14219309389591217], [-0.08619824796915054, -0.06965716183185577], [0.12920553982257843, -0.18449720740318298], [0.06726005673408508, 0.014276763424277306], [-0.08151733875274658, 0.12499142438173294], [0.09895757585763931, -0.10374339669942856], [0.05073726177215576, -0.04258393868803978], [0.04951103404164314, -0.1313776820898056]], [[-0.15171882510185242, 0.03604670986533165], [-0.04047335684299469, -0.10891053080558777], [-0.061110347509384155, 0.010924054309725761], [0.06656666845083237, -0.029866615310311317], [0.015308205038309097, 0.02054593525826931], [0.10151059180498123, 0.021093452349305153], [-0.043180905282497406, -0.08210475742816925], [0.02672419138252735, -0.009691399522125721], [-0.11055070161819458, -0.08832205832004547], [-0.07396521419286728, -0.11413906514644623], [0.09827641397714615, -0.07619589567184448], [-0.01422518864274025, 0.06647895276546478], [-0.1295253038406372, -0.08036540448665619], [-0.1521080881357193, -0.04635041952133179], [-0.0341186560690403, 0.05451839789748192], [-0.055669378489255905, -0.04571285843849182], [-0.011825842782855034, -0.011519156396389008], [0.06395076215267181, 0.06871426850557327], [-0.1488843709230423, -0.06160829961299896], [0.06426618993282318, 0.05705436319112778], [-0.021677931770682335, 0.04367106035351753], [-0.04151148721575737, -0.09486949443817139], [0.02102532424032688, -0.1070820763707161], [0.020332179963588715, 0.03517777472734451], [-0.06966669857501984, -0.060626015067100525], [0.06658799946308136, 0.07963510602712631], [-0.1651564985513687, 0.0684913769364357], [0.04350728541612625, -0.06499416381120682], [0.007322410121560097, -0.03405154496431351], [-0.11008560657501221, -0.09387058764696121], [-0.0276943389326334, -0.13413278758525848], [-0.10677137970924377, -0.009092295542359352]], [[-0.10543552786111832, 0.13093899190425873], [0.07977637648582458, -0.12267927825450897], [-0.06786800175905228, 0.05218345671892166], [0.05459742248058319, -0.04678981751203537], [0.07714442908763885, -0.041030485183000565], [0.034817520529031754, -0.12546546757221222], [-0.08301661908626556, -0.08379709720611572], [0.10924160480499268, 0.025424646213650703], [-0.09255728125572205, -0.02641783282160759], [-0.021648980677127838, 0.13578727841377258], [0.1184941828250885, 0.09180806577205658], [0.05960940942168236, -0.031246166676282883], [-0.028643550351262093, 0.00013013574061915278], [0.0747084990143776, -0.12879042327404022], [-0.059099551290273666, 0.10051017254590988], [-0.026493575423955917, 0.15873688459396362], [0.07228420674800873, -0.13321666419506073], [0.03752691298723221, 0.03792346268892288], [-0.09572773426771164, -0.02118753455579281], [-0.16096852719783783, 0.05791642889380455], [0.0008063327986747026, 0.08038055896759033], [0.013575299642980099, -0.14171893894672394], [-0.12141565978527069, 0.11827502399682999], [0.055147331207990646, -0.03349674493074417], [-0.11959066987037659, -0.012208227068185806], [0.0009180073393508792, 0.05950435250997543], [-0.09987936913967133, 0.12429770827293396], [0.009385189972817898, 0.1197376623749733], [-0.11498536914587021, -0.010387840680778027], [0.012788754887878895, 0.15344423055648804], [-0.0942363291978836, -0.10870637744665146], [-0.024923672899603844, -0.05087709054350853]], [[-0.11585678160190582, 0.014453954994678497], [0.08698958158493042, 0.11029421538114548], [-0.05267634987831116, -0.11326195299625397], [-0.09397438913583755, -0.14608125388622284], [0.04885042458772659, 0.05497664213180542], [-0.016728084534406662, -0.04511868581175804], [-0.10108385980129242, -0.06091410666704178], [0.009911869652569294, 0.09572663903236389], [0.12007525563240051, -0.09673741459846497], [0.022157341241836548, -0.11465947329998016], [-0.022241292521357536, 0.12523989379405975], [-0.10188395529985428, -0.1207822784781456], [-0.0009231243748217821, 0.08099403977394104], [-0.13473142683506012, 0.0018105254275724292], [0.06179450452327728, 0.016808990389108658], [-0.12354526668787003, -0.058516595512628555], [0.02614491991698742, -0.06345481425523758], [-0.07861243933439255, 0.016391387209296227], [0.055672015994787216, -0.0591665655374527], [0.07988154143095016, -0.1272224634885788], [-0.1189347431063652, -0.11025004833936691], [0.010901018045842648, 0.04519635811448097], [-0.08269314467906952, -0.008154277689754963], [-0.09686721116304398, 0.015044078230857849], [0.0572129487991333, -0.06542152166366577], [0.06679000705480576, 0.16001275181770325], [0.06935595721006393, -0.06536504626274109], [0.052210547029972076, -0.05870242416858673], [-0.09509264677762985, -0.114270880818367], [0.03815777227282524, 0.03838571533560753], [0.07896637916564941, 0.07853225618600845], [0.007844994775950909, -0.10722392797470093]], [[-0.042746905237436295, -0.15517698228359222], [0.02808111160993576, 0.12426016479730606], [-0.13323336839675903, -0.03300315514206886], [0.010460760444402695, -0.1313178539276123], [-0.032524753361940384, -0.08673347532749176], [-0.1528397649526596, -0.08207560330629349], [-0.09254282712936401, 0.1109333261847496], [0.10534294694662094, 0.007449156139045954], [-0.1339007019996643, 0.13304275274276733], [-0.026453519240021706, 0.015013734810054302], [-0.009244851768016815, -0.0831967443227768], [-0.0803668424487114, 0.14601489901542664], [-0.12436343729496002, 0.03483448550105095], [0.1107039675116539, 0.05768232420086861], [-0.07819630205631256, -0.09537471830844879], [0.04497811943292618, -0.008188397623598576], [-0.049249984323978424, -0.014079172164201736], [-0.04350670427083969, 0.10456561297178268], [-0.07466349750757217, -0.012764985673129559], [0.15166433155536652, 0.08058162033557892], [0.09313591569662094, -0.018632786348462105], [0.09119388461112976, 0.07940102368593216], [-0.042006418108940125, -0.009164916351437569], [-0.04092269763350487, 0.1582326740026474], [0.09373769909143448, -0.04823476821184158], [0.09293228387832642, 0.049703098833560944], [0.012326853349804878, 0.13101837038993835], [0.15348900854587555, -0.12294687330722809], [-0.059403564780950546, 0.09861159324645996], [-0.003967695869505405, 0.10315429419279099], [0.016275718808174133, 0.059144213795661926], [-0.07800992578268051, 0.003708049887791276]], [[0.001484239473938942, -0.04447617754340172], [-0.04538266733288765, -0.026221787557005882], [0.012997761368751526, 0.0325985923409462], [0.007869541645050049, -0.012110916897654533], [-0.059683993458747864, 0.0961255431175232], [-0.15225952863693237, 0.09298853576183319], [-0.021604271605610847, 0.1277094930410385], [-0.08778644353151321, 0.0017531381454318762], [-0.05024087801575661, 0.14365017414093018], [0.06580392271280289, -0.15911366045475006], [-0.0022198506630957127, 0.01743726059794426], [0.049228206276893616, -0.010020509362220764], [-0.12118835747241974, 0.12813667953014374], [0.0034476250875741243, -0.10657057166099548], [-0.06827457249164581, -0.1057463064789772], [0.034905873239040375, -0.1153874471783638], [0.039759550243616104, 0.13295382261276245], [0.015491459518671036, -0.006110724061727524], [-0.13954217731952667, 0.11793625354766846], [-0.0948386937379837, -0.005127227399498224], [0.032430004328489304, 0.1026039570569992], [-0.15567463636398315, 0.1252995729446411], [0.004376906435936689, -0.1660580188035965], [-0.04102903977036476, -0.032790929079055786], [0.011438567191362381, 0.050016362220048904], [-0.04443727806210518, -0.0037805947940796614], [0.14707839488983154, 0.06662482768297195], [0.012690693140029907, -0.05820433422923088], [-0.09258498251438141, 0.10187322646379471], [-0.04454432427883148, -0.05677707493305206], [-0.03629119321703911, 0.09955547004938126], [-0.08970557153224945, 0.05197480320930481]], [[0.13244201242923737, -0.15885090827941895], [-0.1341271698474884, -0.010662765242159367], [-0.09102961421012878, 0.009050573222339153], [0.08837126195430756, 0.04232722520828247], [-0.11531434208154678, 0.09026630967855453], [-0.20067644119262695, -0.09350024908781052], [-0.0027825827710330486, -0.0413086973130703], [-0.06514404714107513, -0.015468052588403225], [-0.12787246704101562, 0.05340639874339104], [0.0348382443189621, -0.10116082429885864], [-0.10314124077558517, -0.0659908726811409], [-0.03516622260212898, -0.06312025338411331], [-0.11469993740320206, 0.0022000321187078953], [0.08496937900781631, -0.02086704783141613], [0.002797983353957534, 0.09834868460893631], [0.15875978767871857, -0.04438113793730736], [0.10452523082494736, 0.1534680724143982], [-0.10035105794668198, -0.07284528017044067], [0.06121817231178284, 0.012475335970520973], [0.14733456075191498, 0.023958921432495117], [0.08356191217899323, -0.11321288347244263], [0.03683935105800629, 0.0773785412311554], [0.10340851545333862, -0.13021081686019897], [-0.03879818320274353, -0.0324188768863678], [0.002619076520204544, -0.09841131418943405], [-0.08151569962501526, -0.0485425628721714], [0.0734184980392456, 0.11361641436815262], [0.02523757889866829, -0.035544656217098236], [0.07512471079826355, 0.1354207694530487], [-0.055852822959423065, -0.04132210835814476], [0.023922495543956757, -0.08005675673484802], [0.15168999135494232, -0.03321506083011627]], [[0.029978685081005096, -0.02765653282403946], [-0.07991848140954971, -0.14666864275932312], [0.02269674278795719, 0.059032898396253586], [0.014771338552236557, -0.09780124574899673], [-0.038288094103336334, -0.1481274962425232], [-0.05016273632645607, 0.13243329524993896], [-0.12584426999092102, -0.1709362417459488], [0.03230664134025574, 0.06685585528612137], [0.14821240305900574, -0.019429681822657585], [-0.14526566863059998, 0.11081092804670334], [-0.03757244348526001, 0.07985871285200119], [0.0032467942219227552, -0.04671058803796768], [0.1325347125530243, -0.013950231485068798], [-0.15474765002727509, -0.05977474898099899], [-0.05164329335093498, -0.0993889570236206], [-0.10677731037139893, 0.08236375451087952], [-0.13003133237361908, 0.057900771498680115], [0.01240183413028717, 0.1242658719420433], [-0.17436723411083221, -0.07626673579216003], [-0.01865563541650772, -0.1703115999698639], [-0.20916171371936798, -0.13977296650409698], [-0.056299638003110886, -0.041015204042196274], [-0.0555531270802021, -0.10917776077985764], [-0.07266992330551147, -0.008112273178994656], [0.019478240981698036, -0.11226639896631241], [0.02993885427713394, 0.19447053968906403], [-0.12686386704444885, -0.0714200884103775], [-0.02446844056248665, 0.14114810526371002], [0.10466878861188889, -0.17961755394935608], [-0.03674362972378731, 0.060389284044504166], [-0.01419071014970541, -0.07411369681358337], [0.04167243093252182, -0.0933656394481659]], [[0.044858671724796295, -0.15625913441181183], [0.07407758384943008, 0.04988905042409897], [-0.15620853006839752, -0.11977113038301468], [-0.048524338752031326, 0.03885165974497795], [0.017123984172940254, -0.061020344495773315], [0.13396157324314117, -0.09384667128324509], [-0.008256028406322002, -0.11464018374681473], [0.07934218645095825, -0.0975109115242958], [0.08226142823696136, 0.08858781307935715], [0.07217410951852798, 0.03833126649260521], [0.19486765563488007, 0.040080755949020386], [-0.1678522527217865, -0.166093647480011], [0.09655939042568207, 0.11169733107089996], [-0.11526979506015778, -0.06955137103796005], [0.002273116260766983, -0.01798742264509201], [0.10068371891975403, 0.09682263433933258], [-0.13262128829956055, 0.05159103125333786], [-0.047541454434394836, 0.09554209560155869], [0.033685989677906036, -0.03004157543182373], [-0.010695446282625198, 0.0455000065267086], [-0.1248469352722168, 0.06506777554750443], [-0.09112443029880524, 0.07783116400241852], [-0.13038834929466248, -0.0896809846162796], [-0.12004616856575012, -0.013460320420563221], [0.015563864260911942, -0.14669935405254364], [0.03709396347403526, 0.10730885714292526], [0.07133538275957108, -0.1234113946557045], [-0.013537469319999218, 0.0040422589518129826], [0.05652255937457085, 0.07749707996845245], [-0.12248960137367249, 0.048801254481077194], [-0.1682630330324173, -0.061377108097076416], [0.07727715373039246, 0.009409301914274693]], [[0.12932322919368744, -0.16037002205848694], [-0.16482195258140564, 0.076907217502594], [-0.07868774980306625, 0.041269369423389435], [-0.036200422793626785, -0.18023301661014557], [0.020818205550312996, 0.12588223814964294], [-0.11789354681968689, -0.053524065762758255], [-0.09723179787397385, 0.03299645707011223], [0.03306702896952629, 0.07046626508235931], [-0.12600237131118774, -0.01709430105984211], [-0.0730978325009346, -0.1375373750925064], [0.07335828244686127, -0.0652373880147934], [-0.12847362458705902, -0.12345748394727707], [-0.058355946093797684, 0.045324910432100296], [-0.06171577423810959, -0.042054396122694016], [0.06534267216920853, -0.13538604974746704], [-0.05647275596857071, -0.09234840422868729], [-0.1271631419658661, -0.06728634238243103], [-0.03164846822619438, -0.00043392195948399603], [-0.14338739216327667, -0.1217094361782074], [-0.08176644891500473, -0.13096371293067932], [0.027737654745578766, -0.11467106640338898], [-0.04791894927620888, 0.0389721542596817], [-0.010122616775333881, -0.0007306492188945413], [-0.06940421462059021, 0.10032617300748825], [0.04977313429117203, -0.008362396620213985], [-0.06640435010194778, 0.10477007180452347], [0.02631056122481823, -0.18631288409233093], [-0.07859476655721664, -0.1800776720046997], [0.06427574902772903, 0.1320982128381729], [0.07985579967498779, -0.05509159713983536], [-0.13080383837223053, 0.04953080788254738], [-0.0008494057110510767, 0.05295034870505333]], [[-0.053269825875759125, -0.022825011983513832], [0.090251125395298, -0.05400920286774635], [-0.0014314071740955114, -0.10710834711790085], [-0.16936713457107544, 0.06610838323831558], [0.10181821137666702, -0.13131234049797058], [0.14725781977176666, -0.10196110606193542], [-0.10850754380226135, 0.06084714084863663], [-0.04682948440313339, 0.0809958353638649], [0.08726370334625244, 0.08764277398586273], [-0.13001297414302826, -0.04842917621135712], [-0.04046466201543808, 0.010658116079866886], [-0.01710566319525242, -0.020443161949515343], [0.015255793929100037, -0.09636961668729782], [-0.03464563190937042, 0.027658967301249504], [-0.06196662411093712, -0.023211492225527763], [-0.12630705535411835, 0.0637626200914383], [0.1049719974398613, 0.0746491551399231], [0.04388376325368881, 0.056498292833566666], [-0.08678236603736877, -0.04031927138566971], [-0.045475512742996216, -0.13685719668865204], [-0.006225815042853355, -0.10262726247310638], [0.07534215599298477, 0.08750670403242111], [-0.08336855471134186, -0.04001188278198242], [-0.07211180776357651, -0.07252378016710281], [-0.1109422892332077, 0.0834069699048996], [0.027826698496937752, 0.15610060095787048], [-0.025937478989362717, 0.013213072903454304], [-0.15916043519973755, -0.04637181758880615], [0.12411364912986755, -0.10409354418516159], [-0.17413456737995148, -0.03564253821969032], [-0.11496397107839584, -0.13579528033733368], [0.010436073876917362, -0.032285794615745544]], [[0.08516605198383331, 0.10910702496767044], [0.09334869682788849, 0.03651442751288414], [-0.0725792795419693, 0.01957818493247032], [0.043772149831056595, 0.122722327709198], [-0.03689417243003845, 0.06937052309513092], [0.17191778123378754, -0.07304301112890244], [-0.01106529776006937, 0.03961849585175514], [-0.03177773579955101, 0.008010988123714924], [-0.04638136550784111, -0.14282609522342682], [0.07477452605962753, 0.10502544045448303], [-0.06130083650350571, 0.09583863615989685], [0.03711548447608948, -0.09390018880367279], [0.040979091078042984, -0.131834477186203], [0.021873774006962776, -0.13007597625255585], [-0.03204253315925598, -0.03413841873407364], [0.008113838732242584, -0.09669710695743561], [0.09983502328395844, 0.04790908843278885], [0.12245172262191772, 0.05244714766740799], [0.05698326602578163, 0.05793532356619835], [-0.16789640486240387, -0.07497763633728027], [0.06643456965684891, -0.07256355881690979], [0.1099330335855484, -0.03726164624094963], [-0.14460591971874237, 0.03214563429355621], [-0.05298548936843872, -0.025334982201457024], [-0.061726298183202744, 0.09556600451469421], [0.09179138392210007, 0.006860390771180391], [0.024505721405148506, -0.055826492607593536], [-0.08938461542129517, 0.15045718848705292], [0.11950351297855377, -0.07448280602693558], [-0.09576766937971115, 0.14159399271011353], [0.10157297551631927, -0.13299870491027832], [-0.1001518964767456, -0.09602606296539307]], [[0.04468708485364914, 0.10789743810892105], [0.1120026633143425, -0.13336865603923798], [0.02312539331614971, 0.007654836867004633], [-0.05243998393416405, 0.13302333652973175], [0.1125851571559906, -0.10410869121551514], [0.1646145135164261, -0.14658112823963165], [-0.14903895556926727, -0.09858166426420212], [0.06379048526287079, 0.04918316751718521], [0.11344003677368164, -0.04933837801218033], [0.09525860100984573, 0.16886579990386963], [0.04720005393028259, 0.15737254917621613], [0.03151611238718033, 0.04032791033387184], [0.1056184247136116, -0.1484045684337616], [-0.0041476101614534855, -0.0013218977255746722], [-0.002547017764300108, -0.09108775854110718], [-0.09636929631233215, 0.13639572262763977], [-0.09158261865377426, -0.018687816336750984], [0.09700286388397217, -0.09063266962766647], [-0.09329405426979065, -0.056437768042087555], [-0.04605373740196228, 0.06773026287555695], [0.04874107986688614, -0.12098835408687592], [0.06103208661079407, -0.15572042763233185], [-0.16592542827129364, -0.06870472431182861], [0.0067348480224609375, 0.0014380300417542458], [0.044720448553562164, 0.16101939976215363], [0.1053883284330368, -0.008881237357854843], [0.0433780774474144, -0.037712499499320984], [0.013293477706611156, 0.06804148107767105], [0.139838308095932, -0.06923501193523407], [-0.05982625484466553, 0.12153519690036774], [-0.10160061717033386, -0.08924341201782227], [0.08098519593477249, -0.04312554746866226]], [[-0.03445606306195259, -0.13702696561813354], [0.046307094395160675, -0.04067785292863846], [0.04902078956365585, -0.17074744403362274], [-0.1180865690112114, -0.10547752678394318], [0.05257674306631088, -0.0010244372533634305], [0.14272303879261017, -0.03727003559470177], [-0.16180485486984253, -0.1767144352197647], [0.006598020903766155, -0.05127017945051193], [0.07698632776737213, -0.060928355902433395], [-0.03977070748806, 0.019970348104834557], [0.10736046731472015, -0.01472578477114439], [-0.014205318875610828, -0.11430252343416214], [-0.011973324231803417, -0.09431686997413635], [0.014640887267887592, -0.15610679984092712], [-0.04457935318350792, -0.0670647844672203], [0.05999797582626343, 0.08519360423088074], [-0.07891401648521423, -0.14125420153141022], [-0.09434173256158829, -0.03594175726175308], [-0.03232265263795853, -0.059905409812927246], [-0.13559623062610626, -0.13980945944786072], [0.01749211549758911, 0.057656798511743546], [-0.00904300156980753, 0.002249892335385084], [-0.052037496119737625, -0.07514391839504242], [0.08893389999866486, 0.042692843824625015], [-0.16492122411727905, -0.1083916574716568], [-0.017596783116459846, -0.0014443743275478482], [0.06910309940576553, -0.17342586815357208], [0.09301891922950745, 0.008993644267320633], [0.06901144981384277, -0.10496402531862259], [-0.13641852140426636, 0.02936006896197796], [-0.12485302984714508, -0.1802363246679306], [-0.09513196349143982, 0.02835097350180149]], [[0.04264489561319351, -0.07984577864408493], [-0.08113884180784225, 0.07647127658128738], [-0.16667789220809937, 0.04599976912140846], [-0.11444283276796341, -0.08362282067537308], [-0.10371368378400803, -0.06458219885826111], [0.15768364071846008, -0.08473596721887589], [-0.15002484619617462, -0.07131689041852951], [-0.1377435326576233, -0.003382400143891573], [0.025998657569289207, -0.012343190610408783], [0.08933041244745255, -0.08938631415367126], [0.10857641696929932, -0.03651335835456848], [-0.03931532800197601, -0.1524048000574112], [0.10266198962926865, 0.10723291337490082], [0.06703987717628479, -0.12619628012180328], [0.09014758467674255, -0.03139817714691162], [-0.07320841401815414, 0.1028561219573021], [-0.04244827479124069, -0.13814158737659454], [-0.053487375378608704, 0.05334314703941345], [-0.061056073755025864, 0.025709157809615135], [-0.0032304159831255674, -0.13971835374832153], [-0.10436300933361053, -0.08889756351709366], [0.052272945642471313, -0.1274677813053131], [0.06865626573562622, 0.04567738622426987], [-0.11867198348045349, -0.11144920438528061], [-0.09752558916807175, -0.13318589329719543], [0.010895400308072567, 0.060838375240564346], [-0.07173950970172882, -0.002304083900526166], [-0.12813058495521545, -0.04090489447116852], [-0.09339795261621475, 0.016281435266137123], [-0.060087110847234726, -0.05263488367199898], [-0.17479893565177917, -0.1621984988451004], [-0.09495650231838226, 0.04548384249210358]], [[-0.04983338341116905, -0.08577197790145874], [0.10883539170026779, -0.04573681205511093], [-0.11248742043972015, -0.11759056150913239], [-0.03202125057578087, -0.0003356197848916054], [0.07487983256578445, -0.0915532112121582], [-0.06443460285663605, 0.07260776311159134], [-0.05848955735564232, -0.11068518459796906], [-0.05295102298259735, -0.1276388019323349], [0.11378581076860428, -0.10416629910469055], [-0.10549844056367874, 0.15811961889266968], [0.0888303592801094, 0.04685409367084503], [-0.1540335714817047, -0.13028275966644287], [0.014386584050953388, 0.10546422004699707], [-0.11762324720621109, 0.009353323839604855], [-0.03209230676293373, -0.0518307164311409], [-0.062171608209609985, 0.009797143749892712], [-0.04137871786952019, -0.07100429385900497], [0.08161794394254684, -0.03119843825697899], [-0.08297383040189743, -0.10509567707777023], [-0.16942542791366577, -0.0795009508728981], [-0.12754833698272705, 0.01498680841177702], [-0.0463823564350605, -0.07952702790498734], [0.04287337884306908, 0.08338960260152817], [-0.038100678473711014, 0.04691826179623604], [0.03718649968504906, -0.04496593028306961], [0.0687415674328804, -0.007192187011241913], [0.005120072513818741, -0.16878283023834229], [-0.05695980042219162, -0.017255036160349846], [-0.057576946914196014, -0.02180390991270542], [0.08155452460050583, 0.0465911366045475], [-0.11051958799362183, -0.14415249228477478], [-0.10547041147947311, -0.012408197857439518]], [[-0.04650124907493591, -0.10028328746557236], [0.07272583246231079, 0.16094166040420532], [-0.05282926559448242, 0.004100012592971325], [0.0810939371585846, -0.04622606560587883], [0.02970074489712715, 0.022839631885290146], [0.029797585681080818, -0.07002601027488708], [0.11696401983499527, -0.0416368767619133], [0.009074809029698372, -0.06434894353151321], [-0.028613867238163948, 0.10181400924921036], [0.031010452657938004, -0.16527096927165985], [0.10118044912815094, 0.0596243180334568], [-0.06984147429466248, 0.021817317232489586], [-0.056383758783340454, 0.12898153066635132], [0.05583643913269043, 0.02822369523346424], [0.11816031485795975, -0.12823402881622314], [0.12197607010602951, -0.07861323654651642], [-0.03973381593823433, 0.012109651230275631], [0.07260014861822128, -0.0637831836938858], [-0.11304985731840134, -0.03391769528388977], [-0.05063778534531593, -0.15231674909591675], [0.07959151268005371, -0.05605018511414528], [0.10045300424098969, 0.14197906851768494], [-0.01401429995894432, -0.16338682174682617], [-0.06259727478027344, 0.15076914429664612], [0.14602994918823242, -0.17919903993606567], [-0.005899418145418167, -0.007124635856598616], [0.10621988773345947, 0.005161095876246691], [0.1361733227968216, 0.042396098375320435], [-0.0014632957754656672, 0.11502351611852646], [-0.029990557581186295, -0.014390374533832073], [-0.05581248179078102, 0.04803519323468208], [0.03881451487541199, -0.000702800287399441]], [[-0.01579635590314865, 0.13289198279380798], [0.10919663310050964, 0.05901053175330162], [-0.09669745713472366, 0.0600908100605011], [-0.15100395679473877, -0.11070681363344193], [-0.13106873631477356, 0.026927776634693146], [0.08153083175420761, 0.06539846211671829], [-0.1572914719581604, -0.08687262237071991], [-0.06090202182531357, -0.1104641705751419], [0.10835228860378265, -0.04422484710812569], [-0.12274833768606186, 0.008734090253710747], [0.09805471450090408, -0.04034075513482094], [-0.03789885342121124, -0.049699816852808], [-0.03735728934407234, -0.004209510516375303], [-0.017820633947849274, 0.017565635964274406], [0.059377722442150116, -0.012982165440917015], [-0.08686630427837372, 0.021124958992004395], [0.0625462457537651, -0.13794225454330444], [-0.0038298452273011208, -0.045178983360528946], [0.0022772394586354494, -0.12644919753074646], [-0.15225496888160706, -0.15841062366962433], [-0.09825631231069565, -0.0173504501581192], [-0.0899805873632431, -0.15226581692695618], [-0.07476445287466049, 0.019040657207369804], [-0.12575910985469818, -0.03402945399284363], [-0.12468429654836655, -0.13058426976203918], [0.04431043565273285, 0.12024811655282974], [-0.03632274642586708, 0.01921829767525196], [-0.11309954524040222, 0.0569816417992115], [-0.04857366904616356, -0.12644869089126587], [-0.03323569521307945, 0.057185038924217224], [0.09492195397615433, -0.0963059514760971], [-0.08929765224456787, 0.02877284586429596]], [[-0.05736290663480759, 0.09739076346158981], [-0.026849927380681038, -0.0867900550365448], [-0.008468743413686752, 0.057517267763614655], [-0.001829963643103838, -0.0196453258395195], [-0.017200252041220665, -0.05660461634397507], [0.17195254564285278, 0.023526156321167946], [-0.0679929107427597, -0.15925101935863495], [-0.11365959793329239, -0.0809120386838913], [0.16282179951667786, -0.022829528898000717], [-0.11305174231529236, 0.10619144886732101], [-0.024319669231772423, 0.12530383467674255], [-0.15874582529067993, -0.14220461249351501], [0.05255284905433655, -0.0018085865303874016], [-0.08792586624622345, -0.02671525999903679], [-0.11249049752950668, -0.09602315723896027], [-0.14888696372509003, 0.12370310723781586], [-0.08854840695858002, 0.025688018649816513], [0.13588684797286987, 0.09315665811300278], [-0.10528578609228134, 0.027391789481043816], [-0.11707989126443863, 0.05481966584920883], [-0.16978925466537476, 0.03330087661743164], [0.11071319878101349, -0.16008327901363373], [-0.044583242386579514, 0.03194741904735565], [0.032749295234680176, 0.05932335555553436], [0.021513573825359344, 0.11578917503356934], [0.21457625925540924, 0.005245644599199295], [-0.1777951419353485, 0.08582914620637894], [-0.017467739060521126, 0.0723893865942955], [-0.10882715880870819, 0.03367767855525017], [-0.12946438789367676, 0.021923858672380447], [0.07568231225013733, 0.04672746732831001], [-0.07363607734441757, -0.07136566191911697]], [[0.06656137853860855, -0.13986173272132874], [-0.10834886878728867, 0.010339760221540928], [0.059763893485069275, -0.04288448020815849], [-0.12179511040449142, 0.10258200764656067], [-0.10324472934007645, -0.08032514154911041], [0.08006758242845535, 0.13442860543727875], [-0.17121990025043488, -0.024874066933989525], [-0.0712335854768753, -0.021301394328475], [0.028734005987644196, 0.1311185359954834], [-0.08944197744131088, 0.14432664215564728], [-0.004875448532402515, 0.018885010853409767], [-0.05719025805592537, -0.1426261067390442], [-0.10899239778518677, -0.02609829418361187], [0.007915837690234184, -0.14052969217300415], [-0.13109195232391357, 0.09936502575874329], [0.007996846921741962, 0.07386193424463272], [-0.11877311021089554, 0.026671065017580986], [0.11879177391529083, -0.09601423144340515], [-0.0152877327054739, 0.023073317483067513], [-0.029366211965680122, -0.1391802877187729], [-0.13239255547523499, -0.05255882814526558], [0.051804374903440475, 0.050694581121206284], [-0.043465930968523026, 0.008928737603127956], [-0.022785061970353127, 0.09036795794963837], [0.02852608822286129, 0.023151332512497902], [-0.030857011675834656, 0.14029374718666077], [-0.15025010704994202, -0.10030156373977661], [-0.04345255717635155, 0.0026938889641314745], [-0.10204487293958664, -0.12989000976085663], [-0.1009625568985939, -0.15545067191123962], [-0.05829621106386185, -0.06469477713108063], [-0.1299038827419281, -0.046287089586257935]], [[0.09227428585290909, -0.15221770107746124], [-0.06152406334877014, 0.029244469478726387], [-0.07451438158750534, 0.10620850324630737], [-0.057327378541231155, -0.06322237104177475], [-0.12912501394748688, 0.08785092085599899], [-0.07675983011722565, -0.08098015934228897], [-0.08651687949895859, 0.015387357212603092], [0.08250374346971512, -0.10324707627296448], [-0.13810674846172333, -0.0043177297338843346], [0.05586833506822586, -0.10451926290988922], [-0.014889662154018879, -0.06860458850860596], [0.08889967203140259, 0.12979406118392944], [-0.024117939174175262, -0.022983280941843987], [-0.02912011928856373, 0.13844002783298492], [-0.03506310656666756, 0.050178151577711105], [0.0038704618345946074, 0.1184675469994545], [0.10204723477363586, 0.07356271892786026], [-0.09123290330171585, 0.05350800231099129], [-0.13256703317165375, -0.08250638097524643], [0.11242447048425674, -0.08968033641576767], [-0.04950614273548126, -0.05025322362780571], [-0.15741854906082153, 0.11593221873044968], [0.12194595485925674, 0.012686995789408684], [-0.08231022953987122, -0.03304693102836609], [0.013487174175679684, -0.11144144088029861], [0.044808730483055115, -0.07710695266723633], [0.0159170962870121, 0.11467888951301575], [0.08812519162893295, 0.07882868498563766], [-0.005393631756305695, 0.12464174628257751], [0.041138239204883575, 0.11226589232683182], [-0.12040530890226364, -0.0010783590842038393], [-0.001506452914327383, -0.047878436744213104]], [[-0.17253944277763367, -0.1093239113688469], [0.07407175749540329, 0.08533444255590439], [-0.054472871124744415, 0.06335071474313736], [0.0691627785563469, -0.015607394278049469], [0.02851502224802971, -0.10659417510032654], [0.10810216516256332, 0.1679520159959793], [0.05288300663232803, -0.10313528776168823], [-0.030660176649689674, -0.15553046762943268], [0.08549565821886063, 0.147268608212471], [-0.16036081314086914, -0.14712680876255035], [-0.03696562349796295, -0.0435122549533844], [0.051525700837373734, -0.1031041070818901], [0.067458376288414, -0.03533395752310753], [0.03879067301750183, -0.11033671349287033], [0.07109983265399933, -0.029172416776418686], [0.08711665123701096, -0.11292117089033127], [-0.0909745842218399, -0.12966522574424744], [0.07453374564647675, -0.08242008090019226], [0.04139384627342224, 0.07309984415769577], [-0.052196163684129715, -0.13762670755386353], [-0.1519058495759964, -0.06888829916715622], [-0.05528834089636803, -0.02827388048171997], [-0.05731217563152313, 0.03642960637807846], [0.08985050767660141, 0.025089537724852562], [-0.03926607593894005, -0.05171367898583412], [-0.026325976476073265, 0.10878471285104752], [0.03116924688220024, -0.060509953647851944], [-0.035500556230545044, -0.1150868684053421], [0.05664018541574478, 0.008730943314731121], [0.025874583050608635, -0.06937377899885178], [-0.14022289216518402, -0.06146085262298584], [0.024677105247974396, -0.17432312667369843]], [[0.03804141283035278, -0.03900749608874321], [0.06069572642445564, -0.08289710432291031], [-0.015158690512180328, 0.044752176851034164], [-0.057837724685668945, 0.05585113540291786], [-0.022660331800580025, 0.038993604481220245], [-0.047704726457595825, -0.1122613400220871], [-0.09773766249418259, 0.06360794603824615], [0.03126809746026993, -0.04031112790107727], [-0.0990479364991188, 0.08878064155578613], [0.09668096899986267, -0.06977367401123047], [0.04167215898633003, 0.005847093183547258], [-0.05616806447505951, 0.130314901471138], [-0.013482937589287758, 0.05184733867645264], [-0.008955755271017551, 0.07581615447998047], [0.07426536083221436, -0.09711886942386627], [0.053914882242679596, -0.10825623571872711], [0.01741580106317997, 0.07577306777238846], [-0.09206517040729523, -0.11063439399003983], [-0.026004238054156303, 0.029400132596492767], [0.0987059473991394, -0.07303650677204132], [0.0823155865073204, 0.012739860452711582], [-0.12673881649971008, 0.004402938764542341], [0.005216651596128941, 0.06356625258922577], [-0.16169025003910065, -0.04405190423130989], [0.010407708585262299, 0.04267067462205887], [-0.01569509692490101, -0.10949019342660904], [0.09716147929430008, 0.057697564363479614], [0.04005955159664154, -0.09142409265041351], [0.01453794538974762, 0.09832777827978134], [0.035783227533102036, -0.01580735482275486], [-0.1365894228219986, 0.09273235499858856], [0.11121299117803574, 0.03358621895313263]], [[-0.06560587137937546, -0.14781291782855988], [-0.036025550216436386, -0.1048588678240776], [-0.09489474445581436, 0.03451531380414963], [-0.009381244890391827, 0.022752143442630768], [0.09369639307260513, 0.03855006769299507], [-0.05879819020628929, 0.08354876935482025], [-0.011857559904456139, -0.018392413854599], [-0.04619770124554634, -0.07260370999574661], [-0.130361407995224, -0.028681054711341858], [0.1459718942642212, -0.030284464359283447], [0.0754704475402832, 0.038086626678705215], [-0.1470358818769455, -0.06181208789348602], [-0.0019009291427209973, 0.019135354086756706], [0.0450843870639801, -0.030537419021129608], [0.027835160493850708, 0.0332002155482769], [-0.07301995903253555, -0.016044963151216507], [-0.11939114332199097, 0.10509798675775528], [-0.06191377341747284, -0.09177322685718536], [-0.13625991344451904, 0.0486893504858017], [0.10960154980421066, 0.09676086157560349], [-0.07014376670122147, 0.10386664420366287], [0.01844312623143196, -0.001270164386369288], [-0.11440744996070862, -0.09050465375185013], [-0.037384845316410065, -0.02377479337155819], [0.07151313126087189, 0.042146019637584686], [0.05570252612233162, -0.027298390865325928], [0.10965292155742645, -0.013688672333955765], [-0.03306679427623749, -0.14721380174160004], [-0.14994299411773682, 0.11441044509410858], [0.09946181625127792, 0.02260732837021351], [-0.14436616003513336, -0.0925026535987854], [0.018903935328125954, 0.005991494748741388]], [[0.027014901861548424, 0.05443814769387245], [-0.13024666905403137, 0.11158255487680435], [-0.1269664466381073, -0.0693940743803978], [-0.0781332477927208, -0.029396522790193558], [-0.11785513162612915, 0.06659194827079773], [0.01295709889382124, -0.09332768619060516], [0.011659749783575535, 0.051431529223918915], [-0.10642773658037186, 0.04332747682929039], [-0.11054101586341858, 0.028905117884278297], [0.1716652810573578, -0.05214453116059303], [-0.10067714750766754, -0.19499367475509644], [-0.09464675933122635, -0.009082237258553505], [-0.09109079092741013, 0.07212304323911667], [-0.14567911624908447, -0.09428301453590393], [0.01873854734003544, 0.13017801940441132], [0.12800061702728271, -0.10147267580032349], [-0.06262478977441788, -0.0120735764503479], [-0.03259764611721039, 0.04980854690074921], [-0.1358458250761032, 0.0676170364022255], [0.03895401582121849, -0.015102150849997997], [-0.12102479487657547, -0.07282883673906326], [-0.1384139508008957, 0.10439932346343994], [-0.002090591937303543, -0.0748281180858612], [-0.09283826500177383, 0.06222367286682129], [0.1210167333483696, 0.023493941873311996], [0.0013197052758187056, -0.08106467127799988], [0.119327113032341, 0.08350982517004013], [0.09499329328536987, -0.13069944083690643], [0.01439626980572939, 0.0937676951289177], [-0.01987368054687977, 0.03578006848692894], [-0.04335968568921089, 0.07746691256761551], [0.15366867184638977, -0.13008546829223633]], [[0.06127963587641716, -0.04342141002416611], [0.021444037556648254, 0.07668904960155487], [-0.09156874567270279, 0.05253051593899727], [0.021391864866018295, 0.09207253158092499], [-0.12553976476192474, 0.06524530798196793], [-0.02969524636864662, 0.10229817032814026], [-0.045993950217962265, 0.028543677181005478], [0.09141897410154343, 0.06623195111751556], [0.0904199555516243, 0.11481016874313354], [0.011339018121361732, -0.027164673432707787], [-0.09147018939256668, 0.09214409440755844], [-0.014304636046290398, -0.16219909489154816], [-0.11887771636247635, -0.010509609244763851], [-0.10589553415775299, -0.1112857460975647], [-0.12746597826480865, 0.0351751372218132], [-0.07742413133382797, -0.11057582497596741], [0.06458225101232529, -0.07161527872085571], [-0.031025419011712074, 0.10307745635509491], [-0.0762103870511055, 0.012374494224786758], [-0.08748800307512283, -0.0719170793890953], [-0.058098502457141876, 0.05893738195300102], [0.11525792628526688, 0.006555382162332535], [-0.08782443404197693, -0.11222849041223526], [0.02248099446296692, -0.15931753814220428], [0.03504900261759758, -0.07995984703302383], [0.012618234381079674, 0.09911435097455978], [-0.12857452034950256, 0.027916446328163147], [-0.11816933006048203, 0.11766133457422256], [0.03376757353544235, -0.038730330765247345], [-0.007805452216416597, 0.016027996316552162], [-0.010861060582101345, -0.10921981930732727], [-0.09671220183372498, 0.05711749941110611]], [[0.071168452501297, -0.03238789364695549], [-0.004503028932958841, 0.02489633299410343], [0.05398741364479065, -0.09541100263595581], [-0.05649515986442566, -0.15645156800746918], [0.022203661501407623, -0.05158039182424545], [0.021614883095026016, -0.0618506520986557], [0.021626174449920654, 0.02733745239675045], [0.011864813975989819, 0.09301247447729111], [0.0006831020000390708, 0.0961519256234169], [-0.05035915598273277, -0.191625714302063], [0.029254261404275894, -0.15536773204803467], [0.11956192553043365, -0.06649329513311386], [-0.027647899463772774, 0.13823841512203217], [0.028082843869924545, -0.05291519686579704], [0.07917661219835281, -0.06078947335481644], [0.08477841317653656, -0.13974739611148834], [-0.004028652794659138, 0.07798262685537338], [0.002483149990439415, -0.09671560674905777], [0.08412427455186844, 0.030556712299585342], [0.11280735582113266, -0.1390206217765808], [0.0932333916425705, 0.02981993556022644], [-0.09599348157644272, 0.07693230360746384], [-0.008664164692163467, -0.17714563012123108], [-0.1179678663611412, 0.027458462864160538], [0.13473615050315857, -0.11923687160015106], [-0.021497907117009163, -0.0033923208247870207], [-0.029672466218471527, 0.04884473606944084], [-0.026545386761426926, -0.09708531200885773], [-0.14052484929561615, 0.031156381592154503], [0.04321794956922531, -0.021574094891548157], [0.06885372847318649, 0.13453985750675201], [0.07032082974910736, -0.09752146899700165]], [[0.0656246617436409, -0.05840320140123367], [0.1132708415389061, 0.0070295147597789764], [0.004061464685946703, -0.11839869618415833], [-0.07418108731508255, 0.01467999815940857], [-0.1515093892812729, -0.10541645437479019], [0.12973125278949738, 0.07373974472284317], [-0.09520623087882996, -0.00969327799975872], [-0.141725093126297, -0.1385098248720169], [0.021763192489743233, 0.024579834192991257], [0.10084722191095352, 0.06872300803661346], [0.07467455416917801, -0.010601832531392574], [0.029165977612137794, 0.019180061295628548], [-0.12104067951440811, -0.032373830676078796], [-0.0024259104393422604, -0.11986781656742096], [-0.11880955100059509, -0.06140577048063278], [0.027611279860138893, -0.062054164707660675], [-0.11547461152076721, -0.1306273192167282], [0.09070456773042679, -0.07727158814668655], [-0.11358808726072311, -0.18040795624256134], [0.03991781547665596, 0.05921214073896408], [-0.11043860763311386, 0.04248936101794243], [-0.04849373176693916, -0.0074581545777618885], [-0.041756704449653625, -0.021512940526008606], [0.05169343948364258, -0.16483744978904724], [-0.08850801736116409, 0.09447626024484634], [0.041140343993902206, 0.008722535334527493], [0.057737525552511215, 0.0008238240843638778], [-0.016172492876648903, 0.1568162888288498], [0.0011416716733947396, -0.14518342912197113], [0.06307434290647507, 0.04810459539294243], [-0.11280117928981781, -0.010724904015660286], [0.10513418912887573, 0.03020544908940792]], [[-0.041539475321769714, -0.11014630645513535], [-0.034562841057777405, -0.012628366239368916], [-0.03150288388133049, -0.055926401168107986], [-0.041924770921468735, -0.13837052881717682], [0.12928614020347595, 0.025715090334415436], [-0.0448279045522213, 0.053202468901872635], [0.09366274625062943, 0.07437023520469666], [-0.04649415239691734, -0.07299330085515976], [-0.07779497653245926, 0.08829136937856674], [-0.12714160978794098, -0.15492576360702515], [-0.13792552053928375, -0.021582823246717453], [-0.028937291353940964, 0.11637983471155167], [0.07025010883808136, 0.11762906610965729], [-0.08459029346704483, -0.006045456975698471], [-0.08746996521949768, -0.04937358573079109], [0.09606993198394775, -0.09884496033191681], [0.1277434527873993, -0.041561778634786606], [-0.03642585501074791, 0.11503617465496063], [-0.06705807894468307, 0.11465755105018616], [-0.05041232332587242, 0.022176425904035568], [0.1195799857378006, 0.06715463846921921], [0.05588173866271973, 0.015208031050860882], [-0.013110429048538208, 0.07518362253904343], [-0.02608553133904934, 0.15772372484207153], [0.13450199365615845, -0.09962151944637299], [0.010916689410805702, -0.1502433717250824], [0.13954459130764008, 0.10893075913190842], [0.03091260977089405, -0.11296813935041428], [0.07408750802278519, 0.1101982593536377], [0.02256910316646099, 0.008328443393111229], [0.10524855554103851, 0.1234969049692154], [0.08308803290128708, -0.09681461751461029]], [[0.004074227996170521, 0.10961853712797165], [-0.028582870960235596, -0.135385662317276], [-0.003393866354599595, -0.0968891903758049], [0.04993802309036255, 0.10196773707866669], [-0.051955100148916245, -0.040650300681591034], [0.04454900696873665, -0.19200502336025238], [0.015896014869213104, 0.03846842795610428], [0.05996920168399811, 0.05565880984067917], [-0.0785624235868454, 0.0447889007627964], [-0.07519476860761642, 0.06863533705472946], [-0.14262589812278748, -0.006468917243182659], [-0.06336445361375809, 0.03843345865607262], [0.13021689653396606, -0.11038081347942352], [-0.06028290092945099, 0.10923326760530472], [-0.1152343600988388, 0.05412571132183075], [-0.09209354221820831, 0.10771092027425766], [0.11080074310302734, 0.06874525547027588], [0.07113585621118546, 0.0027808526065200567], [0.12541569769382477, -0.13841325044631958], [0.05010818690061569, 0.11974217742681503], [0.0808653011918068, -0.039574045687913895], [0.1371787190437317, -0.09796314686536789], [-0.06419242173433304, 0.03271365538239479], [-0.06269869208335876, -0.1674381047487259], [0.0524296760559082, 0.03027159720659256], [0.046833980828523636, 0.0092396829277277], [-0.13923709094524384, 0.023959072306752205], [-0.1398458182811737, -0.03716501221060753], [0.10361795127391815, -0.0042868247255682945], [0.08472871035337448, 0.10920925438404083], [0.06930916756391525, 0.05070215463638306], [-0.03776967152953148, 0.11281997710466385]], [[-0.06522796303033829, -0.13306917250156403], [-0.015161932446062565, 0.08802537620067596], [-0.1592908650636673, 0.1015220433473587], [-0.0742211788892746, 0.03415638580918312], [-0.1399683803319931, 0.10413388162851334], [0.006275516003370285, 0.008155121468007565], [-0.012716117314994335, -0.00021013889636378735], [-0.1475774198770523, 0.003233525436371565], [-0.07701504975557327, -0.042199909687042236], [0.1026848703622818, -0.01884979009628296], [0.016221899539232254, -0.13023680448532104], [-0.10414019227027893, -0.09533774107694626], [-0.05732308700680733, -0.021749097853899002], [0.09423250705003738, 0.08046914637088776], [0.00716894818469882, 0.1289960891008377], [0.1289735585451126, 0.07982222735881805], [-0.07753767818212509, 0.011924685910344124], [0.007226994261145592, 0.023633835837244987], [-0.03056681714951992, 0.10617103427648544], [0.10269121080636978, 0.10917309671640396], [0.03191531077027321, 0.11105450242757797], [-0.05168923735618591, 0.08940571546554565], [-0.03852104768157005, 0.1306249350309372], [0.0532291904091835, -0.08556481450796127], [-0.012232806533575058, 0.048314064741134644], [0.06084864214062691, -0.15240055322647095], [0.006360925268381834, 0.013721552677452564], [-0.09580998122692108, -0.01174369640648365], [-0.09038668870925903, 0.030687881633639336], [-0.07101239264011383, -0.09085523337125778], [0.06531743705272675, 0.04902141913771629], [0.07934866845607758, 0.0942402109503746]], [[-0.03643525391817093, -0.010851802304387093], [0.04529140889644623, -0.08433303982019424], [0.015427233651280403, -0.08613201975822449], [0.01969705894589424, 0.12899887561798096], [0.0936402678489685, -0.0749226063489914], [0.053528428077697754, 0.023669950664043427], [-0.01182701624929905, -0.0021301659289747477], [-0.08951307833194733, 0.0309853907674551], [0.12432607263326645, 0.06727255135774612], [-0.015688689425587654, -0.07699618488550186], [0.031985677778720856, -0.08423779159784317], [-0.03606041148304939, -0.05867059528827667], [0.05141235142946243, 0.07323310524225235], [-0.1490178108215332, 0.04382460191845894], [-0.0731259137392044, -0.06822606176137924], [-0.14081637561321259, 0.024162709712982178], [0.0988825187087059, -0.047902192920446396], [0.11662871390581131, 0.03556143119931221], [0.09986821562051773, 0.02425997145473957], [-0.17168070375919342, 0.07553033530712128], [-0.04632255434989929, -0.06811483204364777], [0.06392163783311844, -0.00297630880959332], [-0.07462552189826965, 0.11905186623334885], [0.00866041798144579, 0.00449736975133419], [-0.15481163561344147, 0.022852430120110512], [0.04220850393176079, 0.11606903374195099], [-0.16793860495090485, -0.07183890044689178], [-0.10602818429470062, -0.049473997205495834], [-0.06592307984828949, -0.06145095080137253], [0.05791373923420906, 0.07215025275945663], [0.005170614458620548, -0.03303806111216545], [-0.10989920794963837, -0.06000422686338425]], [[-0.11665018647909164, 0.1451834738254547], [-0.12685485184192657, -0.0008455621427856386], [-0.10654965043067932, -0.0006924490444362164], [-0.09765975922346115, 0.02777358703315258], [-0.12334030121564865, 0.082386314868927], [0.02987002022564411, -0.014484078623354435], [-0.09905995428562164, 0.014606857672333717], [-0.020052092149853706, 0.05898130312561989], [-0.027789007872343063, -0.08198516070842743], [0.04951813071966171, 0.06529764831066132], [0.13759863376617432, 0.14327672123908997], [0.03108201175928116, -0.08126337826251984], [0.09248233586549759, -0.04464893043041229], [-0.04471975937485695, -0.09910579025745392], [-0.11586423963308334, 0.08975861221551895], [-0.03750047832727432, -0.0581863634288311], [0.03620494529604912, -0.023651886731386185], [-0.07876402884721756, -0.0377918966114521], [0.038643576204776764, -0.03918401524424553], [-0.20818933844566345, -0.15876717865467072], [-0.14603997766971588, -0.04560823366045952], [0.05938316881656647, -0.10968974977731705], [-0.08981063961982727, 0.03526472672820091], [-0.0798577144742012, -0.04569737985730171], [-0.17480556666851044, -0.051896557211875916], [-0.03447273373603821, 0.0014087784802541137], [-0.09448984265327454, -0.037323810160160065], [0.06376190483570099, 0.05926799401640892], [-0.11547722667455673, -0.1648043990135193], [-0.13437511026859283, 0.01429687812924385], [-0.1392383873462677, -0.00994537677615881], [0.0587351955473423, 0.09127052128314972]], [[0.0531277060508728, -0.07790861278772354], [0.0634845718741417, -0.15538237988948822], [0.14212802052497864, -0.07631894946098328], [-0.050420165061950684, -0.0367070697247982], [-0.06534558534622192, -0.16876530647277832], [0.07677343487739563, 0.01579541340470314], [0.04704640805721283, -0.0028451753314584494], [0.034213241189718246, -0.01979897916316986], [0.09059827029705048, -0.12877428531646729], [-0.15327738225460052, 0.07373113930225372], [0.020793309435248375, -0.07223005592823029], [-0.08098935335874557, -0.09922683984041214], [0.14566412568092346, -0.10443416237831116], [0.09083780646324158, 0.026387864723801613], [-0.050452642142772675, -0.09456131607294083], [0.03584233671426773, -0.047161586582660675], [-0.07811323553323746, -0.1349382847547531], [-0.07583525776863098, -0.07923827320337296], [-0.07983686029911041, 0.05961957573890686], [-0.11446887999773026, -0.0014496940420940518], [-0.1266370415687561, 0.10105674713850021], [0.1547951102256775, -0.14326819777488708], [-0.11224216222763062, -0.09315735846757889], [-0.031088072806596756, 0.04000226780772209], [-0.030374348163604736, 0.08454427868127823], [-0.03970615938305855, 0.10558180510997772], [-0.07540734112262726, 0.08449224382638931], [-0.05714637413620949, -0.03919988498091698], [0.05576511472463608, -0.030854009091854095], [-0.04727168008685112, 0.14387154579162598], [0.1529490053653717, 0.029741818085312843], [-0.16615286469459534, -0.07010063529014587]]], "conv2.bias": [0.0943102091550827, 0.06158420443534851, -0.05987163633108139, 0.04435865208506584, 0.032225511968135834, 0.07180576026439667, -0.06816986203193665, 0.08919990807771683, -0.07034679502248764, -0.09764207899570465, -0.04423307254910469, 0.02717309258878231, 0.04243294894695282, 0.09289666265249252, 0.09065178781747818, 0.079552561044693, 0.01685062050819397, 0.07953701168298721, -0.01021310593932867, -0.04931718111038208, -0.04467575624585152, 0.0056038242764770985, 0.10631293803453445, 0.012758783996105194, -0.06988180428743362, 0.028787659481167793, 0.02559661865234375, -0.008907434530556202, -0.1085512787103653, 0.039561085402965546, -0.050299022346735, 0.11027481406927109, -0.026892416179180145, 0.04417264088988304, -0.0862509086728096, 0.02557232230901718, -0.10569591075181961, -0.017147023230791092, 0.011428995057940483, -0.09295674413442612, -0.03725544735789299, -0.05545239895582199, 0.030644096434116364, -0.031169261783361435, -0.09494081139564514, -0.021673118695616722, 0.014341146685183048, -0.05009482800960541, -0.08832589536905289, 0.0037252570036798716, -0.05678176507353783, -0.09582442045211792, -0.05722955986857414, 0.03531312942504883, 0.09466134756803513, 0.08832506835460663, 0.02366352081298828, -0.021405750885605812, 0.022003985941410065, -0.03534319996833801, 0.013987325131893158, -0.10425090044736862, 0.06766451150178909, -0.00592684606090188], "fc1.weight": [[0.008260109461843967, -0.028160562738776207, 0.010673523880541325, 0.02012556977570057, -0.016973253339529037, 0.021237583830952644, 0.01899361051619053, -0.03522530570626259, -0.005275626666843891, -0.01707078516483307, -0.012939583510160446, -0.012331712990999222, -0.026195721700787544, -0.01619448885321617, -0.016403507441282272, 0.02124771475791931, -0.02421954646706581, 0.013154016807675362, -0.011145093478262424, 0.004853685386478901, -0.005464137531816959, 0.029156740754842758, 0.019429517909884453, 0.005301124416291714, 0.014131002128124237, 0.009413807652890682, 0.00025572191225364804, -0.0002638781152199954, -0.016071371734142303, -0.0012548475060611963, -0.016768429428339005, 0.012737142853438854, -0.0043524629436433315, -0.02482103556394577, -0.0048144226893782616, -0.022271139547228813, -0.003112760605290532, -0.022158363834023476, 0.027261335402727127, -0.02760191261768341, -0.031023642048239708, -0.02435259521007538, 0.03526958450675011, -0.02478272281587124, 0.009060479700565338, -0.0044702645391225815, -0.00813132245093584, -0.001564839738421142, 0.012887392193078995, 3.437132363615092e-06, 0.006300340406596661, 0.02406620979309082, 0.021025275811553, -0.019345862790942192, 0.0014913913328200579, -0.024295160546898842, -0.009054525755345821, 0.0007641607662662864, -0.026293650269508362, 0.009461075998842716, 0.022739198058843613, 0.005313696339726448, 0.013729115948081017, 0.03190010040998459, 0.03007682040333748, -0.03297877684235573, -0.020297743380069733, 0.018483439460396767, -0.003394559258595109, -0.021512465551495552, 0.0123899569734931, -0.018985340371727943, 0.0011102254502475262, 0.00132952188141644, 0.02660580538213253, -0.017549071460962296, -0.021133149042725563, 0.007270692382007837, -0.019870692864060402, -0.027322331443428993, 0.019328756257891655, -0.009247643873095512, -0.005201009567826986, -0.03310747072100639, -0.006164126563817263, 0.010953366756439209, 0.0051780277863144875, -0.03937285766005516, -0.011364736594259739, 0.004228243604302406, -0.004584866110235453, 0.008558548986911774, -0.02904849871993065, 0.02812926657497883, 0.005741240456700325, 0.01100726518779993, -0.008858281187713146, 0.004654942080378532, -0.006590380799025297, 0.01978672854602337, -0.0051424214616417885, 0.013066574931144714, -0.008890286087989807, -0.01502240914851427, 0.0023991658817976713, 0.009999546222388744, -0.007461842615157366, 0.023552993312478065, -0.01993533968925476, 0.0114545077085495, 0.025125181302428246, -0.007702782284468412, 0.002278572181239724, 0.004838018678128719, -0.003166001522913575, 0.037992700934410095, 0.0226557906717062, 0.027055777609348297, 0.005382022820413113, -0.027440113946795464, 0.0015037728007882833, -0.002299467334523797, 0.0031804507598280907, 0.016350701451301575, -0.010177732445299625, -0.028440378606319427, -0.001966624055057764, -0.014139504171907902, -0.0006538958405144513, -0.009264188818633556, 0.006365994922816753, -0.02021952159702778, 0.017812807112932205, -0.0016004154458642006, 0.019316524267196655, -0.003472644602879882, 0.015100418590009212, 0.009896570816636086, -0.009969128295779228, -0.014969673939049244, 0.006765688303858042, 0.008216909132897854, -0.011452732607722282, -0.016331790015101433, 0.02052149921655655, -0.010710159316658974, -0.010990182869136333, -0.004178201779723167, 